<?xml version="1.0"?>
<opencv_storage>
<opencv_ml_svm>
  <format>3</format>
  <svmType>C_SVC</svmType>
  <kernel>
    <type>LINEAR</type></kernel>
  <C>1.</C>
  <term_criteria><iterations>10000</iterations></term_criteria>
  <var_count>3600</var_count>
  <class_count>2</class_count>
  <class_labels type_id="opencv-matrix">
    <rows>2</rows>
    <cols>1</cols>
    <dt>i</dt>
    <data>
      0 1</data></class_labels>
  <sv_total>1</sv_total>
  <support_vectors>
    <_>
      -6.45491248e-03 1.06508480e-02 1.72806811e-02 1.04619339e-02
      1.24752438e-02 4.89152223e-03 3.52681801e-03 4.65764944e-03
      -9.68558434e-03 -3.61636952e-02 -3.01334169e-03 9.71700344e-03
      7.69762043e-03 2.32248008e-02 1.97834335e-02 3.32350954e-02
      4.18303423e-02 -1.94648094e-02 -3.43494788e-02 -2.00356115e-02
      1.09315189e-02 -4.07546014e-03 1.34778710e-03 1.41894985e-02
      2.13194173e-02 2.47422103e-02 -1.64711126e-03 -1.26360133e-02
      -6.65992917e-03 2.28458624e-02 4.42685606e-03 -1.92488451e-02
      -4.40520141e-03 -2.87543121e-03 -1.19128628e-02 -1.58023536e-02
      -3.86185311e-02 1.93819180e-02 2.83686854e-02 -9.28594905e-04
      -3.22834915e-03 -4.35992330e-03 4.50527668e-03 6.50260365e-03
      -5.26649207e-02 -4.08077687e-02 1.94007736e-02 3.41591686e-02
      1.51751256e-02 7.91609660e-03 1.71402865e-03 6.20974367e-03
      8.07056390e-03 -1.46244885e-02 -1.08277068e-01 -2.19318997e-02
      6.79074377e-02 8.80162939e-02 8.90012234e-02 1.52305868e-02
      1.93716995e-02 2.86612697e-02 -7.10593164e-02 -1.35720342e-01
      -5.53244837e-02 1.37844440e-02 6.93914741e-02 3.09865233e-02
      8.70575011e-03 1.56439412e-02 -1.96380783e-02 -9.32260081e-02
      2.64514443e-02 2.89700422e-02 9.32675088e-04 -6.27892651e-03
      -3.81648797e-03 -1.59787927e-02 -2.29522604e-02 -3.84813920e-02
      -1.47649096e-02 -9.71684884e-03 -2.27121785e-02 -6.19795779e-03
      -7.05760950e-03 1.34268012e-02 6.60021836e-03 -1.63406099e-03
      -2.83772219e-02 -3.85971460e-03 -9.52708051e-02 -8.99850950e-02
      -2.05192398e-02 3.32071185e-02 5.75698726e-02 4.14919890e-02
      5.27750514e-03 1.70049202e-02 -4.66695577e-02 -1.07232615e-01
      -1.05688334e-01 -3.02480049e-02 4.36263643e-02 1.20825777e-02
      -1.50551097e-02 4.73327003e-03 -3.00749298e-03 -7.13229626e-02
      1.33635793e-02 -2.80075837e-02 -1.53392050e-02 -9.38714854e-03
      4.77820914e-03 -7.73827685e-03 -3.93957039e-03 -4.04662685e-03
      6.81968126e-03 2.90292650e-02 -3.96187380e-02 -1.58750862e-02
      -1.09181851e-02 1.55516332e-02 -2.04278436e-03 -6.16087159e-03
      -2.12222617e-03 3.51983309e-02 -3.18384962e-03 -4.70071211e-02
      -3.95187829e-03 -2.73047714e-03 -4.11391892e-02 -2.67080441e-02
      1.18081840e-02 2.18396112e-02 4.63599041e-02 -2.48996951e-02
      -4.06667776e-02 -8.33494309e-03 -2.64714821e-04 -3.38293016e-02
      -1.80467814e-02 8.07617605e-03 4.38998733e-03 1.13102999e-02
      -1.94449781e-03 3.42188426e-03 5.58620645e-03 2.82643107e-03
      9.80295893e-03 8.20813049e-03 1.40606249e-02 1.89411957e-02
      5.08217467e-03 6.76265452e-03 2.59697298e-03 3.27102393e-02
      1.24420878e-02 4.62556165e-03 1.07599031e-02 1.77706387e-02
      2.60252673e-02 2.18391996e-02 -4.01699031e-03 1.40021434e-02
      5.25516048e-02 3.26021053e-02 -2.28842311e-02 -8.18488933e-03
      1.64367503e-03 -9.25576687e-03 -1.24109853e-02 -1.23691489e-03
      2.91719101e-03 6.08847535e-04 -9.74002120e-04 -2.58430708e-02
      -1.46486862e-02 2.74678809e-04 -2.96538742e-03 -3.71916872e-03
      1.16819481e-03 1.03002349e-02 1.36862146e-02 1.39406295e-02
      1.38064278e-02 6.93975901e-03 6.54872507e-03 1.10231880e-02
      9.14100464e-03 -8.69496986e-02 -5.16445842e-03 6.35812059e-02
      9.01959315e-02 1.08654253e-01 2.69599482e-02 2.91091353e-02
      4.34843451e-02 -3.67645100e-02 -1.28652006e-01 -6.12247810e-02
      3.64234373e-02 7.03681037e-02 -2.01633442e-02 -1.41874598e-02
      3.19748260e-02 -2.94278637e-02 -8.89824107e-02 -4.32084547e-03
      -5.66975214e-03 -3.84437479e-03 -1.31356122e-03 -5.38614281e-02
      -8.17348212e-02 -4.64134244e-03 -6.63652457e-03 -2.02853489e-03
      -5.71508147e-03 -1.15203448e-02 6.61159912e-03 7.85665587e-03
      7.36964354e-03 1.10799037e-02 7.47833680e-03 4.82899277e-03
      2.20827200e-02 -7.83014372e-02 -7.48499930e-02 -1.97254587e-03
      6.82223737e-02 7.95703903e-02 3.53480838e-02 2.08468270e-02
      3.98669466e-02 -1.62598304e-02 -1.25155970e-01 -1.06467314e-01
      -3.36928703e-02 7.11449012e-02 2.63449196e-02 -2.72432342e-02
      -1.81926358e-02 -1.32968416e-02 -7.81993270e-02 -8.07659980e-03
      -1.23137794e-02 -1.15364008e-02 -1.38729010e-02 -6.14757314e-02
      -1.04852729e-01 -6.92092329e-02 -1.50152892e-02 -8.82752985e-03
      1.19782351e-02 -1.38154868e-02 2.87691713e-04 3.59667640e-04
      5.10797324e-03 3.53533961e-03 2.78296601e-03 7.42513314e-03
      1.79049131e-02 -9.77945863e-04 -3.14214826e-02 -2.95380875e-03
      2.14922102e-03 -2.21495591e-02 5.99854253e-03 2.39806268e-02
      2.31983382e-02 3.63495834e-02 -3.60728689e-02 -5.92178702e-02
      -1.65466107e-02 1.04260864e-02 2.95098359e-03 -4.05240478e-03
      1.11453701e-02 1.09098814e-02 1.04677817e-02 1.65766745e-03
      -8.76050908e-03 -9.11342911e-03 -1.59220200e-03 -6.28232211e-02
      -3.94979790e-02 -2.37733871e-02 -1.62586884e-03 3.78350355e-03
      1.80599075e-02 9.84099973e-03 3.33585404e-02 1.94454957e-02
      4.07444546e-03 5.01593901e-03 8.01242422e-03 1.48618445e-02
      2.48614345e-02 1.14633730e-02 4.09509204e-02 5.46229742e-02
      3.75152528e-02 -4.79661534e-03 3.74616880e-04 8.77501164e-03
      -7.90385762e-04 1.26675144e-03 9.28058382e-03 1.56018334e-02
      9.41616949e-03 3.37552465e-03 -2.80228462e-02 -1.21694347e-02
      7.24232243e-03 5.71666704e-03 6.23944774e-03 1.01738097e-02
      1.20503583e-03 1.68873544e-03 -1.49934890e-03 1.09280238e-03
      2.87322473e-04 4.42252820e-03 3.24951881e-03 7.45443627e-03
      -3.44454274e-02 3.86898499e-03 6.22893944e-02 6.21220246e-02
      7.10021853e-02 2.01758575e-02 1.94721762e-02 2.96436232e-02
      -1.26088532e-02 -9.56637189e-02 -3.71595956e-02 2.91599631e-02
      6.77675977e-02 -3.71130593e-02 -6.43767137e-03 4.65137735e-02
      -2.01361850e-02 -6.06329776e-02 4.51516546e-03 1.98562001e-03
      3.67227336e-03 1.75336432e-02 -3.42786498e-02 -4.89667356e-02
      -5.73706347e-03 -1.67713745e-03 7.95886200e-03 3.09237000e-03
      2.00093212e-03 2.18268670e-03 -3.41380760e-03 -9.97574627e-03
      -1.80798899e-02 -7.30024464e-03 2.55432609e-03 1.51398650e-03
      -3.19692232e-02 -4.04756181e-02 8.35266896e-03 5.44009581e-02
      7.93852136e-02 4.21069749e-02 1.85960531e-02 2.58971155e-02
      -7.04435050e-04 -9.37571898e-02 -8.57217982e-02 -2.64830403e-02
      8.34270865e-02 2.39314940e-02 -4.71064933e-02 -2.09651235e-02
      -8.88223853e-03 -5.27094677e-02 -6.27038442e-03 -1.44600552e-02
      -7.98102375e-03 -1.77358631e-02 -3.91874611e-02 -8.18846449e-02
      -6.80453628e-02 -1.92869417e-02 -6.29384443e-03 -3.42986095e-05
      -6.38487423e-03 -2.04467773e-03 -6.13264274e-03 -5.91500709e-03
      -8.35180469e-03 -6.72472734e-03 -4.92199557e-03 -1.00999966e-03
      1.44087826e-04 -1.33992424e-02 -5.81233355e-04 3.38593777e-03
      1.08374823e-02 2.48170849e-02 2.02700347e-02 1.39930192e-02
      1.80939529e-02 -2.05148514e-02 -6.07157610e-02 -2.39300132e-02
      2.14588959e-02 4.47768979e-02 2.43722983e-02 1.62871294e-02
      1.86667722e-02 2.23341491e-02 9.10684466e-03 -1.34758977e-02
      -1.31357741e-02 6.59111608e-03 -1.15226917e-01 -7.78414533e-02
      -4.43080068e-02 -1.44011958e-03 1.23774502e-02 3.45035852e-03
      -4.01419867e-03 -1.72704458e-03 3.52439843e-03 -6.61877310e-03
      -5.88391954e-03 -1.47858344e-03 5.95313497e-04 1.76581217e-03
      2.03852393e-02 4.06587534e-02 5.44565320e-02 4.81687039e-02
      2.37172237e-03 3.18071432e-03 9.22776293e-03 1.86442386e-03
      7.98468664e-03 3.19002382e-02 2.97801141e-02 2.01224275e-02
      5.60017582e-03 -2.06325017e-02 -5.11809904e-03 1.77440532e-02
      2.28943452e-02 2.71420572e-02 4.31792438e-02 1.06441202e-02
      1.31249577e-02 -5.83097979e-04 1.61928870e-02 4.45975410e-03
      2.32107565e-02 1.51755819e-02 3.54483873e-02 4.62606171e-04
      1.37547764e-03 2.81888479e-03 2.96366843e-03 8.12194869e-03
      -5.34888473e-04 2.38141767e-03 3.13874567e-04 -8.59409454e-04
      -3.65114808e-02 -1.55301923e-02 1.25695560e-02 1.98989306e-02
      -1.95573308e-02 -1.83045194e-02 3.54861394e-02 -9.32996906e-03
      -1.87155250e-02 2.23450866e-02 1.53791020e-02 1.95803586e-02
      3.94107588e-02 -3.23583558e-02 -6.67737126e-02 -6.72126655e-03
      1.10777980e-02 2.51358971e-02 1.61569864e-02 1.57335680e-02
      1.27505260e-02 -6.10045111e-03 -1.72138065e-02 -4.55696248e-02
      -9.60644335e-03 1.37984930e-02 7.13070063e-03 6.39797142e-03
      3.03906249e-03 -8.99639539e-03 -1.50680251e-03 2.20356020e-03
      -3.09969136e-03 2.59071914e-03 3.63357994e-03 6.53811905e-04
      -4.36948650e-02 -6.56327605e-02 -2.09188852e-02 5.28349727e-02
      4.52242568e-02 -5.89701161e-02 -2.87625156e-02 -6.65402599e-03
      -1.93667673e-02 1.60419708e-03 -7.33666262e-03 6.84772618e-03
      -1.64650008e-02 -4.57576215e-02 -6.20381124e-02 -4.90861088e-02
      -1.61093064e-02 3.48419952e-03 7.77270598e-03 -1.74514055e-02
      -1.56592962e-03 2.14467407e-03 4.70775552e-03 -2.62917019e-02
      -2.23615933e-02 -1.56956986e-02 -5.14222251e-04 1.05112661e-02
      1.00656762e-03 -6.08342641e-04 -1.90168561e-03 1.14453433e-04
      -1.52051123e-02 -6.73204614e-03 -1.07306847e-03 8.66301078e-03
      7.10853329e-03 -4.30250205e-02 -2.28951927e-02 1.78347528e-02
      3.94249633e-02 2.54034307e-02 1.03109600e-02 1.70088969e-02
      3.61208953e-02 2.66134515e-02 -7.60079129e-03 -4.81175212e-03
      2.52984669e-02 -8.78052786e-02 -9.49553847e-02 -5.20749353e-02
      2.23528221e-03 2.84179188e-02 2.36481670e-02 -6.82438957e-03
      -1.83927536e-03 2.06577033e-02 -5.20034088e-03 -1.06011145e-02
      4.51839063e-04 6.71454286e-03 3.46630579e-03 3.62388268e-02
      4.79580456e-04 2.39949184e-03 3.63722583e-03 2.01264117e-03
      -7.00268545e-04 -1.86799225e-04 -2.31515989e-03 -3.32185999e-03
      2.71031093e-02 1.46909915e-02 8.12948402e-03 -5.25380392e-03
      -1.13118412e-02 -4.80742846e-03 1.18097803e-02 2.02014036e-02
      2.50800811e-02 5.75874932e-02 1.12596005e-02 2.37900019e-02
      6.63607789e-05 2.25558318e-02 2.32230220e-03 2.67008077e-02
      4.75109508e-03 3.79485339e-02 -1.46750780e-02 -7.29602529e-03
      -1.89425878e-03 4.34775651e-03 1.19019598e-02 -8.84275511e-03
      1.16870750e-03 -4.66674753e-03 -1.40053183e-02 -1.65393762e-02
      -9.64735914e-03 -5.61418338e-03 -3.17556223e-05 1.03831831e-02
      4.68646688e-03 6.30819052e-03 2.18387390e-03 -8.08125455e-03
      1.93623826e-02 1.08291265e-02 1.17991185e-02 1.90233383e-02
      3.43516399e-03 -7.93791711e-02 -3.00272517e-02 8.02390371e-03
      1.99519396e-02 1.77061819e-02 2.57412847e-02 2.01261211e-02
      -1.86644718e-02 -3.41213830e-02 -5.50809912e-02 -2.44458932e-02
      1.11088520e-02 -9.90148867e-04 3.08085401e-02 -1.76591252e-03
      -2.80020498e-02 -2.15958860e-02 -4.71074246e-02 -3.88019495e-02
      -8.61880035e-05 8.84885155e-03 1.07922982e-02 1.68730654e-02
      -6.83924882e-03 -2.46414146e-03 -1.76352332e-03 2.51008803e-03
      -6.02548104e-03 4.58234129e-03 1.04261478e-02 2.62748320e-02
      4.93182195e-03 -3.11983842e-03 9.26903449e-03 -2.61675734e-02
      -3.33541036e-02 -6.77514076e-02 -3.91396321e-02 -1.34116253e-02
      6.15494512e-03 1.85245052e-02 -3.19065414e-02 -1.00522637e-02
      -4.06779861e-03 -1.95276216e-02 -8.27373415e-02 -6.92383200e-02
      -4.28295694e-02 -5.42567577e-03 5.82162105e-02 6.70265756e-04
      8.18735953e-06 -3.00790798e-02 -5.71641810e-02 -6.84422925e-02
      -2.88628209e-02 -5.83168061e-04 5.84591813e-02 3.41585688e-02
      7.90015049e-03 1.79989461e-03 -1.36562558e-02 -6.39934838e-03
      -9.82999709e-03 -3.12979589e-03 1.33536814e-03 3.74830551e-02
      6.38800412e-02 8.41310807e-03 1.63334922e-03 1.45702045e-02
      -1.12134427e-01 -7.85083324e-02 -4.00932804e-02 -1.72662537e-03
      6.01897500e-02 3.44541669e-02 -2.20371075e-02 -2.09846310e-02
      1.24326283e-02 -1.58061571e-02 -2.19752081e-02 -2.91594421e-03
      -6.53242867e-04 -1.37990098e-02 -1.39823102e-03 -3.09553184e-02
      -1.34433364e-03 -9.12477169e-03 -4.24268830e-04 -8.92382953e-03
      -1.01954918e-02 -1.15173357e-02 -4.83175181e-03 4.24726866e-02
      -9.42879170e-03 2.63952743e-03 -2.74296245e-03 5.64943627e-03
      -5.30914683e-03 -1.29131358e-02 -1.14036547e-02 2.67842654e-02
      -2.41517182e-03 1.35480240e-02 1.27854263e-02 1.75446842e-03
      -4.27360588e-04 -1.38684211e-03 2.40406371e-03 1.86284119e-03
      -6.92759408e-03 1.02298977e-02 1.85805447e-02 2.10629683e-02
      1.62178762e-02 1.09672779e-02 2.98166764e-03 1.65313564e-03
      -2.28799079e-04 3.96422856e-03 -5.86696491e-02 -3.42435902e-03
      4.07722592e-02 8.17885101e-02 8.96773338e-02 7.02120876e-03
      6.74802717e-03 2.16884427e-02 -2.85533927e-02 -4.77376878e-02
      -2.17119977e-02 5.93243353e-03 2.11357046e-02 2.82500759e-02
      7.37889856e-03 8.05775914e-03 -4.17234609e-03 -3.21524292e-02
      3.82962376e-02 2.61202287e-02 -1.03667064e-03 -7.25799287e-03
      -2.04149331e-03 -1.46512780e-02 -2.04825457e-02 -3.01761404e-02
      -2.33466015e-03 3.35666537e-03 -2.01015901e-02 -9.81214922e-03
      -6.15621544e-03 1.74171142e-02 1.52816651e-02 5.62981330e-03
      -1.19850952e-02 1.08612031e-02 -7.10646957e-02 -8.25555399e-02
      -1.98222771e-02 4.45798673e-02 5.08045331e-02 4.23611104e-02
      1.96963400e-02 1.90959610e-02 -1.75551828e-02 -9.56806317e-02
      -1.00916401e-01 -2.65851226e-02 4.53839488e-02 7.46822916e-03
      -1.54332700e-03 9.71419737e-03 1.41189201e-03 -5.18699996e-02
      3.63921076e-02 -5.52291349e-02 -3.32749523e-02 -1.99033320e-02
      5.63794654e-03 -3.48225515e-03 -7.63064367e-04 1.53559854e-03
      3.09610311e-02 3.73244844e-02 -2.56128367e-02 -2.19828542e-02
      -1.48934918e-02 1.38409287e-02 -3.21219908e-03 -1.28091974e-02
      4.23637079e-03 7.07970262e-02 -1.10870460e-02 -6.17878549e-02
      -4.06170823e-03 -2.41511893e-02 -3.19765694e-02 -3.40074971e-02
      3.24708819e-02 3.48786414e-02 6.09339327e-02 -6.64988160e-02
      -8.83297250e-02 -2.93845106e-02 -9.63890180e-03 -1.61383394e-02
      -1.05572240e-02 2.68899910e-02 8.46085139e-03 -3.27716768e-03
      1.07852956e-02 -2.66187619e-02 -2.32641138e-02 -1.80815384e-02
      7.58495182e-03 7.30329519e-03 4.72354051e-03 5.26693417e-03
      3.09460517e-02 3.49265225e-02 -5.00935838e-02 -3.50219235e-02
      -2.49665715e-02 -2.63617700e-03 -8.79793486e-04 4.65897145e-03
      3.84106254e-03 4.86191995e-02 -4.63411817e-03 -6.61247075e-02
      -4.92198393e-02 -5.83163425e-02 -4.31814156e-02 3.42603214e-03
      3.71808186e-02 3.27845737e-02 2.58880835e-02 -2.80131716e-02
      -5.16269021e-02 -4.94389348e-02 -3.47135514e-02 -5.74149797e-03
      1.22166821e-03 6.16644975e-03 9.26395692e-03 5.00066951e-03
      8.75650067e-03 7.91033171e-03 1.01392046e-02 9.27534327e-03
      7.93935638e-03 3.46155488e-03 2.48343730e-03 4.06284444e-03
      1.22762341e-02 -3.40458192e-02 1.63100509e-03 4.71920073e-02
      8.20998773e-02 8.58577564e-02 1.64534934e-02 1.19985854e-02
      2.44966112e-02 -1.09987399e-02 -5.36826886e-02 -2.69277673e-02
      1.21896816e-02 3.26977484e-02 4.15708646e-02 3.84807424e-03
      1.71662066e-02 -6.11062953e-03 -3.49630266e-02 -1.54400431e-03
      -2.18791678e-03 -8.79105122e-04 2.12104362e-03 -9.34656709e-03
      -2.82622054e-02 -4.59123868e-03 -3.47642740e-03 -2.60362547e-04
      -1.19036657e-03 -1.68508645e-02 5.79904625e-03 9.12257005e-03
      9.80486069e-03 1.87770426e-02 1.15241595e-02 1.19206533e-02
      3.02042998e-02 -5.49503267e-02 -6.30359203e-02 -3.87336500e-03
      7.96541944e-02 8.33268836e-02 5.69061749e-02 4.16588709e-02
      4.41374741e-02 -1.68860494e-03 -1.16749153e-01 -1.01551257e-01
      -2.49265805e-02 8.93336385e-02 4.26982529e-02 -1.34098460e-03
      4.36534407e-03 3.81099340e-03 -6.13546669e-02 -3.90489190e-03
      -1.10742971e-02 -8.93342961e-03 -9.90397856e-03 -7.85811245e-02
      -1.07294269e-01 -4.18737866e-02 -8.78304243e-03 -5.40291797e-03
      3.35590169e-02 -2.48011854e-02 6.70873653e-03 5.96514344e-03
      9.95643437e-03 1.14517342e-02 8.13154690e-03 2.20898855e-02
      4.65767682e-02 -2.00766549e-02 -6.24105707e-02 -1.94258813e-03
      3.30895535e-03 -1.09571731e-02 1.05231162e-02 6.28351420e-02
      3.94128263e-02 5.02065979e-02 -7.84291700e-02 -9.89020914e-02
      -4.58867550e-02 2.92484276e-02 3.34026329e-02 2.66670790e-02
      4.48776372e-02 2.95639914e-02 -5.15086437e-03 -4.60551819e-03
      -3.00048739e-02 -3.06005888e-02 2.84508523e-03 -8.00404847e-02
      -6.78951144e-02 -4.96404320e-02 -1.28086249e-04 9.02375672e-03
      1.07754841e-02 -1.31539926e-02 -5.76375797e-03 -2.40926747e-03
      5.03710704e-03 5.39958663e-03 6.99828472e-03 8.99797399e-03
      1.91676300e-02 -5.97986905e-03 -5.71422763e-02 -2.72071939e-02
      -2.83748433e-02 -1.59325022e-02 2.31805574e-02 4.25540805e-02
      3.35157290e-02 2.37406455e-02 -3.93737890e-02 -6.16039075e-02
      -2.95610353e-02 -3.49445594e-03 4.62214425e-02 2.43527927e-02
      1.71453226e-02 2.22839247e-02 1.47851249e-02 -2.91337795e-03
      -1.01309661e-02 -7.61626149e-03 -3.16726393e-03 -5.40377852e-03
      1.32637247e-02 7.79479928e-03 6.80323690e-03 1.09607857e-02
      -1.25658140e-02 5.77867671e-04 2.47324258e-02 4.22668532e-02
      4.03186828e-02 9.89426486e-03 7.74707319e-03 1.25029776e-02
      -2.57716631e-03 -3.32429484e-02 -1.92260649e-02 8.20197724e-03
      2.58912761e-02 3.26790363e-02 -4.63163015e-03 1.76197235e-02
      -5.57597261e-03 -1.97158530e-02 3.12873255e-03 2.02732603e-03
      3.07802204e-03 8.85667372e-03 -3.38002428e-04 -3.87699567e-02
      -8.49355385e-03 -3.44938459e-03 4.24419763e-03 1.06965483e-03
      1.95370940e-03 1.99174741e-03 2.28625358e-05 -2.99104536e-03
      -6.20498788e-03 -3.40894377e-03 4.53711196e-04 1.25708713e-04
      -1.78833809e-02 -4.10000645e-02 1.92226237e-03 4.70147766e-02
      6.84196055e-02 5.18926196e-02 2.42973380e-02 2.39672456e-02
      1.16806980e-02 -8.63979384e-02 -8.47105980e-02 -1.89211201e-02
      8.32371116e-02 5.03260605e-02 -2.99781356e-02 -7.73050543e-03
      4.74717095e-03 -3.91070396e-02 1.58928195e-03 -1.00795897e-02
      -1.06109167e-03 -1.56674739e-02 -5.15202805e-02 -7.60780424e-02
      -4.97690216e-02 -8.08743574e-03 -1.10748596e-03 2.16638227e-03
      -5.16463770e-03 -1.95999348e-07 -4.01383964e-03 -5.41084388e-04
      -6.44930080e-03 -4.50500939e-03 -2.39437912e-03 1.79672067e-03
      -1.07027963e-02 -2.97199804e-02 -2.41493108e-03 7.94414524e-03
      5.59432479e-03 3.01890504e-02 4.37390655e-02 2.58890148e-02
      2.72115525e-02 -8.15043375e-02 -1.09376021e-01 -4.04558182e-02
      4.95191477e-02 3.39496434e-02 4.81097726e-03 4.07156721e-02
      3.73469368e-02 8.43446981e-03 2.67587672e-03 -4.74217944e-02
      -4.72937524e-02 1.81232188e-02 -3.01898345e-02 -5.87443635e-02
      -7.70854056e-02 2.26021884e-03 2.72125676e-02 6.32243929e-03
      -4.24210820e-03 -1.13238429e-03 1.12621523e-02 -1.77538656e-02
      -8.09852779e-03 5.40261681e-04 1.01906038e-03 4.43379022e-03
      -4.81791981e-03 -2.92488374e-02 -1.55458963e-02 9.91129596e-03
      1.38439415e-02 1.79353971e-02 2.00018492e-02 1.60062481e-02
      8.87142587e-03 -3.59136611e-02 -5.16924970e-02 -1.04570249e-02
      2.28855517e-02 8.02629739e-02 4.52267490e-02 2.48731356e-02
      2.76006535e-02 1.82328057e-02 -3.28004593e-04 -8.98831524e-03
      1.49130926e-03 1.86062716e-02 -8.03938881e-03 3.91590558e-02
      2.43525170e-02 1.62349362e-02 3.05954572e-02 5.08247176e-03
      -4.87457146e-04 -2.22836109e-03 8.02343059e-03 2.79591116e-03
      5.90581913e-03 6.08920725e-03 4.71487700e-04 8.01500678e-03
      -7.34768156e-03 -7.89539702e-03 -3.71828617e-04 3.87991453e-03
      6.58554118e-03 -1.41602680e-02 6.50154334e-03 -3.94725520e-03
      -2.08172598e-03 9.39167943e-03 7.30002113e-03 8.91967118e-03
      9.00578592e-03 3.20963631e-03 -3.97669077e-02 -1.11161871e-02
      -2.34681205e-03 8.79023690e-03 3.87429399e-03 6.84073940e-03
      6.26645889e-03 -6.54107193e-04 -6.39159093e-03 -1.72943138e-02
      -8.78408831e-03 5.60004264e-04 -4.09817527e-04 2.41626124e-03
      8.86228343e-04 -2.25870102e-03 2.50319322e-03 -7.13897694e-04
      -2.55944091e-03 -3.34263095e-05 6.90783956e-04 8.70786957e-04
      -1.65798310e-02 -4.56651971e-02 -1.31309200e-02 3.07305548e-02
      7.57535361e-03 -5.18496335e-02 -2.01568808e-02 3.12370947e-03
      1.44466688e-03 7.27095688e-03 -3.71346134e-03 8.41534697e-03
      -2.50267256e-02 -6.33904636e-02 -8.38791355e-02 -4.62459400e-02
      -7.66675361e-03 4.43230290e-03 7.25378841e-03 -1.79052800e-02
      -3.26959207e-03 -3.75813455e-03 -2.73272046e-03 -2.72704307e-02
      -1.78593360e-02 -9.48975701e-03 4.25015716e-03 6.81685843e-03
      -2.11487710e-03 6.53496727e-06 5.47618791e-03 -2.34075147e-03
      -1.20358234e-02 -6.08234061e-03 -1.02344062e-03 6.57557556e-03
      -2.62182448e-02 -8.03008378e-02 -5.01894951e-02 2.12943945e-02
      6.94791526e-02 3.75065915e-02 8.17025267e-03 2.27728859e-02
      2.92381383e-02 1.37385475e-02 -4.34870608e-02 -4.04625498e-02
      1.06011983e-02 -4.19397429e-02 -6.32511750e-02 -7.28736073e-02
      -2.01316713e-03 4.04571593e-02 3.66723887e-03 -3.89006990e-03
      -5.51715167e-03 2.22132038e-02 -2.49293260e-02 -2.09076498e-02
      -4.47982864e-04 -1.09440845e-03 -1.46521535e-02 6.24485984e-02
      1.38915377e-03 2.94754235e-03 3.00336140e-03 5.18008647e-03
      -1.22772274e-03 -6.07857422e-04 -7.18970783e-03 -1.91825647e-02
      -2.08619088e-02 -3.01331580e-02 -1.88711155e-02 9.40442737e-03
      5.13722152e-02 2.72860341e-02 1.43639762e-02 1.72433294e-02
      1.14362380e-02 5.33369137e-04 -2.53543630e-02 -2.35999841e-02
      2.44468842e-02 -2.25691535e-02 4.41760644e-02 3.20552550e-02
      1.82671659e-02 4.34574075e-02 1.07380701e-02 1.72016378e-02
      1.28773492e-04 1.62492990e-02 1.90372020e-02 8.78896192e-03
      9.98740736e-03 -3.67076951e-03 7.85803702e-03 4.05811332e-02
      1.27099678e-02 3.43577075e-03 -8.12973827e-04 5.68761164e-03
      8.25896510e-04 -3.67674581e-03 -5.34684351e-03 -6.72373828e-03
      7.37089058e-03 7.04747764e-03 7.12388614e-03 2.80415360e-03
      2.34990381e-03 -2.04556528e-02 -9.82103962e-03 -1.06160680e-03
      5.51934820e-03 4.04183427e-03 8.63274653e-03 6.70277327e-03
      -4.99062054e-03 -1.06683830e-02 -2.32065711e-02 -1.22406613e-02
      -1.40304421e-03 -2.65900115e-03 9.41813551e-03 -6.17016747e-04
      -1.19091673e-02 -4.49107774e-03 -1.05572287e-02 -1.21892123e-02
      -1.39490701e-03 1.11628918e-03 5.17523428e-03 1.46848233e-02
      -8.41519577e-05 9.55061521e-03 8.36203434e-03 2.83260327e-02
      9.47187934e-03 7.02937460e-03 5.76612214e-03 1.89823639e-02
      4.66923974e-03 -6.89554727e-04 7.79282628e-03 -2.03704238e-02
      -1.14823423e-01 -7.11683705e-02 -3.49829756e-02 -7.79756624e-03
      3.15220887e-03 9.70935170e-03 -2.76838280e-02 -1.43519817e-02
      -1.61074698e-02 -2.41297036e-02 -5.63512594e-02 -3.53233144e-02
      -2.00666022e-02 3.04127787e-03 2.65512150e-02 -8.80503561e-03
      -6.20316621e-03 -2.65232250e-02 -2.40810532e-02 -3.73524092e-02
      -2.17128918e-02 -3.97950178e-03 2.83877272e-02 3.06208152e-02
      4.56317561e-03 3.25725228e-03 -4.47959686e-03 1.89006850e-02
      1.26013742e-03 4.55450005e-04 1.74322835e-04 3.31810676e-02
      9.87624004e-03 -2.75751483e-02 -1.94750465e-02 2.51028407e-03
      -1.15548909e-01 -1.00436769e-01 -6.77282363e-02 -9.76172276e-03
      2.57042870e-02 7.98346102e-03 -6.65872637e-03 -2.42961552e-02
      7.49706617e-03 -2.80255359e-02 -3.48988399e-02 -8.74313805e-03
      -2.04643589e-02 -7.06563964e-02 1.64774135e-02 -4.83142398e-02
      -9.76471417e-03 -1.84251741e-02 -7.75554590e-03 -1.40072880e-02
      -1.43960109e-02 -2.69608870e-02 -4.16537561e-02 2.71933153e-02
      -3.38151082e-02 -2.53368425e-03 -3.78081645e-03 6.24378119e-03
      -7.63410609e-03 -1.70187745e-02 -1.76743157e-02 2.42040437e-02
      4.59971052e-04 -2.85258722e-02 -1.76439136e-02 2.46306485e-03
      -2.45079324e-02 1.88639350e-02 1.76221021e-02 8.27837829e-03
      3.11701540e-02 4.86108139e-02 2.22335905e-02 -4.39245393e-03
      9.07324906e-03 3.42630111e-02 1.51654880e-03 4.02595801e-03
      -1.68401245e-02 -1.63108427e-02 3.35385166e-02 3.18137044e-03
      -3.31247551e-03 -1.27925975e-02 3.21975863e-03 -3.17862933e-03
      -1.04115633e-02 -1.32792275e-02 -5.35711646e-03 5.91844022e-02
      -9.82019491e-03 -5.66652790e-03 -4.04331041e-03 -7.29615008e-03
      -4.35118703e-03 -4.26818198e-03 -5.06202877e-03 2.36534197e-02
      2.17101909e-02 8.12186953e-03 -1.89995160e-03 -2.53474177e-03
      4.44943289e-04 -4.30892222e-03 -5.34998067e-03 -6.47399202e-03
      9.17781424e-03 1.09354714e-02 -2.79302802e-02 -6.03661686e-03
      -1.61504920e-03 8.49349611e-03 1.79264005e-02 9.76983830e-03
      9.12396610e-03 3.62308882e-02 -1.18279709e-02 -5.21577820e-02
      -9.47190635e-03 4.46120165e-02 5.68084680e-02 4.42056619e-02
      1.85323711e-02 2.00004075e-02 1.74425319e-02 -2.73900777e-02
      -3.87034565e-02 -8.90089292e-03 1.68051701e-02 8.52427725e-03
      1.45309307e-02 7.67970318e-03 3.16532725e-03 -5.05758310e-03
      3.37203518e-02 -4.77621257e-02 -2.46517975e-02 -1.37013942e-02
      3.96676548e-03 1.11879176e-03 2.89427210e-03 6.18275441e-03
      5.06160595e-02 5.24096377e-02 -1.12295765e-02 -1.00017097e-02
      -8.06346349e-03 1.07519105e-02 4.03064722e-03 -5.35569247e-03
      2.12805644e-02 9.09451172e-02 -1.57992151e-02 -4.63158675e-02
      1.00863967e-02 -2.05596071e-02 -4.78512533e-02 -3.15211655e-04
      5.22318855e-02 4.51450944e-02 6.50419816e-02 -6.23319224e-02
      -8.04832801e-02 -2.57607177e-02 -5.35287801e-03 -1.60237439e-02
      1.57139562e-02 3.74866873e-02 1.47058936e-02 5.98640181e-03
      2.68871617e-02 -6.53756410e-02 -4.64792177e-02 -2.99433284e-02
      5.24619315e-03 8.46485049e-03 7.91106839e-03 1.11150984e-02
      6.31545931e-02 1.25322025e-02 -9.40704122e-02 -8.98288116e-02
      -5.03832921e-02 -1.94923840e-02 5.03133796e-03 1.95398387e-02
      -2.19798938e-04 8.64578336e-02 4.07158621e-02 -4.95571680e-02
      -5.26184477e-02 -4.96246926e-02 -1.01528885e-02 1.37187764e-02
      5.74241579e-02 5.06966561e-02 6.55642524e-02 -4.57588956e-02
      -8.78263786e-02 -6.64269775e-02 -4.60243821e-02 -1.53574662e-03
      2.69020302e-03 1.10670959e-03 1.30125033e-02 5.87410154e-03
      1.77369714e-02 -3.56907137e-02 -2.28065345e-02 -1.97474919e-02
      -6.45965012e-03 -1.70226197e-03 6.35983190e-03 6.86716614e-03
      1.72967184e-02 3.52698378e-02 -1.02665983e-01 -7.41244480e-02
      -2.73411032e-02 -2.52894517e-02 2.46890646e-04 7.83348270e-03
      1.44598605e-02 7.88457319e-02 1.88369080e-02 -4.80991565e-02
      -4.28616889e-02 -1.19786561e-02 2.15884168e-02 1.11765962e-03
      1.79548934e-02 1.37576880e-02 3.32782790e-02 -8.84185918e-03
      -1.73033159e-02 -1.35798100e-02 7.28803687e-03 2.42669750e-02
      -7.44943833e-03 1.98772289e-02 9.79719125e-03 1.89514947e-03
      2.77971267e-03 -1.13000879e-02 1.57641858e-04 1.74039998e-03
      3.24582239e-03 7.51628075e-03 5.54697262e-03 8.12564325e-03
      1.92241874e-02 -5.23480959e-03 -4.11732979e-02 -6.79538911e-03
      3.54238451e-02 4.72279899e-02 4.72569279e-02 1.95269380e-02
      2.01247614e-02 2.00768616e-02 -3.76432650e-02 -5.34242019e-02
      -8.85312911e-03 3.10089085e-02 1.45947440e-02 7.15320557e-03
      5.57650160e-03 5.80073986e-03 -5.93777932e-03 1.16339966e-03
      -3.64231691e-03 -1.92869862e-03 -3.77973984e-03 -5.07378653e-02
      -2.60619018e-02 -8.61775037e-03 -1.33085961e-03 -3.86744687e-05
      3.00073139e-02 -1.98985599e-02 8.13627895e-03 4.70359903e-03
      7.29484763e-03 8.32059886e-03 5.04279416e-03 1.77937131e-02
      4.18559723e-02 -2.06746887e-02 -5.59414849e-02 -3.68879351e-04
      -6.63870061e-03 -3.33729796e-02 1.68247614e-02 6.40462264e-02
      4.19548117e-02 4.88604158e-02 -7.54751712e-02 -1.03081234e-01
      -5.05140908e-02 1.60156488e-02 2.19969954e-02 9.01178177e-03
      4.55886722e-02 3.31783928e-02 1.42256757e-02 -7.66436709e-03
      -3.44503261e-02 -3.76702994e-02 -7.32772693e-04 -4.92021702e-02
      -4.83593345e-02 -3.93427759e-02 4.44658985e-03 1.26915798e-02
      2.38378774e-02 -4.45220023e-02 -2.29785573e-02 -7.92472530e-03
      3.06985783e-03 8.99429433e-03 1.26242312e-02 1.02752401e-02
      3.79471481e-02 1.30794616e-02 -6.11064248e-02 -5.70369288e-02
      -4.57103290e-02 1.81166045e-02 4.12125513e-02 6.06574304e-02
      4.71568406e-02 4.61990088e-02 -5.88841178e-02 -6.79298788e-02
      -9.60264914e-03 -9.90052242e-03 5.27993366e-02 1.89354643e-02
      2.72918446e-03 2.85163764e-02 1.55113889e-02 -7.56736938e-03
      2.26937671e-04 -1.06837694e-02 -2.92678177e-03 -6.41146209e-03
      1.68411881e-02 1.11456895e-02 1.00271013e-02 1.69678386e-02
      1.22151924e-02 -3.14022489e-02 -2.46234797e-02 -4.12740326e-03
      -1.87313126e-03 3.01779527e-03 3.73924291e-03 6.62835315e-03
      2.38092355e-02 5.10109076e-03 -4.04706597e-02 -4.31667566e-02
      1.73560216e-03 5.71113452e-02 3.71931233e-02 2.80069392e-02
      1.48230856e-02 2.19733529e-02 -2.23114882e-02 -3.16816308e-02
      2.36971155e-02 2.46379208e-02 4.33333330e-02 8.74324422e-03
      4.20676284e-02 2.86486764e-02 4.84993588e-03 -1.34645980e-02
      -9.02530085e-03 8.96044374e-02 2.34069396e-02 -4.75124083e-03
      -2.64146295e-03 3.57647496e-03 4.53042146e-03 -3.61775141e-03
      6.27403893e-03 -1.65730640e-02 -2.77414476e-03 1.08885355e-02
      1.69917252e-02 2.12119296e-02 7.56849675e-03 7.61236250e-03
      1.73879042e-02 -1.72773711e-02 -3.90101038e-02 -7.54938042e-03
      2.25349404e-02 5.66658005e-03 -1.04915099e-02 -3.81184113e-03
      4.92306426e-03 4.03952599e-03 5.15186880e-03 -2.38875276e-03
      2.34877015e-03 -9.18758009e-03 -1.05114862e-01 -5.89525215e-02
      -1.92955006e-02 -9.42250539e-04 2.47361162e-03 1.82060478e-03
      -1.93958590e-03 2.02683746e-04 -2.15638010e-03 -3.24213586e-04
      -4.08348022e-03 -1.99058792e-03 -5.56013605e-04 1.53675966e-03
      -1.09740430e-02 -2.99836062e-02 -6.85158418e-03 -6.19471131e-04
      2.41925078e-03 2.44428720e-02 3.54676247e-02 1.99509189e-02
      2.00240221e-02 -8.12878236e-02 -1.20756760e-01 -6.06773272e-02
      1.83656756e-02 5.61570898e-02 1.96108725e-02 2.60966178e-02
      3.18629630e-02 2.01864298e-02 -1.08891316e-02 -6.70313835e-02
      -7.08434358e-02 -9.63399000e-03 -4.04892080e-02 -6.45551085e-02
      -8.28265548e-02 1.24009000e-03 2.61741038e-02 -4.86928085e-03
      -9.84447543e-03 -4.02476126e-03 6.30178442e-03 -2.41102651e-02
      -7.24991877e-03 -1.16847723e-03 -3.90503951e-03 -1.27662183e-03
      -1.57860275e-02 -7.11270720e-02 -4.06096578e-02 -1.19859269e-02
      3.40627739e-03 2.74268147e-02 2.75539104e-02 2.42655799e-02
      1.34084299e-02 -5.10063991e-02 -4.47799414e-02 1.48744844e-02
      -2.40137731e-03 7.09112883e-02 3.02965753e-02 8.42525903e-03
      2.97170095e-02 1.60912313e-02 -1.52489524e-02 -2.84352694e-02
      -2.39147898e-02 1.47078140e-02 -2.40295958e-02 3.60568389e-02
      2.58327983e-02 1.51942791e-02 3.68046239e-02 5.69064978e-05
      -1.50207225e-02 -1.61702055e-02 6.50338456e-03 2.93741236e-03
      8.88480805e-03 7.11561972e-03 -3.97479534e-03 6.80329325e-03
      -2.41887337e-03 -2.16804054e-02 -2.18911637e-02 3.90146440e-03
      3.68105099e-02 2.43644305e-02 1.11573907e-02 5.14297048e-03
      6.31764391e-03 -2.77438313e-02 -3.06439288e-02 5.45940250e-02
      2.52614040e-02 3.38613950e-02 1.16667217e-02 3.29644717e-02
      2.61282306e-02 8.81487969e-04 -1.10939834e-02 -1.59892626e-02
      1.30010933e-01 4.81214784e-02 -5.90982009e-03 -3.44895734e-03
      6.70492789e-03 4.57060942e-03 -5.57074556e-03 1.51980082e-02
      7.23837409e-03 3.81229795e-03 2.49930401e-03 2.51420029e-03
      -7.37956376e-04 8.22986069e-04 -1.70659542e-03 1.41247688e-03
      1.36420000e-02 -1.16738565e-02 -1.20891654e-03 6.96331495e-03
      -8.24604416e-04 -1.81873869e-02 -3.56401037e-03 7.28413742e-03
      2.00048275e-02 8.41578934e-03 2.04108097e-03 8.83318484e-03
      -1.09343110e-02 -1.03088610e-01 -7.14330226e-02 -2.15805657e-02
      -4.96961366e-05 5.21048671e-03 5.45216585e-03 -6.79345801e-03
      8.77176499e-05 -3.63752805e-03 -1.28864171e-03 -1.19835725e-02
      -5.85777266e-03 -2.14896491e-03 4.95604845e-03 3.74407601e-03
      -1.76165474e-03 -1.59497635e-04 1.49296958e-03 -1.85615325e-03
      -4.02561342e-03 -2.42678402e-03 -4.60233248e-04 3.83953168e-03
      -2.69103348e-02 -6.84097707e-02 -5.22085279e-02 3.61063448e-03
      5.08371256e-02 2.12269425e-02 1.59612193e-03 1.82795096e-02
      2.19869260e-02 -1.05413692e-02 -6.95239753e-02 -6.40519857e-02
      -1.64701343e-02 -5.71943112e-02 -7.56068602e-02 -8.98822471e-02
      -5.01579512e-03 3.07263993e-02 -1.00973286e-02 -1.56167801e-02
      -8.99263564e-03 1.17242979e-02 -3.57138626e-02 -1.88087542e-02
      -4.95964056e-03 -1.47090685e-02 -3.60411592e-02 3.97380963e-02
      -2.44467682e-03 9.59904806e-04 -1.13238196e-03 3.43607087e-03
      -1.44211494e-03 -1.08550373e-03 -8.41534976e-03 -2.97861882e-02
      -3.96040119e-02 -4.16875668e-02 -2.31575337e-03 -3.20436695e-04
      5.29946163e-02 1.63241662e-02 3.59567977e-03 1.45747177e-02
      6.83176052e-03 -2.01348439e-02 -3.57729420e-02 -3.07064280e-02
      -1.88880961e-03 -4.40080725e-02 3.33498605e-02 2.82297935e-02
      1.15205608e-02 4.02791761e-02 8.08917359e-03 -3.37943644e-03
      -2.76317522e-02 4.32228204e-03 1.54176522e-02 9.53923818e-03
      3.80907347e-03 -2.15601102e-02 -9.30219330e-03 3.04132402e-02
      1.07498169e-02 2.41038040e-04 -5.29100792e-03 4.36006580e-03
      -5.37320797e-04 -8.21612217e-03 -1.11054378e-02 -1.29914926e-02
      -1.75158512e-02 -1.57952178e-02 4.88283783e-02 1.33632636e-02
      8.68895743e-03 2.41475110e-03 1.21497596e-02 9.74977855e-03
      -2.62857438e-03 1.57300732e-03 -1.68759879e-02 1.20424569e-01
      4.20130715e-02 -4.59076324e-03 -4.03154502e-03 5.96405612e-03
      1.38626713e-03 -5.22862561e-03 3.37734260e-02 2.20481716e-02
      7.12405983e-03 7.52899447e-04 1.22202747e-03 -3.10973078e-03
      1.07155484e-03 -5.15071629e-03 4.88039898e-03 3.10201515e-02
      1.82438828e-02 -7.39814946e-03 -9.46912635e-03 -2.09058379e-03
      -1.43118319e-03 -1.18344056e-03 -1.60752959e-03 9.77085717e-03
      3.38175334e-03 8.00511858e-04 4.65350691e-03 -6.53389655e-03
      -4.53850962e-02 -3.19806077e-02 -1.03504369e-02 -1.82474917e-03
      2.29388126e-03 7.24201044e-03 -1.00566996e-02 -2.64794240e-03
      -5.45814773e-03 -8.18196032e-03 -1.86351631e-02 -9.29183513e-03
      -3.94881470e-03 6.61702733e-03 1.34463357e-02 -4.53527877e-03
      -7.60192634e-04 -1.23255211e-03 -5.44987991e-03 -1.08027002e-02
      -8.33668001e-03 -1.84854248e-03 1.37579953e-02 3.36338766e-02
      2.68135942e-03 3.75738251e-03 -1.43796043e-03 3.06240693e-02
      2.07002787e-03 5.97229321e-03 3.85851366e-03 3.85597199e-02
      -1.10043492e-02 -4.00736108e-02 -2.76659578e-02 -7.75489258e-03
      -1.18472420e-01 -5.15921861e-02 -5.01393117e-02 -9.39373486e-03
      1.41192339e-02 -5.33662736e-03 -6.93364954e-03 -1.31316986e-02
      1.89012720e-03 -3.21002379e-02 -2.38671377e-02 -8.17829464e-03
      -2.79170536e-02 -8.87525454e-02 7.78563693e-03 -6.15826361e-02
      -9.87374224e-03 -1.22426292e-02 5.77255734e-04 -7.94448890e-03
      -9.11644287e-03 -2.44962368e-02 -6.03252091e-02 3.22706401e-02
      -4.14978527e-02 -3.45772505e-03 -2.51823827e-03 2.07007900e-02
      -3.96761950e-03 -6.90507656e-03 -1.29530840e-02 2.03044973e-02
      -2.20123772e-02 -5.42234220e-02 -1.55858994e-02 -1.15211622e-03
      -4.07024100e-02 1.41753601e-02 1.27315242e-02 1.01887109e-03
      1.89386252e-02 -2.11245977e-04 1.46305952e-02 -2.88843662e-02
      -6.74558943e-03 1.59299430e-02 9.60740144e-04 -8.71315598e-03
      -4.49052975e-02 -5.40858917e-02 1.71689820e-02 -2.12532165e-03
      -1.14913220e-02 -2.03133766e-02 -4.56454419e-03 -5.25336294e-03
      -1.77605581e-02 -2.29844712e-02 -2.27602273e-02 5.09973578e-02
      -1.39108691e-02 -1.20414672e-02 -1.25259059e-02 -7.51986809e-04
      -9.77108069e-03 -6.98918384e-03 -6.02676161e-03 1.96562968e-02
      3.11440160e-03 -1.31594632e-02 4.46025580e-02 1.05349431e-02
      -4.62887716e-03 -2.74660951e-03 1.87915168e-03 -1.68358150e-03
      -3.74887441e-03 4.12821472e-02 2.62053963e-02 -2.23137834e-03
      -1.33382948e-02 -7.49339070e-03 -5.06228348e-03 -5.05940232e-04
      -9.36727598e-03 2.38399091e-03 5.70047498e-02 3.57054360e-02
      -2.25380696e-02 -1.86532158e-02 -1.45181138e-02 -7.77291087e-03
      -5.50666358e-03 -3.26088164e-03 3.38388085e-02 3.41833942e-02
      1.15532000e-02 -6.62892126e-03 -7.63035379e-03 -9.13279690e-03
      -4.80394438e-03 -3.25085153e-03 7.76479894e-04 1.74733866e-02
      1.34487450e-02 -3.09057757e-02 -8.62195343e-03 -4.94417222e-03
      2.86660390e-03 1.82039896e-03 2.78004748e-03 4.72109718e-03
      2.63433494e-02 5.15317358e-02 -2.52665933e-02 -5.50563494e-03
      -4.52159438e-03 4.88996226e-03 5.35349501e-03 3.61983618e-03
      2.00220589e-02 6.76249713e-02 1.96297504e-02 -3.20503488e-02
      1.05468009e-03 -1.31780738e-02 -1.39876259e-02 1.59787945e-02
      3.38504277e-02 3.71943824e-02 6.55072257e-02 -1.43234823e-02
      -3.36295404e-02 -1.07052913e-02 -7.88126548e-04 1.06853303e-02
      1.90348942e-02 1.61736906e-02 5.24274632e-03 1.50357643e-02
      2.25968417e-02 -6.90736249e-02 -4.47352827e-02 -2.46885382e-02
      1.66503526e-03 6.47333171e-03 6.93270797e-03 1.18515780e-02
      4.69353311e-02 1.21172499e-02 -1.07149683e-01 -1.01649255e-01
      -4.67885993e-02 -2.66760681e-02 9.83876176e-03 2.56724507e-02
      -2.68474594e-03 8.90412629e-02 4.43726182e-02 -5.95580973e-02
      -7.47844875e-02 -6.94591776e-02 -4.99968044e-03 1.04721738e-02
      4.53669615e-02 4.67036702e-02 6.73806891e-02 -3.28446552e-02
      -6.71409294e-02 -5.74778244e-02 -3.42641249e-02 -5.34406956e-03
      1.57633855e-03 -6.06373511e-03 8.65319930e-03 2.62646936e-03
      1.64899491e-02 -7.10583106e-02 -4.88863178e-02 -4.84005362e-02
      -2.66587660e-02 -1.37974378e-02 1.12243043e-02 1.51465163e-02
      2.79032718e-02 9.07651056e-03 -1.34397745e-01 -1.06047124e-01
      -5.11477664e-02 -3.69266197e-02 1.26126017e-02 2.01412011e-02
      1.44371325e-02 7.55894929e-02 2.71798763e-02 -5.28160706e-02
      -4.54406589e-02 -7.25479505e-04 6.54348135e-02 4.03396226e-02
      2.99826097e-02 1.49556994e-02 5.04075512e-02 -1.67368185e-02
      -3.17025483e-02 -2.62673311e-02 1.76405180e-02 6.38277754e-02
      1.49672097e-02 4.47463952e-02 2.10470352e-02 8.41630995e-03
      -2.38210661e-03 -1.55999390e-02 -2.48375870e-02 -2.77965069e-02
      -6.29814668e-03 2.91289249e-03 3.43642733e-03 1.25817461e-02
      1.44131258e-02 -1.62163023e-02 -4.51171212e-02 -3.65121327e-02
      -1.52302375e-02 6.33936236e-03 7.28610018e-03 9.24598053e-03
      9.72952787e-03 6.49642339e-03 -6.95675239e-03 -1.30769024e-02
      4.20163246e-03 2.06452943e-02 2.92392932e-02 3.88933867e-02
      1.45829550e-03 3.55888135e-03 -7.17753312e-04 -1.12702337e-03
      3.94448545e-03 1.59741810e-03 -5.07239206e-03 -8.06403812e-03
      2.41519697e-02 1.69730058e-03 8.24969355e-03 2.35979911e-03
      1.52791589e-02 -5.73830400e-03 1.66161894e-03 6.71240778e-05
      2.50930339e-03 3.04796547e-03 2.32743635e-03 8.13103002e-03
      2.21019387e-02 1.71538386e-02 -2.71845572e-02 -5.95155172e-03
      -9.93539393e-03 -1.35781560e-02 8.24609492e-03 2.90545858e-02
      2.15779841e-02 4.58780080e-02 -2.16434635e-02 -5.72721660e-02
      -3.00528947e-02 -1.24788249e-03 2.27663368e-02 2.02538222e-02
      1.50040872e-02 1.12458747e-02 2.82849260e-02 -1.03359052e-03
      -1.83593240e-02 -2.15613805e-02 -7.29069766e-03 -1.95921715e-02
      -4.46780119e-03 -1.34345703e-02 3.85800493e-03 9.28566232e-03
      8.78654700e-03 -5.91649339e-02 -3.25304903e-02 -1.01103373e-02
      -1.83470268e-03 5.85622806e-03 1.02968626e-02 4.43717977e-03
      2.87450645e-02 6.61150273e-03 -6.91092536e-02 -7.99682662e-02
      -6.47623166e-02 5.49841719e-03 2.72856206e-02 4.17614318e-02
      3.94630954e-02 3.69065143e-02 -5.63634336e-02 -7.24656954e-02
      -2.36352552e-02 -3.32349837e-02 2.32651364e-02 -4.58992925e-03
      -1.83574706e-02 1.33288819e-02 2.31545581e-03 -1.07728839e-02
      -1.78575213e-03 8.81521218e-03 -9.31793544e-03 -9.78821795e-03
      5.81789121e-04 1.96363032e-03 3.41131911e-03 7.07776472e-03
      6.30572066e-03 -6.82414323e-02 -5.50320297e-02 -7.60113774e-03
      8.02115945e-04 8.70806351e-03 7.56810885e-03 1.50844241e-02
      3.49270850e-02 -3.30768549e-03 -6.19407780e-02 -5.38845211e-02
      6.25100126e-03 6.90438375e-02 3.58175449e-02 3.65039594e-02
      1.61047094e-02 3.09157036e-02 -5.81658743e-02 -7.42190257e-02
      2.08214335e-02 3.21670473e-02 5.66710085e-02 3.59350592e-02
      6.21507615e-02 5.88376001e-02 6.38296455e-03 -4.24160361e-02
      -4.96406592e-02 7.19942600e-02 3.10004149e-02 -1.81116331e-02
      -7.01227551e-03 3.10573191e-03 6.09354721e-03 -1.29214562e-02
      -5.90120722e-03 -1.59529801e-02 -8.54409579e-03 6.60265039e-04
      9.51691344e-03 4.39273939e-03 4.41883737e-03 2.41056969e-03
      1.96539378e-03 -4.17859061e-03 -1.32781351e-02 -4.55985358e-03
      7.84270652e-03 2.22258698e-02 3.56499590e-02 2.32528095e-04
      6.68625487e-03 2.47885427e-03 -3.51738976e-03 4.31525521e-03
      4.53790453e-05 -1.16553772e-02 -2.48018783e-02 2.79786512e-02
      7.17466045e-03 1.69936344e-02 6.04702299e-03 -4.38929722e-03
      1.59164856e-03 -6.87904330e-03 -5.03784418e-03 -1.43076098e-02
      -8.52782628e-04 -8.97846476e-04 2.24173837e-03 4.94749611e-03
      9.96027328e-03 -1.39488829e-02 -5.40615199e-03 -3.14645981e-03
      -2.80087767e-03 3.97356832e-03 1.27981380e-02 5.84751414e-03
      2.07644701e-02 -1.10424813e-02 -5.52739799e-02 -4.01552916e-02
      -2.66043376e-03 3.00850458e-02 1.76904723e-02 7.79432384e-03
      1.38277346e-02 3.41703892e-02 -1.43626379e-03 -3.94497514e-02
      -4.26619910e-02 -1.65862944e-02 -6.12295829e-02 -1.63011160e-02
      -3.02385651e-02 4.50535119e-03 2.08933800e-02 -6.78745052e-03
      -7.61739397e-03 -2.55084760e-03 1.29595085e-03 -1.17040314e-02
      -2.33342522e-03 -2.59419234e-04 -3.07075866e-03 -1.20758347e-03
      -2.03344040e-02 -7.35610574e-02 -5.28306216e-02 -2.64256410e-02
      -1.24613689e-02 1.74831748e-02 1.73136704e-02 1.77526977e-02
      9.84345097e-03 -5.22025973e-02 -4.45450284e-02 8.65447521e-03
      -2.52737794e-02 3.85215655e-02 -4.40521631e-03 -1.66343097e-02
      1.18355984e-02 6.34432130e-04 -2.40198150e-02 -2.72823554e-02
      -4.76847542e-03 2.58759186e-02 -2.72046905e-02 2.53247446e-03
      6.28246227e-03 2.20543891e-03 1.38379671e-02 -3.97045445e-03
      -2.05123350e-02 -2.19370108e-02 -4.33408702e-03 -9.95768118e-04
      4.60129743e-03 2.87894928e-03 -6.77941740e-03 6.51943847e-04
      -7.72166438e-03 -4.84932736e-02 -4.74477187e-02 3.87170445e-03
      6.87087178e-02 2.64202449e-02 1.45484842e-02 5.24976850e-03
      9.74047836e-03 -7.30121881e-02 -7.45385662e-02 4.52007391e-02
      3.18476744e-02 2.74660885e-02 1.52788043e-03 5.86880147e-02
      4.22296226e-02 -5.13624260e-03 -6.89284876e-02 -2.74216644e-02
      8.29408318e-03 3.00131328e-02 -2.88283452e-02 -1.38849653e-02
      1.58742862e-03 9.19706130e-04 -2.88272947e-02 1.95651110e-02
      6.70512021e-03 2.71766190e-03 4.56390902e-03 6.43930325e-05
      -3.02303233e-03 -1.16954453e-03 -4.80171107e-03 -3.46316444e-03
      -1.08784065e-03 -5.97394723e-03 -5.15751727e-03 -5.46105672e-04
      8.12996831e-03 1.67174861e-02 -5.23106428e-04 3.38028301e-03
      1.65755884e-03 -4.93636029e-03 2.51280633e-03 -1.82300247e-03
      -1.25213405e-02 -2.62219068e-02 1.50766419e-02 6.11514132e-03
      1.56204542e-02 6.26076385e-03 -1.63500123e-02 -1.36917681e-02
      -2.23942604e-02 -9.57867503e-03 -2.31372546e-02 4.65333724e-05
      -1.25173794e-03 1.36234658e-03 6.45073317e-03 5.79200452e-03
      8.64092354e-03 -2.34788065e-04 2.38349033e-03 -2.90441257e-03
      3.59163014e-03 2.15228437e-03 1.46674062e-03 -1.23745645e-03
      9.99236386e-03 -2.50298884e-02 -2.08629277e-02 -3.38183017e-03
      1.92921087e-02 7.60120712e-03 -4.25921055e-04 9.47931223e-03
      3.05170976e-02 -3.07833194e-03 -4.66083996e-02 -4.23215888e-02
      -1.94278378e-02 -9.84456316e-02 -2.96695381e-02 -3.73886228e-02
      9.57147568e-04 2.50450727e-02 -1.41724069e-02 -1.28671089e-02
      -5.25180297e-03 2.99075805e-03 -2.00688355e-02 -5.90920541e-03
      -1.17761805e-03 -1.04490267e-02 -1.95516199e-02 1.49779171e-02
      -1.77830376e-03 6.18524908e-04 -1.28254504e-03 7.49575440e-04
      -6.69601781e-04 -6.01027394e-04 -4.33958648e-03 -1.44880852e-02
      -3.74916531e-02 -3.29228416e-02 4.21161624e-03 -1.66534241e-02
      2.78850216e-02 -7.03823986e-03 -1.10807875e-02 4.69144341e-03
      -9.62675607e-04 -2.67463867e-02 -1.58272628e-02 -8.94173235e-03
      1.75937116e-02 -4.43475880e-02 5.06718410e-03 1.00869853e-02
      -1.15454604e-03 1.60505958e-02 -5.15476847e-03 -3.39846350e-02
      -4.68768179e-02 -1.28742522e-02 1.27382693e-03 5.24967490e-03
      -4.02690424e-03 -3.06209698e-02 -1.89301018e-02 1.26374122e-02
      4.60866420e-03 -4.21025092e-03 -9.46966838e-03 -1.37482723e-03
      -2.32913624e-03 -8.75368714e-03 -1.19123403e-02 -1.02222962e-02
      -5.15205376e-02 -5.33692539e-02 8.32128599e-02 2.17681807e-02
      -6.70435373e-03 -9.99318529e-03 2.04923730e-02 1.50837945e-02
      -1.07008237e-02 -5.47102392e-02 -2.29752455e-02 -4.62700613e-03
      5.26713906e-03 -3.17298882e-02 -1.56091275e-02 4.42724617e-04
      -5.84910670e-03 -3.71329002e-02 2.77217384e-02 9.18423000e-04
      -2.70384317e-03 4.07752488e-03 -7.73048727e-03 -8.68793856e-03
      -1.75745343e-03 -1.28130512e-02 -9.51204076e-03 3.45382877e-02
      1.97711624e-02 -1.71894412e-02 -1.48338908e-02 -5.50674461e-03
      -3.80140683e-03 -2.14898353e-03 -1.93484267e-03 1.67620685e-02
      -4.82462393e-03 3.59152509e-05 -3.17189586e-03 -7.84213282e-03
      -1.64872520e-02 1.51591504e-03 2.35623633e-03 7.52094481e-03
      3.00657796e-03 -2.33752355e-02 -2.88279708e-02 -3.66506055e-02
      -1.22718299e-02 -2.45922133e-02 2.24604644e-03 -4.44185309e-04
      -8.31639452e-04 1.18913536e-03 6.17619185e-03 -8.63995927e-04
      -6.69032754e-03 -3.22949770e-03 -8.00303183e-03 9.13363975e-03
      5.60666528e-03 5.89332357e-03 -2.12127969e-04 1.59463491e-02
      1.36355637e-02 -1.68996782e-03 -5.58442529e-03 2.52398336e-03
      -9.43022489e-04 3.12333781e-04 3.53784789e-03 8.48434586e-03
      -1.28083779e-02 -3.31260860e-02 -2.22453792e-02 -1.01612788e-02
      -6.63896948e-02 -2.18705721e-02 -2.05584802e-02 -4.62829927e-03
      9.01682489e-03 -2.73989793e-02 -1.04130888e-02 -6.81352615e-03
      -4.25149716e-04 -1.93675645e-02 -9.10487119e-03 -3.54764494e-03
      -1.87581573e-02 -6.29907250e-02 -1.18289134e-02 -3.86333540e-02
      -5.03198337e-03 -6.35351287e-03 3.97773134e-03 -2.91642454e-03
      -3.09574557e-03 -1.34197203e-02 -4.96330597e-02 4.81536575e-02
      -2.82358676e-02 -1.12571078e-03 -1.36743835e-03 2.07391642e-02
      -1.13337033e-03 -2.22105486e-03 -7.11783348e-03 1.61472112e-02
      -2.08470598e-02 -5.22734150e-02 6.33516768e-03 9.56208352e-03
      -4.02978063e-02 4.73917369e-03 8.56490992e-03 -2.55987002e-03
      1.11927660e-02 -1.76106133e-02 -9.63175902e-04 -5.23704253e-02
      -2.76434440e-02 1.85698317e-03 2.27672793e-03 -1.63722206e-02
      -6.04101196e-02 -5.64981699e-02 -1.20036975e-02 -7.51962140e-03
      -1.87009852e-02 -2.80135125e-02 -1.44963115e-02 -7.19689578e-03
      -1.93917453e-02 -2.46156845e-02 -2.04150956e-02 3.06231827e-02
      -1.53771322e-02 -1.25936763e-02 -1.41288070e-02 1.71441268e-02
      -1.20238597e-02 -5.18604694e-03 -2.32502725e-03 1.88158080e-02
      -2.31204703e-02 -8.34046230e-02 4.20158692e-02 1.71981324e-02
      -1.99874379e-02 -6.63382839e-03 1.01877376e-03 -7.70225422e-03
      -2.20500864e-02 3.34640592e-02 4.82355477e-03 -1.56535804e-02
      -7.69997388e-03 -1.93701200e-02 -1.23754600e-02 -2.50807800e-03
      -2.16451343e-02 -1.85993463e-02 7.52673522e-02 2.75532007e-02
      -3.56408656e-02 -2.84795035e-02 -3.24333943e-02 -1.86852384e-02
      -1.09568620e-02 -3.36277322e-03 7.22446740e-02 2.43887026e-02
      2.11547129e-03 -2.05321349e-02 -1.35722551e-02 -1.24689667e-02
      -8.27220827e-03 -4.72852075e-03 1.69872330e-03 2.43865419e-02
      -2.28705052e-02 -3.02727018e-02 -2.58543883e-02 -6.46651816e-03
      -1.14759933e-02 3.51393828e-03 8.95030389e-04 -2.01830617e-03
      -2.83608469e-03 3.69684538e-03 -5.18302014e-03 -1.55124720e-02
      -7.54961697e-03 -8.90102889e-03 1.16093690e-02 6.68682531e-03
      1.00206193e-02 3.28762387e-03 4.90702223e-03 6.63465261e-03
      -6.30555907e-03 -7.00361561e-03 4.50809114e-03 -7.54780136e-03
      -2.35287618e-04 1.11129573e-02 2.48082671e-02 1.81845354e-03
      5.73533354e-03 -1.31455064e-03 -4.89740726e-03 -1.03816867e-03
      -2.98743625e-03 -7.44288991e-05 1.42585963e-03 7.99397472e-03
      9.40843672e-03 -3.55342664e-02 -2.12738067e-02 -1.05308648e-02
      -1.26466248e-03 2.83055566e-03 2.08795210e-03 5.08687040e-03
      1.64844245e-02 2.30319407e-02 -8.38327929e-02 -5.58592901e-02
      -2.20145453e-02 -1.82222743e-02 3.88476881e-03 1.06495423e-02
      -4.49779397e-03 4.68733720e-02 6.77574938e-03 -6.20347001e-02
      -7.07070753e-02 -5.09751588e-02 -4.84794080e-02 1.54269207e-02
      1.68027356e-02 2.66733002e-02 2.95095500e-02 -1.23888822e-02
      -2.64788996e-02 -2.46752240e-02 -1.43679567e-02 -7.33940862e-03
      -3.26105254e-03 -5.78966131e-03 1.60863635e-03 -1.17483793e-03
      -3.03860172e-03 -7.17013106e-02 -5.35940304e-02 -5.55864386e-02
      -3.15542780e-02 -1.35934446e-02 1.10633001e-02 1.35479653e-02
      1.93916075e-02 9.79593862e-03 -1.24239914e-01 -1.04180440e-01
      -4.66387793e-02 -2.48772819e-02 1.99147519e-02 2.16340628e-02
      1.88574512e-02 6.73836619e-02 8.36425461e-03 -5.70819937e-02
      -5.45743182e-02 8.20970908e-03 7.08042830e-02 4.59626392e-02
      2.31689252e-02 1.22409442e-03 3.13308053e-02 -1.88458543e-02
      -3.64653133e-02 -3.30462977e-02 1.16431089e-02 5.91957979e-02
      3.49536464e-02 4.17851768e-02 1.93261858e-02 9.50911362e-03
      -1.41306333e-02 -4.34911847e-02 -5.98801188e-02 -6.60284683e-02
      -2.63914354e-02 -3.68557917e-03 1.67199201e-03 2.39680465e-02
      2.46251300e-02 -4.90746424e-02 -8.55576098e-02 -7.66772404e-02
      -4.63226661e-02 -2.40418874e-03 1.36720447e-03 1.37981512e-02
      1.28749590e-02 5.29100513e-03 -1.50572602e-02 -1.79980397e-02
      9.19569563e-03 2.86625437e-02 1.96457636e-02 1.20055489e-02
      -4.96986462e-03 1.54200825e-03 -5.60868951e-03 -2.56305654e-03
      9.86952521e-03 1.12625668e-02 -3.05520482e-02 -1.18041905e-02
      -4.43656259e-04 1.25528825e-03 1.05889244e-02 -1.18611893e-03
      8.49440414e-03 -1.15898680e-02 -1.32072298e-02 -1.17771784e-02
      2.02563070e-02 3.25660012e-03 1.93591435e-02 4.20065084e-03
      1.35935722e-02 -9.28082131e-03 -1.94006898e-02 -1.90204792e-02
      -2.20348220e-02 4.74000257e-03 8.23215596e-05 6.48282352e-04
      -3.32224392e-03 -4.17454820e-03 2.16752589e-02 2.39886511e-02
      1.04445908e-02 -2.38957582e-03 -6.14789035e-03 -1.38295116e-03
      -5.67537686e-03 -8.02994799e-03 3.57830664e-04 1.67340729e-02
      3.28051746e-02 1.53504107e-02 -1.46480417e-03 -2.15191953e-02
      -1.55450031e-03 4.61533200e-03 -2.02493034e-02 -2.47470215e-02
      1.52699836e-03 -3.11405659e-02 -1.83626749e-02 -5.00440318e-03
      -3.11703328e-03 1.45523727e-03 3.07202875e-03 1.27332096e-04
      1.07405260e-02 -1.23978546e-02 -6.52098879e-02 -5.54842949e-02
      -3.44353803e-02 -3.09141558e-02 1.11952210e-02 1.16798608e-02
      1.74311809e-02 1.37677751e-02 -2.54745260e-02 -4.43231836e-02
      -2.70412602e-02 -1.89476311e-02 1.13252143e-03 -1.00061977e-02
      -1.21342652e-02 1.42027216e-03 -3.70530155e-03 -5.61504904e-03
      2.39651490e-04 2.82388628e-02 -4.58583608e-03 -3.96216381e-03
      -4.29448299e-03 -1.96317513e-03 -6.97177195e-04 -7.67046760e-04
      -5.15387673e-03 -6.70516267e-02 -5.02011441e-02 -6.53344160e-03
      2.25035264e-03 9.13900882e-03 6.27245428e-03 1.28344512e-02
      2.19819564e-02 -1.10439546e-02 -5.80388755e-02 -5.37040383e-02
      3.67522519e-03 6.63858876e-02 3.45824920e-02 2.05587465e-02
      6.00637868e-03 1.89330615e-02 -5.86156510e-02 -7.27492571e-02
      -4.12101578e-03 1.57003552e-02 3.76953930e-02 2.52377074e-02
      5.53641766e-02 4.13986892e-02 3.88059416e-03 -5.35406955e-02
      -6.13370910e-02 7.18846396e-02 2.17690133e-02 -2.27344763e-02
      -9.09525715e-03 -2.81756814e-03 3.00840358e-03 -1.70385465e-02
      -1.65190306e-02 -3.60312238e-02 -2.11666357e-02 -3.79534042e-03
      7.19089760e-03 4.33727307e-03 6.54105144e-03 1.96497887e-03
      1.34451233e-03 -7.30930641e-03 -1.82724632e-02 -8.86006374e-03
      -3.95910407e-04 -2.09951531e-02 -1.45858880e-02 -7.99945276e-03
      8.70696176e-03 1.56438176e-03 -1.14263529e-02 8.03172879e-04
      3.42834601e-03 -5.60593344e-02 -2.17938498e-02 -2.33848430e-02
      3.14325164e-03 1.78300906e-02 -1.40836567e-03 -1.07372757e-02
      -1.90361757e-02 -3.26243341e-02 -2.62674242e-02 -3.43927555e-02
      -5.81587525e-03 -2.03981227e-03 8.21261725e-04 3.61006008e-03
      -2.40501040e-03 -4.45732009e-03 -4.27947985e-03 -4.22104402e-03
      5.74742770e-03 4.22102213e-03 2.07213825e-03 -6.32220996e-04
      -5.16090950e-04 2.11656261e-02 2.50420030e-02 9.15226899e-03
      -1.36848388e-03 -6.94112666e-03 -3.86655983e-03 -6.95338473e-03
      -6.78168004e-03 -1.51994184e-03 1.39397325e-03 2.72695459e-02
      8.44905805e-03 -7.98020978e-03 -3.28118391e-02 -1.24014448e-02
      -2.06580898e-03 -3.38903368e-02 -3.93707268e-02 -1.23481359e-03
      -3.98621988e-03 -1.47507209e-02 -1.48785021e-03 -4.57695499e-03
      -3.56903509e-03 -1.49014348e-03 -2.20409734e-03 3.25547927e-03
      -8.25482234e-03 -3.08976155e-02 -3.05544753e-02 -1.18851373e-02
      -6.56402484e-03 5.92979277e-03 4.85707819e-03 6.05670642e-03
      3.83150182e-03 -2.41856724e-02 -3.36639360e-02 -8.27082340e-03
      -1.29347667e-02 9.82988719e-03 -9.56962164e-03 -1.11841513e-02
      7.26645463e-04 -3.89701757e-03 -9.27702989e-03 -3.77753773e-03
      4.47828472e-02 -4.70642000e-04 -6.40195515e-03 -7.21914833e-03
      -2.04507937e-03 -2.11576675e-03 -1.09493919e-03 3.84679006e-04
      -5.68572013e-03 -8.21005553e-03 -4.40770620e-03 -8.42986978e-04
      7.85874086e-04 5.53585473e-04 -3.02257854e-03 -3.48355796e-04
      -7.08513148e-03 -4.37966064e-02 -4.35341150e-02 2.37660180e-03
      5.88235408e-02 2.53192037e-02 9.02406313e-03 2.47060135e-03
      7.31445942e-03 -7.13008940e-02 -7.50457421e-02 3.65576185e-02
      2.06119940e-02 -3.78106209e-03 -1.81294209e-03 4.85477000e-02
      3.61333974e-02 -4.40899422e-03 -8.22689757e-02 -4.19765376e-02
      -1.59301143e-02 2.69866381e-02 -3.22901197e-02 -1.38268583e-02
      -6.28481107e-03 -2.16894667e-03 -3.50604579e-02 6.02298090e-03
      -6.52141264e-03 -9.22835898e-04 6.28743693e-03 -1.67809206e-03
      -1.79415254e-03 -1.92527683e-03 -3.65854055e-03 -5.96596580e-03
      -7.76883855e-04 -7.24864379e-03 -7.82354642e-03 -6.20273640e-03
      -6.29302114e-03 2.24154629e-02 -3.12485779e-03 5.65832900e-03
      2.54784338e-03 -1.53180063e-02 -6.05279254e-03 -5.63516608e-03
      -5.51011600e-02 -5.08856401e-02 -3.11059412e-03 6.98016677e-03
      1.73783004e-02 5.54860162e-05 -3.87614407e-02 -3.66828553e-02
      -2.71535870e-02 -5.67883886e-02 -5.38854152e-02 -4.68580239e-03
      -1.78517686e-04 -1.76802254e-03 2.64340895e-03 -3.72925471e-03
      -4.04574955e-03 -9.05331783e-03 -7.08140898e-03 -9.35146026e-03
      6.84575178e-03 5.03794150e-03 3.75894946e-03 -5.56086481e-04
      7.52452156e-03 1.09943114e-02 3.86035396e-03 -4.35780414e-04
      -4.12502006e-04 -1.55673292e-03 -2.39130598e-03 -3.69080063e-03
      -1.55935681e-03 3.37347621e-04 2.17659343e-02 -1.79468538e-03
      -9.24323872e-03 -2.21350957e-02 -1.06292553e-02 1.32162485e-03
      -2.48659030e-02 -3.19103412e-02 -2.92195193e-02 -3.84596380e-04
      -2.64740624e-02 -4.78828046e-03 -5.51689975e-03 -4.48589819e-03
      -1.93945470e-03 -4.84323781e-03 -2.89066345e-03 -4.94398130e-03
      2.53338255e-02 -4.01098700e-03 -1.22604566e-02 -4.54109348e-03
      -1.65475230e-03 -1.53928099e-03 -6.99269585e-04 -2.14070795e-04
      -1.24533745e-02 -9.05778818e-03 1.15277199e-02 -6.01952616e-03
      8.18164553e-03 -6.58165617e-03 -7.00050220e-03 -4.95642016e-04
      -2.45906576e-03 -6.36285963e-03 -8.19228310e-03 2.71257814e-02
      6.35452522e-03 -6.96581835e-03 -5.91704110e-03 7.38823786e-04
      -2.24465085e-03 2.61465757e-04 5.08495886e-03 -7.92397931e-03
      -1.69603825e-02 -1.21832527e-02 -2.32657045e-03 1.13852369e-03
      -1.42904778e-03 -1.23709356e-02 -3.50880064e-03 5.70351258e-03
      1.90131122e-03 -2.88078189e-03 -4.97608958e-03 -1.78256119e-03
      -1.24024367e-03 -3.32138292e-03 -4.57017915e-03 1.15163543e-03
      -5.02517782e-02 -4.97441739e-02 6.97818622e-02 2.19055023e-02
      -2.16367748e-02 -1.03427870e-02 2.05923989e-02 1.70858055e-02
      -7.98908994e-03 -6.79702982e-02 -3.43644060e-02 -2.50454135e-02
      1.36941448e-02 -2.88345199e-02 -9.48016532e-03 -2.99335620e-03
      -5.09601971e-03 -4.00463231e-02 1.37557834e-02 -1.52702201e-02
      -5.82153024e-03 1.73338372e-02 2.81009264e-03 -2.55943276e-03
      -4.97894653e-04 -6.83049858e-03 -1.33257126e-02 2.26114541e-02
      6.25412259e-03 -1.55342408e-02 -1.54734515e-02 -2.01156735e-03
      -2.98561621e-03 -6.48812915e-04 1.81927707e-03 1.82155743e-02
      -1.23904897e-02 -5.42861689e-03 -8.63124244e-03 -2.89154835e-02
      -4.17542271e-02 -2.53007485e-04 5.50847081e-03 1.00838169e-02
      1.69778243e-04 -6.07511178e-02 -3.20250094e-02 -3.18563618e-02
      -5.21800593e-02 -5.60173616e-02 4.46996884e-03 6.05957443e-03
      -4.20198403e-03 -3.25940875e-03 -1.93953793e-02 -3.56415361e-02
      -2.82836333e-02 -1.41106714e-02 -1.19929519e-02 2.08828114e-02
      1.49302715e-02 1.78326275e-02 1.23125799e-02 9.79429763e-03
      1.85518852e-03 -8.47785827e-03 -1.45869562e-02 2.37135123e-03
      -3.33825406e-03 8.04557872e-04 7.05352984e-03 1.88725200e-02
      -3.11277877e-03 3.16826603e-03 -3.78176710e-03 -4.76145418e-03
      -3.65098799e-03 -4.92656836e-03 2.83214287e-03 -8.04093666e-03
      -1.47683797e-02 -3.16107050e-02 1.22499196e-02 -2.31589414e-02
      -6.58821501e-03 -4.76816576e-03 -3.31474678e-03 -1.27581402e-03
      -7.45867193e-03 -2.02576462e-02 -1.85303725e-02 1.29970899e-02
      -1.91953033e-02 -3.30746248e-02 -1.43985497e-02 -5.37629193e-03
      -4.74331947e-03 2.31242343e-03 2.73311343e-02 -2.64768070e-03
      -1.63203664e-02 -8.73091351e-03 -1.17439628e-02 -6.75282255e-03
      -2.78197066e-03 -1.23320112e-03 3.43402295e-04 2.20548604e-02
      -2.08143843e-03 -1.27420938e-02 1.27515495e-02 -1.51098333e-03
      -6.84918789e-03 -1.45577407e-03 2.47181137e-03 -1.04901649e-03
      1.35814527e-03 9.97060537e-03 -2.34029163e-03 -1.78259499e-02
      -1.32995043e-02 -3.44461785e-03 9.87005042e-05 -5.51169505e-03
      -2.31265295e-02 -1.02375625e-02 2.18715928e-02 3.75369005e-03
      -9.99208912e-03 -1.42505169e-02 -8.26885272e-03 -3.51570803e-03
      -7.79734319e-03 -8.77230801e-03 1.08643882e-02 1.10348752e-02
      -3.44275526e-04 -1.24365278e-03 -5.12995152e-03 1.61208566e-02
      -5.21061663e-03 8.80250824e-04 1.79142633e-03 1.04351155e-02
      -3.73952314e-02 -8.25683847e-02 3.46000679e-02 3.31852064e-02
      -1.23199737e-02 -6.07928843e-04 -9.03219698e-05 -6.18434884e-03
      -2.17667762e-02 1.16527006e-02 -1.59184895e-02 -1.46688092e-02
      1.53384246e-02 -1.71120581e-03 -1.96095370e-03 2.63224402e-03
      -8.03958625e-03 -1.72248092e-02 5.73673807e-02 7.25964783e-03
      -3.42196897e-02 -2.18492076e-02 -2.21149754e-02 -1.49485990e-02
      -5.05016418e-03 1.03400256e-02 7.77258575e-02 8.55271611e-03
      -3.58239864e-03 -1.84935536e-02 -1.36778681e-02 -4.28413367e-03
      -4.64472268e-03 1.00052697e-04 3.85363866e-03 1.77299269e-02
      -4.87997830e-02 -5.91634475e-02 -5.55180125e-02 -3.46104614e-02
      -1.52115067e-02 8.96621030e-03 6.78517763e-03 -3.78419785e-03
      -5.84985083e-03 -1.97008569e-02 -5.50989024e-02 -4.76332754e-02
      -1.99916754e-02 -1.12717785e-02 2.56530195e-02 1.71719007e-02
      2.99994666e-02 3.52706313e-02 -6.34293584e-03 -2.63639987e-02
      -6.07729703e-03 2.12890934e-03 -5.39860548e-03 -2.04538815e-02
      1.31590629e-03 2.01222822e-02 4.75505143e-02 -1.40727898e-02
      6.06736122e-03 4.70604608e-03 -4.22771741e-03 -2.14426033e-03
      -8.83389451e-03 6.10162155e-04 2.49393238e-03 1.34890396e-02
      -4.21326123e-02 1.49865514e-02 -8.09656270e-03 -3.22449976e-03
      8.00565258e-03 2.62046792e-03 6.41906983e-04 -6.48755813e-03
      -2.30741985e-02 -2.90097296e-02 -2.39668190e-02 -3.54081020e-02
      -4.59360182e-02 -2.10176483e-02 -8.62320419e-03 -6.94364635e-03
      7.64174620e-03 6.80174381e-02 -1.44278435e-02 -7.90684447e-02
      -2.07471307e-02 -2.02870797e-02 -2.06118748e-02 -9.97230597e-03
      -4.03096201e-03 -3.85369803e-03 3.23926434e-02 -1.88376363e-02
      7.38759525e-03 5.36654610e-03 1.76010974e-04 -2.96251359e-03
      -2.58129928e-03 -2.06553121e-03 -2.77502160e-03 -1.71630811e-02</_></support_vectors>
  <uncompressed_sv_total>35</uncompressed_sv_total>
  <uncompressed_support_vectors>
    <_>
      1.64031237e-02 6.64977962e-03 2.73591443e-03 2.64340290e-03
      2.18941690e-03 1.86332874e-03 4.66125924e-03 3.40281939e-03
      9.57661681e-03 2.69774906e-02 2.55487114e-02 2.33650077e-02
      1.18075944e-02 1.48659544e-02 1.42378220e-02 4.08699177e-03
      6.69332128e-03 1.31414775e-02 2.52035540e-02 3.09916623e-02
      6.87131137e-02 6.99954182e-02 2.95386389e-02 1.29626701e-02
      4.50043567e-03 5.00560552e-03 1.19904270e-02 9.05837584e-03
      2.99910698e-02 1.11979090e-01 1.12031944e-01 3.50924991e-02
      8.75375606e-03 1.17347506e-03 3.31840478e-03 3.02683818e-03
      1.07281700e-01 4.10160311e-02 2.20039822e-02 1.68550424e-02
      2.22016079e-03 4.14441666e-03 1.08988089e-02 1.98506936e-02
      6.91008344e-02 6.12589642e-02 5.07055819e-02 6.54432550e-02
      6.79892078e-02 5.56443408e-02 7.76517168e-02 3.42103653e-02
      3.36058922e-02 3.35837938e-02 4.06408869e-02 7.22066015e-02
      2.20253766e-01 2.40528390e-01 1.71028763e-01 6.65854514e-02
      3.84434387e-02 2.57092416e-02 1.94284376e-02 3.66263650e-02
      8.87786373e-02 1.65335357e-01 2.40528390e-01 1.25002176e-01
      2.67579705e-02 1.02542462e-02 1.86678693e-02 1.05067631e-02
      6.78082034e-02 6.30531013e-02 2.21335944e-02 1.21169370e-02
      5.06912731e-03 3.90242133e-03 2.14575278e-03 1.50215207e-02
      3.87652032e-02 2.26447716e-01 2.40528390e-01 1.14405818e-01
      4.19632122e-02 2.72775088e-02 2.11353991e-02 8.70489608e-03
      1.63898934e-02 4.00723703e-02 2.40528390e-01 2.40528390e-01
      2.10497901e-01 2.40528390e-01 8.14385340e-02 4.80078310e-02
      4.85293269e-02 2.89867222e-02 8.82980749e-02 1.69331670e-01
      2.40528390e-01 7.82021508e-02 9.21217352e-02 3.87977138e-02
      2.86651663e-02 1.97635181e-02 1.71926711e-02 3.34976129e-02
      4.18897569e-02 1.32946685e-01 1.35458335e-02 2.59043835e-03
      1.65794871e-03 1.09220599e-03 4.48789389e-04 1.31047098e-03
      5.17324498e-03 1.21515498e-01 2.40528390e-01 7.69952238e-02
      1.75842438e-02 1.05254864e-02 3.71385249e-03 2.46751588e-03
      1.94452726e-03 1.58360936e-02 1.12216353e-01 1.96012810e-01
      6.68709502e-02 2.66193580e-02 1.98813602e-02 1.53709911e-02
      1.51747512e-02 2.44352482e-02 5.71214035e-02 4.35459465e-02
      3.87476645e-02 2.84523349e-02 1.84150897e-02 9.36463475e-03
      6.20349310e-03 1.03754858e-02 9.94897261e-03 2.99886875e-02
      8.65713507e-03 8.30839109e-03 8.34509544e-03 4.28251922e-03
      4.96328855e-03 4.38129622e-03 9.74249502e-04 2.08611786e-03
      4.30019526e-03 1.75143741e-02 2.53581032e-02 6.90576062e-02
      7.60952383e-02 2.72479411e-02 1.01534855e-02 3.01296078e-03
      2.80323788e-03 7.33813597e-03 1.90084763e-02 5.53024597e-02
      1.92974642e-01 1.82406411e-01 7.20431581e-02 2.01467946e-02
      4.91948891e-03 9.40370373e-03 6.87543303e-03 1.37594193e-02
      1.04997568e-02 1.28815416e-02 8.15610774e-03 2.83854883e-02
      1.31317219e-02 6.36234554e-03 6.77791610e-03 6.30847225e-03
      1.44619839e-02 1.44338096e-02 2.35176906e-02 2.30581593e-02
      1.95079837e-02 2.58220807e-02 1.03597483e-02 1.02611668e-02
      8.05402268e-03 2.92401817e-02 6.66939244e-02 2.01829150e-01
      2.40645289e-01 1.58132151e-01 4.59581576e-02 2.67119464e-02
      1.70222074e-02 1.20175518e-02 6.95663020e-02 1.56223923e-01
      2.40645289e-01 2.40645289e-01 2.14478254e-01 8.12596530e-02
      4.59428430e-02 3.98095548e-02 2.03474127e-02 1.58424601e-02
      2.08683312e-02 2.35555973e-02 2.09287610e-02 6.74851984e-02
      9.07877684e-02 5.43361492e-02 1.82090383e-02 6.41278084e-03
      8.00349936e-02 1.11844435e-01 3.63886356e-02 1.33105787e-02
      8.87900498e-03 6.67524990e-03 3.09138792e-03 4.77019511e-03
      1.22014545e-02 2.40645289e-01 2.40645289e-01 1.63803786e-01
      2.40645289e-01 7.24114701e-02 4.21210937e-02 4.24811020e-02
      2.37355120e-02 6.79834336e-02 2.40645289e-01 2.40645289e-01
      1.32959366e-01 1.20251060e-01 6.35362267e-02 1.40765995e-01
      5.92113286e-02 3.19672599e-02 5.42341769e-02 2.03367900e-02
      3.93902399e-02 2.79362537e-02 1.22062089e-02 5.59221767e-02
      2.40645289e-01 6.23290762e-02 1.13375541e-02 1.03639010e-02
      3.69891860e-02 9.49209332e-02 2.31635273e-02 5.91457263e-03
      3.74296424e-03 1.78548659e-03 1.05327729e-03 7.72805361e-04
      5.32658258e-03 7.90344030e-02 1.19022660e-01 5.16632460e-02
      2.23893169e-02 1.60269700e-02 1.09131057e-02 1.27546210e-02
      2.10829210e-02 4.97352816e-02 7.58361220e-02 7.16180429e-02
      4.82767411e-02 3.40587907e-02 2.23492086e-02 2.17917506e-02
      2.30748095e-02 1.63244102e-02 4.73050810e-02 1.07832793e-02
      1.84454881e-02 1.65821128e-02 2.01713964e-02 6.16595373e-02
      6.77109212e-02 1.59895122e-02 5.59401652e-03 8.42715520e-03
      7.43075786e-03 1.28533123e-02 4.35257889e-02 5.06806038e-02
      1.57125052e-02 4.91753453e-03 1.11277390e-03 8.50472541e-04
      2.65773898e-03 2.39961836e-02 6.12064674e-02 1.92102149e-01
      1.69559613e-01 8.99703205e-02 2.81588789e-02 8.33573099e-03
      1.41110048e-02 9.35601257e-03 3.10466960e-02 1.97756384e-02
      2.35631056e-02 1.99055616e-02 5.43226451e-02 2.78475136e-02
      1.48836095e-02 1.46335810e-02 1.56823639e-02 2.46150093e-03
      3.91826872e-03 6.02001790e-03 9.79174022e-03 8.45195260e-03
      5.13254479e-03 1.80956360e-03 4.73063951e-03 3.72786517e-03
      1.37368264e-02 3.83312926e-02 1.12844333e-01 2.11375028e-01
      8.68206695e-02 1.95357632e-02 1.12310499e-02 7.48155033e-03
      4.92892321e-03 7.91048780e-02 1.65284470e-01 2.37825960e-01
      2.55425364e-01 2.37524420e-01 1.25143975e-01 7.54104033e-02
      4.81149927e-02 2.33815946e-02 3.05043366e-02 3.41618396e-02
      3.98175195e-02 4.22095060e-02 1.27840921e-01 2.03470290e-01
      1.17980964e-01 4.35354374e-02 1.44967670e-02 4.83959075e-03
      7.03981332e-03 9.00816359e-03 1.80578306e-02 1.86016560e-02
      1.54378107e-02 9.65592265e-03 6.06799871e-03 3.93015798e-03
      1.17286474e-01 1.58993304e-01 7.47580156e-02 1.19173154e-01
      3.78857665e-02 2.21937150e-02 2.17915382e-02 1.23501746e-02
      3.16360630e-02 2.54501313e-01 2.55425364e-01 1.46072328e-01
      9.81836021e-02 6.82882816e-02 2.52499372e-01 8.80909488e-02
      3.63197103e-02 5.59269078e-02 3.35041918e-02 6.15591481e-02
      4.50857542e-02 3.41403708e-02 1.48087084e-01 2.55425364e-01
      1.37828335e-01 2.61091813e-02 1.92848854e-02 5.31206606e-03
      6.78063929e-03 7.52751995e-03 1.13617796e-02 1.57710984e-02
      3.36175300e-02 2.09596641e-02 1.51397083e-02 7.23915640e-03
      3.35821398e-02 4.14785817e-02 2.45239642e-02 1.18007595e-02
      7.88334385e-03 4.61757183e-03 6.32874388e-03 1.05008082e-02
      2.55625341e-02 7.94830099e-02 8.12325031e-02 5.26355989e-02
      3.87196988e-02 3.28215286e-02 3.67725343e-02 2.92545650e-02
      1.76031347e-02 4.70054857e-02 2.14181393e-02 3.58668119e-02
      3.55995484e-02 5.02056591e-02 1.72767371e-01 1.86972126e-01
      3.88624854e-02 1.25970403e-02 1.65760182e-02 1.47233475e-02
      8.49163719e-03 8.40691570e-03 7.73793040e-03 1.45607255e-02
      1.65657438e-02 7.62878451e-03 1.05386404e-02 9.74835921e-03
      2.09214278e-02 4.21571434e-02 1.18153878e-01 9.76759866e-02
      7.47428089e-02 2.59196069e-02 8.77655111e-03 1.28891282e-02
      8.57593305e-03 4.43380624e-02 2.69993767e-02 3.15911658e-02
      3.63132805e-02 7.15912208e-02 4.14195359e-02 2.29901522e-02
      2.17893366e-02 2.51684152e-02 9.71924607e-03 1.60603505e-02
      2.49204002e-02 3.54768001e-02 2.78662089e-02 1.59352906e-02
      6.38808683e-03 2.33850554e-02 1.60969887e-02 2.92708748e-03
      5.09402854e-03 3.71716404e-03 2.23185564e-03 2.07365048e-03
      2.54826248e-03 4.53119446e-03 1.00272419e-02 5.30486135e-03
      5.79422414e-02 1.09566882e-01 1.36903092e-01 1.94847807e-01
      1.73109904e-01 1.30169645e-01 8.13034400e-02 3.85196656e-02
      1.78533643e-02 4.09207344e-02 4.11054790e-02 4.83427234e-02
      6.28877133e-02 1.61335990e-01 2.87509233e-01 1.62835866e-01
      6.93408698e-02 2.17977855e-02 1.69595275e-02 2.62981597e-02
      3.56757082e-02 7.26129338e-02 7.42276311e-02 5.76770641e-02
      3.71025093e-02 2.22253706e-02 1.61535311e-02 2.70248298e-03
      4.06130264e-03 4.23344318e-03 8.75472371e-03 1.04209464e-02
      9.13735200e-03 1.06983865e-02 1.05640963e-02 5.71709871e-03
      1.49036780e-01 2.61863977e-01 1.02864541e-01 4.72578965e-02
      5.45159839e-02 2.87509233e-01 9.10673290e-02 2.85504553e-02
      3.77683081e-02 3.67594734e-02 6.53636158e-02 4.96620983e-02
      6.39654696e-02 2.43236214e-01 2.87509233e-01 1.96472973e-01
      4.22983654e-02 2.46708058e-02 2.25640703e-02 2.51958407e-02
      3.05474140e-02 4.07713316e-02 5.80913313e-02 1.31693885e-01
      8.50116163e-02 6.28413558e-02 3.24682258e-02 5.88242989e-03
      4.00468567e-03 4.13760636e-03 8.59480910e-03 1.28820445e-02
      1.77179761e-02 1.23317800e-02 9.11303610e-03 8.35950673e-03
      5.30505739e-02 6.00451604e-02 3.85741219e-02 3.11782993e-02
      3.58994231e-02 4.22795974e-02 2.48196032e-02 1.29301157e-02
      3.06279752e-02 3.21087018e-02 4.84762713e-02 5.32998629e-02
      7.93305635e-02 2.87509233e-01 2.87509233e-01 6.15988672e-02
      1.94618274e-02 2.31880955e-02 7.33855516e-02 3.51434387e-02
      3.07487994e-02 3.38898227e-02 4.11030836e-02 5.46510071e-02
      3.27151828e-02 4.93745059e-02 4.86436225e-02 4.11753692e-02
      1.29941134e-02 4.44430858e-03 9.31435358e-03 5.31246187e-03
      7.49412645e-03 6.61766250e-03 8.22422095e-03 1.94087457e-02
      3.43969800e-02 2.10285559e-02 2.29019113e-02 3.92827988e-02
      4.44545671e-02 3.13436389e-02 1.93597432e-02 1.78655908e-02
      2.30708532e-02 2.28386037e-02 3.83525826e-02 5.70714809e-02
      7.33314678e-02 5.15616164e-02 2.90976446e-02 1.48475785e-02
      6.20518997e-02 3.86545397e-02 1.82511657e-02 2.74163801e-02
      2.42810454e-02 1.20625123e-02 1.47015406e-02 1.50893396e-02
      2.74470244e-02 5.77065647e-02 3.18984166e-02 1.11723561e-02
      6.35060808e-03 7.14392262e-03 1.14647411e-02 1.59815289e-02
      8.62724148e-03 5.23383124e-03 1.15658855e-02 1.72487609e-02
      2.59796418e-02 2.54831687e-02 2.95346715e-02 5.53312935e-02
      8.75727236e-02 2.16572165e-01 1.22851454e-01 6.04052246e-02
      1.74011476e-02 3.48729305e-02 5.58036231e-02 7.88599700e-02
      1.62181839e-01 1.66284278e-01 1.26298949e-01 8.51438344e-02
      5.09818494e-02 3.79838534e-02 1.99222136e-02 2.47227699e-02
      2.48000212e-02 4.32882607e-02 5.28222285e-02 4.25817408e-02
      5.97398616e-02 5.86601272e-02 3.61800082e-02 2.70902514e-02
      1.93347447e-02 1.54850408e-02 1.01382071e-02 8.27902183e-03
      5.87054528e-03 1.45778405e-02 1.64696462e-02 2.73777936e-02
      1.25721432e-02 2.64606513e-02 2.13141106e-02 6.73229322e-02
      2.18072370e-01 2.64846623e-01 1.58325389e-01 4.08214554e-02
      1.46358013e-02 5.28024510e-02 5.22239059e-02 6.84563518e-02
      8.66365880e-02 1.22968197e-01 2.64846623e-01 1.98175803e-01
      1.44943446e-01 7.99761117e-02 3.81775126e-02 2.79083066e-02
      2.71915793e-02 4.56138216e-02 7.18912110e-02 7.17000067e-02
      5.23544177e-02 4.47011515e-02 5.02721444e-02 2.58774217e-02
      2.06548795e-02 1.75581500e-02 9.96225607e-03 1.67442933e-02
      1.05281109e-02 9.13195033e-03 1.01056388e-02 2.32473556e-02
      2.93045249e-02 3.61044966e-02 4.41599041e-02 6.84153885e-02
      2.64846623e-01 2.64846623e-01 5.50089329e-02 1.76043753e-02
      1.80675164e-02 2.01726139e-01 8.24198201e-02 6.55887723e-02
      8.80498290e-02 7.15970024e-02 1.07721709e-01 7.94062614e-02
      1.24401860e-01 1.31982505e-01 2.64846623e-01 9.77914929e-02
      2.01499797e-02 3.75067033e-02 2.72416156e-02 4.04872596e-02
      3.29129249e-02 4.40071411e-02 1.10052682e-01 2.28867814e-01
      6.15219139e-02 6.04077848e-03 5.70424693e-03 7.34558795e-03
      9.03139729e-03 8.16521700e-03 1.74086764e-02 4.54831496e-02
      4.08750139e-02 1.65096372e-02 8.21843557e-03 6.34878548e-03
      7.79159134e-04 1.24364521e-03 2.99072126e-03 7.37359887e-03
      2.49793883e-02 2.43963264e-02 1.88019201e-02 2.24819984e-02
      2.61901673e-02 1.93286892e-02 2.50784047e-02 1.18773831e-02
      1.12220859e-02 1.25491815e-02 1.97108500e-02 2.70904917e-02
      7.68387839e-02 1.56874150e-01 6.41831681e-02 2.65927538e-02
      1.74416881e-02 1.02966493e-02 8.08543619e-03 2.01528668e-02
      4.03711908e-02 5.22605851e-02 9.48339775e-02 4.14534658e-02
      1.07847573e-02 5.20143146e-03 8.28954205e-03 5.19502163e-03
      5.93920797e-02 7.58885592e-02 2.21708771e-02 1.03378501e-02
      4.89827711e-03 3.75093473e-03 1.73750299e-03 1.12685477e-02
      2.88939569e-02 2.40672916e-01 2.61512816e-01 1.30828053e-01
      3.40197794e-02 1.97503380e-02 1.53227244e-02 5.59421862e-03
      1.26170237e-02 3.65625918e-02 2.61512816e-01 2.61512816e-01
      1.85293213e-01 1.93937272e-01 5.49186915e-02 3.30786556e-02
      3.73159498e-02 2.94563267e-02 9.58930105e-02 1.49429336e-01
      2.17129171e-01 6.00228645e-02 6.02713861e-02 2.84011494e-02
      2.22856347e-02 1.60108935e-02 1.29844807e-02 3.71582210e-02
      9.48904678e-02 2.61512816e-01 2.67477352e-02 4.03330661e-03
      2.77581788e-03 1.80416764e-03 1.12501311e-03 2.86744675e-03
      1.38534959e-02 2.44113609e-01 2.61512816e-01 1.36437356e-01
      3.54325250e-02 2.52561122e-02 8.46039224e-03 5.76853100e-03
      4.10232274e-03 3.40636484e-02 2.24863321e-01 2.61512816e-01
      1.39277980e-01 6.61438778e-02 5.37688285e-02 3.95856723e-02
      3.28948274e-02 5.67601472e-02 1.11002587e-01 8.69301036e-02
      7.58666545e-02 6.20367453e-02 4.04436477e-02 2.08179392e-02
      1.45197827e-02 3.03084683e-02 3.53042707e-02 6.45566359e-02
      3.05305663e-02 5.62758744e-02 1.52597893e-02 2.49338336e-03
      3.16287013e-04 3.06257134e-04 8.47230840e-04 1.19333598e-03
      8.45520291e-03 8.84554982e-02 1.05791532e-01 5.15373796e-02
      1.49326101e-02 6.14175620e-03 1.34321977e-03 1.27218920e-03
      2.04261439e-03 1.33869378e-02 4.59909812e-02 7.73850456e-02
      8.32672045e-02 5.90949245e-02 8.06149244e-02 2.28269044e-02
      1.24791600e-02 2.64866576e-02 2.26084180e-02 1.17047923e-02
      1.11325085e-02 1.17393928e-02 1.94911063e-02 3.64167914e-02
      1.95181184e-02 3.78154740e-02 3.50924060e-02 2.00331900e-02
      7.13721197e-03 6.15145359e-03 9.31050815e-03 1.03887403e-02
      8.23241659e-03 1.00843869e-02 4.49326262e-03 4.13410179e-03
      3.52102797e-03 1.81791596e-02 3.11953649e-02 8.31574127e-02
      1.74154162e-01 7.03313723e-02 2.31175292e-02 1.53752891e-02
      8.96857027e-03 6.46325340e-03 4.46559004e-02 8.69278982e-02
      9.73276943e-02 1.60732657e-01 8.00971761e-02 4.20092158e-02
      2.49286313e-02 2.00679470e-02 1.14240777e-02 8.50456394e-03
      1.18501578e-02 1.21181319e-02 7.59122986e-03 2.26942878e-02
      5.34607358e-02 2.78180018e-02 8.02834053e-03 2.58461456e-03
      1.00605145e-01 1.60047576e-01 4.92035970e-02 1.28801549e-02
      7.24138459e-03 5.58681879e-03 2.34829728e-03 4.31484776e-03
      1.38710868e-02 2.32704788e-01 2.32704788e-01 1.66716725e-01
      1.94572076e-01 5.93863092e-02 3.54987122e-02 3.99017558e-02
      2.86679305e-02 9.08079743e-02 2.32704788e-01 2.32704788e-01
      1.22076333e-01 9.99163389e-02 6.31559789e-02 1.38400912e-01
      5.51763736e-02 2.83761509e-02 7.16660097e-02 2.05613580e-02
      3.97162847e-02 2.69505940e-02 1.74531788e-02 8.27755854e-02
      2.32704788e-01 5.79647124e-02 1.11311395e-02 1.43070035e-02
      8.59787464e-02 2.13140309e-01 5.03964052e-02 1.50379762e-02
      1.12504791e-02 5.01606101e-03 2.78603076e-03 1.99902337e-03
      1.29864663e-02 1.95058540e-01 2.32704788e-01 1.29629940e-01
      6.58717379e-02 5.01211546e-02 3.35632190e-02 3.36961560e-02
      6.32812455e-02 1.18749268e-01 1.80188984e-01 1.71929702e-01
      1.33038193e-01 8.93341228e-02 5.39502874e-02 4.96272855e-02
      7.62869343e-02 6.60623461e-02 1.19423144e-01 3.01452335e-02
      6.01325147e-02 6.91741779e-02 6.25625849e-02 1.47040248e-01
      1.38934955e-01 4.32462730e-02 1.47374701e-02 2.01236364e-02
      2.99849678e-02 3.77741233e-02 2.39846595e-02 7.65920244e-03
      2.91438401e-03 6.98375457e-04 4.36387170e-04 9.71367059e-04
      4.32369113e-03 3.74542885e-02 5.58169037e-02 6.09308966e-02
      5.61408885e-02 8.86004567e-02 2.45502237e-02 1.87057611e-02
      3.48491259e-02 2.69347597e-02 2.95608845e-02 3.29712816e-02
      4.62487824e-02 4.61925007e-02 6.05180152e-02 4.38156873e-02
      8.22895318e-02 6.50468692e-02 3.57306451e-02 1.71910375e-02
      4.39248346e-02 9.53037515e-02 6.42246306e-02 3.55406329e-02
      1.91159043e-02 1.57864597e-02 4.20907419e-03 6.49442477e-03
      8.61872267e-03 1.71673279e-02 4.16205674e-02 8.69582221e-02
      3.50358076e-02 9.57705267e-03 6.36884756e-03 4.11070045e-03
      2.72685383e-03 4.55102921e-02 8.58094320e-02 8.66601691e-02
      1.26402140e-01 7.69678950e-02 6.06780984e-02 3.64982970e-02
      2.13503856e-02 1.14654619e-02 1.43577522e-02 1.76064949e-02
      1.83338206e-02 1.41890226e-02 4.14864644e-02 1.11567207e-01
      5.48152030e-02 1.75492801e-02 5.28660230e-03 2.23343773e-03
      2.74676504e-03 3.16671142e-03 6.23688521e-03 7.10179517e-03
      6.67274371e-03 4.49846173e-03 2.71035102e-03 1.98648777e-03
      1.18362643e-01 1.65873468e-01 6.78807721e-02 8.54574367e-02
      2.89331451e-02 1.74371246e-02 1.90433804e-02 1.29734678e-02
      3.94715816e-02 2.47191250e-01 2.58693069e-01 1.23496503e-01
      8.10636953e-02 7.07174316e-02 2.32374266e-01 7.47007132e-02
      3.02857757e-02 6.81938455e-02 3.04745995e-02 5.88426739e-02
      4.10497971e-02 4.21893708e-02 2.01216355e-01 2.58693069e-01
      1.19838089e-01 2.33560484e-02 2.35883407e-02 5.31135034e-03
      7.95363821e-03 7.98897352e-03 1.07421074e-02 1.61831193e-02
      3.66459563e-02 2.11496782e-02 1.56137934e-02 7.55300839e-03
      7.80647993e-02 8.59082639e-02 5.71297258e-02 3.14562544e-02
      2.16066521e-02 1.28508601e-02 1.59550719e-02 3.20057087e-02
      5.77743426e-02 1.74202994e-01 1.84646338e-01 1.40529186e-01
      9.40617621e-02 6.89780414e-02 7.06860274e-02 8.49790350e-02
      5.90398535e-02 1.05716340e-01 6.83212951e-02 1.21053033e-01
      1.46859571e-01 1.46836728e-01 2.58693069e-01 2.58693069e-01
      9.75011289e-02 3.20104696e-02 4.05486785e-02 7.55084679e-02
      3.40868570e-02 2.25205440e-02 2.08184570e-02 4.12345491e-02
      3.55596095e-02 1.69489756e-02 2.65904181e-02 2.90707462e-02
      1.37450574e-02 1.74986254e-02 1.95105392e-02 2.46366393e-02
      4.22589257e-02 1.20111173e-02 1.30461315e-02 2.11000796e-02
      1.47208404e-02 3.44204679e-02 4.30408344e-02 6.97503239e-02
      5.40003516e-02 5.28344922e-02 4.65671308e-02 7.93529749e-02
      5.32269329e-02 2.92500556e-02 5.46345040e-02 1.16351157e-01
      2.28905812e-01 1.58673912e-01 9.19772610e-02 4.22670543e-02
      3.28925475e-02 1.01550268e-02 1.69441365e-02 7.42609799e-02
      4.16045673e-02 2.12884955e-02 1.90179832e-02 1.65523998e-02
      6.11084187e-03 4.86130128e-03 7.43852509e-03 1.23304361e-02
      2.35387739e-02 4.18027788e-02 3.79477665e-02 4.58267890e-02
      3.78258824e-02 4.72485311e-02 2.81718466e-02 1.20526841e-02
      5.97497029e-03 1.32115753e-02 1.48420669e-02 1.53511884e-02
      1.53665617e-02 4.02108394e-02 1.14155769e-01 5.36079220e-02
      2.00606175e-02 5.76688675e-03 5.52482205e-03 6.84735039e-03
      8.78170878e-03 1.84187777e-02 2.06741430e-02 1.94502939e-02
      1.33519201e-02 6.83497684e-03 5.72263217e-03 6.04269328e-04
      1.08244573e-03 1.41679065e-03 2.86210910e-03 3.55758984e-03
      3.22865741e-03 3.05650546e-03 2.02052272e-03 1.05157250e-03
      1.04356393e-01 1.70870245e-01 6.33778572e-02 3.27477269e-02
      4.73401658e-02 2.03660652e-01 5.53488322e-02 1.76563822e-02
      3.35521139e-02 2.35757306e-02 4.67228480e-02 3.37592363e-02
      5.33710383e-02 2.37154528e-01 2.72168726e-01 1.26775861e-01
      2.74075046e-02 2.06825528e-02 1.74267571e-02 2.24861465e-02
      2.38929726e-02 2.88621932e-02 4.18745726e-02 9.94448736e-02
      6.14636391e-02 4.82101515e-02 2.57189404e-02 5.18925814e-03
      2.78436602e-03 2.80270819e-03 6.09447341e-03 8.88332166e-03
      1.29854931e-02 9.53148026e-03 7.98183866e-03 8.15120339e-03
      8.49643797e-02 1.02532543e-01 8.01406726e-02 5.59212938e-02
      5.19689247e-02 5.45294471e-02 4.92536910e-02 2.74939295e-02
      4.77766879e-02 9.20027420e-02 1.34708524e-01 1.64147213e-01
      1.71635568e-01 2.72168726e-01 2.72168726e-01 1.12643488e-01
      3.74398939e-02 4.65615503e-02 2.65888840e-01 9.82857421e-02
      5.60512729e-02 6.15761168e-02 8.11273083e-02 8.40869099e-02
      5.22705168e-02 8.90271738e-02 1.03964739e-01 1.35039091e-01
      3.66684012e-02 8.01298954e-03 1.61461867e-02 8.13922100e-03
      1.09223528e-02 9.81972646e-03 1.32253096e-02 4.48666811e-02
      2.13604737e-02 3.02198790e-02 5.54316901e-02 3.65516990e-02
      2.34470274e-02 2.53299810e-02 3.88594195e-02 2.09758580e-02
      1.17822746e-02 8.79204124e-02 1.58583745e-01 2.72168726e-01
      1.94252819e-01 1.22964002e-01 4.95385341e-02 3.61111239e-02
      1.36151277e-02 2.33551338e-02 2.48690933e-01 1.07035376e-01
      4.27999943e-02 4.09609266e-02 3.26038674e-02 1.56642031e-02
      1.52139356e-02 2.48290114e-02 4.57410850e-02 1.05084836e-01
      2.50145383e-02 1.55437365e-03 3.13018262e-03 1.69081101e-03
      2.36197282e-03 3.97126237e-03 9.15207807e-03 2.59710662e-02
      4.57378477e-03 5.15036564e-03 5.14319912e-03 8.63210578e-03
      1.61404219e-02 5.42184971e-02 2.49335151e-02 1.10424999e-02
      2.94010947e-03 6.78133545e-03 8.44432041e-03 1.20390579e-02
      2.64092833e-02 2.96772122e-02 2.87527107e-02 2.02785227e-02
      9.20286216e-03 8.00087862e-03 2.93690455e-03 4.69097635e-03
      5.41196717e-03 9.16236360e-03 1.17314858e-02 8.92249681e-03
      1.00643784e-02 6.87028002e-03 4.32264153e-03 4.63933451e-03
      3.91527265e-03 2.99962657e-03 1.57280092e-03 1.56386034e-03
      9.35071672e-04 2.33473233e-03 2.16132123e-03 3.63087771e-03
      4.84000146e-03 1.37058413e-02 1.02137476e-02 3.30409259e-02
      1.32193565e-01 2.64662206e-01 6.73586056e-02 1.69048943e-02
      6.72383141e-03 2.72949040e-02 3.06402370e-02 3.42578180e-02
      4.05135117e-02 5.49595281e-02 1.37324810e-01 9.00371373e-02
      7.21450299e-02 4.20660824e-02 2.09677555e-02 1.22103486e-02
      1.11209955e-02 1.94493514e-02 3.14585045e-02 3.50062065e-02
      2.61626095e-02 2.55154092e-02 3.07402797e-02 1.28841996e-02
      9.06412676e-03 7.65149388e-03 4.69308812e-03 8.24987236e-03
      5.65006817e-03 4.70682094e-03 6.88540470e-03 1.33449659e-02
      6.92344010e-02 7.56325275e-02 8.71496797e-02 9.55852419e-02
      2.64662206e-01 2.64662206e-01 6.31172061e-02 2.26258747e-02
      2.78840475e-02 2.64662206e-01 1.42243102e-01 7.23069087e-02
      9.71256793e-02 8.57697576e-02 1.04616061e-01 7.97575936e-02
      1.40649721e-01 1.78822547e-01 2.64662206e-01 1.69185743e-01
      2.35800464e-02 4.18004915e-02 2.54438762e-02 3.79418470e-02
      3.17518525e-02 4.43354845e-02 1.59558207e-01 2.64662206e-01
      9.60889384e-02 8.37488193e-03 5.88013139e-03 6.67650579e-03
      9.27838124e-03 9.32396576e-03 1.77932885e-02 5.90929873e-02
      7.70560876e-02 1.09046347e-01 1.55229807e-01 1.13326497e-01
      7.64280781e-02 2.68481169e-02 1.80798564e-02 9.60765686e-03
      1.63839199e-02 2.64662206e-01 1.36997133e-01 4.20394577e-02
      4.39487807e-02 3.31498086e-02 2.09251698e-02 2.37533320e-02
      4.06204872e-02 8.26661810e-02 2.64662206e-01 1.09697290e-01
      9.88924690e-03 1.72436573e-02 6.61991443e-03 8.64318758e-03
      1.31641645e-02 3.31804119e-02 9.26709324e-02 1.33123711e-01
      4.53314483e-02 1.28347799e-02 1.17847370e-02 2.87433178e-03
      4.48791729e-03 8.62799678e-03 1.23796472e-02 3.35003994e-02
      2.79084556e-02 4.83360626e-02 1.10964514e-02 4.13436117e-03
      2.23474856e-03 1.72697275e-03 6.57929457e-04 3.99197591e-03
      1.02970628e-02 1.25846058e-01 2.30403215e-01 7.30104521e-02
      1.40603427e-02 7.06019299e-03 4.97884816e-03 1.56484440e-03
      4.38287761e-03 1.68881342e-02 1.47161871e-01 2.38159150e-01
      8.06110278e-02 5.79890683e-02 1.81399956e-02 1.00731524e-02
      1.45228803e-02 1.59619395e-02 5.26381731e-02 6.48698509e-02
      8.69223028e-02 2.29832381e-02 1.75787117e-02 1.00521017e-02
      8.09801277e-03 6.84762467e-03 5.55870123e-03 2.17713956e-02
      1.06653847e-01 2.42413312e-01 2.73591578e-02 3.39506776e-03
      2.44398159e-03 1.64816482e-03 1.59420201e-03 3.45521024e-03
      1.79947689e-02 2.42413312e-01 2.42413312e-01 1.26575202e-01
      3.76485251e-02 2.92831473e-02 9.40567441e-03 6.44490402e-03
      4.92605753e-03 3.75709087e-02 2.32854441e-01 2.42413312e-01
      1.55174166e-01 8.49710405e-02 6.91320673e-02 4.71072495e-02
      3.37041356e-02 6.61399961e-02 1.08074702e-01 8.48919153e-02
      7.45373964e-02 6.67011514e-02 4.46334295e-02 2.50565950e-02
      1.78684928e-02 4.17829007e-02 5.29355407e-02 6.88309744e-02
      6.59529343e-02 1.17206313e-01 4.32585254e-02 7.37209991e-03
      8.45546077e-04 9.02458909e-04 1.93781941e-03 2.32339208e-03
      1.96375139e-02 1.98677853e-01 2.42413312e-01 1.31736040e-01
      3.84170339e-02 1.62825584e-02 7.00185308e-03 6.41944166e-03
      1.15843005e-02 3.64707336e-02 8.52122754e-02 1.67987809e-01
      2.11871132e-01 1.70363247e-01 2.42413312e-01 7.76003748e-02
      3.99118029e-02 6.11284263e-02 5.14542162e-02 2.39840187e-02
      2.71373391e-02 2.66556926e-02 5.86734973e-02 1.20596081e-01
      6.11372329e-02 9.93724540e-02 7.78659433e-02 3.99428979e-02
      1.91771481e-02 2.26376634e-02 7.32682273e-03 2.98294262e-03
      3.71582131e-03 2.35367450e-03 4.08386299e-03 7.39302812e-03
      1.50399217e-02 1.96646135e-02 2.89072488e-02 1.50743686e-02
      9.97044425e-03 1.17069865e-02 9.48638655e-03 9.25150793e-03
      2.18223073e-02 3.38994376e-02 6.80380687e-03 2.20955387e-02
      3.50946784e-02 5.79551086e-02 1.10890985e-01 1.11223184e-01
      3.12078837e-02 2.72971503e-02 2.00794917e-02 4.95359348e-03
      1.44779989e-02 2.02417411e-02 2.95483768e-02 5.18981405e-02
      5.90850525e-02 1.98898837e-02 8.74051359e-03 4.61822376e-03
      4.98077460e-02 9.05424505e-02 2.62283050e-02 5.13966568e-03
      2.35376880e-03 1.68611261e-03 6.49753201e-04 1.40163768e-03
      6.41701929e-03 1.22281902e-01 1.86525330e-01 6.78999573e-02
      5.46674095e-02 1.91810410e-02 1.07620787e-02 1.54535072e-02
      1.52275348e-02 4.97097857e-02 1.20597243e-01 1.65935963e-01
      4.49915603e-02 3.17134447e-02 2.57491488e-02 5.23619093e-02
      2.07318813e-02 1.12025850e-02 4.03945670e-02 8.91321898e-03
      1.70059018e-02 1.05915191e-02 1.05159273e-02 4.90031876e-02
      1.31172284e-01 2.03350149e-02 4.63735498e-03 7.99447391e-03
      8.33321512e-02 1.89916983e-01 4.71458584e-02 1.63351167e-02
      1.30186072e-02 5.37985517e-03 2.77729728e-03 2.26305565e-03
      1.32165784e-02 1.99617341e-01 2.08923802e-01 1.37463167e-01
      7.99570978e-02 6.18099980e-02 3.89847457e-02 3.45135480e-02
      7.57263973e-02 1.14705160e-01 1.67738780e-01 1.65810615e-01
      1.46483630e-01 9.65226963e-02 5.69973998e-02 5.07418700e-02
      9.87394080e-02 9.37535614e-02 1.20715089e-01 3.26291211e-02
      7.37577900e-02 9.83725935e-02 7.66509995e-02 1.44393042e-01
      1.19537510e-01 4.79446761e-02 1.57723557e-02 1.96665414e-02
      6.52269125e-02 8.76966119e-02 5.90569749e-02 1.88703481e-02
      7.21236970e-03 3.59113608e-03 2.56638508e-03 4.99871047e-03
      1.24096144e-02 6.38188720e-02 1.14708990e-01 1.48579895e-01
      1.60650343e-01 2.08923802e-01 8.01372975e-02 5.37900589e-02
      7.35384449e-02 5.47462068e-02 6.80616051e-02 8.32660124e-02
      1.13373555e-01 1.33911297e-01 1.88368067e-01 1.28181979e-01
      2.07074001e-01 1.43089101e-01 7.14265406e-02 4.77226935e-02
      1.11129098e-01 2.08923802e-01 1.83684260e-01 7.55622163e-02
      4.35043834e-02 3.50099616e-02 8.66744481e-03 1.62787735e-02
      6.01038150e-03 8.98280367e-03 6.36438699e-03 4.43524169e-03
      4.91862930e-03 4.97250771e-03 3.54403607e-03 9.13988054e-03
      1.29417889e-02 4.38895589e-03 1.72129758e-02 3.01871914e-02
      5.71886115e-02 1.17351934e-01 1.21230446e-01 3.15075554e-02
      2.00429279e-02 1.21891350e-02 2.11908389e-02 5.71136139e-02
      6.38015866e-02 7.32327849e-02 8.30248818e-02 8.96893367e-02
      3.85345928e-02 2.04923805e-02 1.36089474e-02 2.93954946e-02
      6.84284121e-02 8.25268924e-02 6.28993213e-02 2.00185869e-02
      1.23458747e-02 8.24598689e-03 8.89407285e-03 1.10014174e-02
      4.42009084e-02 6.39386624e-02 2.37010773e-02 2.05904450e-02
      8.29214137e-03 4.73473221e-03 6.63025212e-03 5.90243936e-03
      1.94734652e-02 9.39353555e-02 1.32342368e-01 3.99493277e-02
      2.58289985e-02 2.91149337e-02 7.91636556e-02 2.38215085e-02
      1.06126294e-02 3.37277204e-02 1.14204763e-02 2.32832674e-02
      1.49474135e-02 2.14335863e-02 1.05056681e-01 2.41742134e-01
      3.76879908e-02 8.36313795e-03 1.13438061e-02 2.29777419e-03
      3.85921542e-03 3.57957021e-03 4.12782934e-03 6.56542461e-03
      1.53864035e-02 8.11635237e-03 6.13897527e-03 3.41873290e-03
      7.13065639e-02 7.19117448e-02 5.25362343e-02 3.26944962e-02
      2.30917484e-02 1.31973065e-02 1.51826562e-02 3.60450558e-02
      5.05260788e-02 1.42644376e-01 1.60476491e-01 1.43447310e-01
      9.09125805e-02 5.98616004e-02 5.85074574e-02 9.41618830e-02
      7.01402426e-02 9.12735909e-02 7.56490082e-02 1.41025335e-01
      1.88654810e-01 1.60636455e-01 2.41742134e-01 2.41742134e-01
      9.59951803e-02 3.13627422e-02 3.84158753e-02 1.04105711e-01
      4.43036966e-02 2.25639194e-02 2.11348869e-02 4.42458242e-02
      3.00429910e-02 1.51220467e-02 2.50614602e-02 3.07021197e-02
      1.97431426e-02 3.09110247e-02 4.12135758e-02 6.32655099e-02
      1.20469518e-01 3.45006287e-02 3.16142216e-02 3.81640643e-02
      2.49558762e-02 7.54651055e-02 9.87173095e-02 1.55611262e-01
      1.37401223e-01 1.39752477e-01 1.16572708e-01 1.74421400e-01
      1.05457351e-01 5.35485782e-02 1.21275060e-01 2.41742134e-01
      2.41742134e-01 2.41742134e-01 1.62202507e-01 7.94043764e-02
      6.21247739e-02 1.83497258e-02 3.66377793e-02 1.30738333e-01
      8.27151239e-02 5.24084605e-02 4.81847562e-02 3.16092037e-02
      1.18838297e-02 1.20393848e-02 1.80108286e-02 2.31585670e-02
      1.16717722e-03 5.85532840e-03 1.17643168e-02 2.33449880e-02
      4.93490547e-02 5.31312674e-02 1.35118151e-02 6.16012048e-03
      2.41037505e-03 2.93302462e-02 7.30066895e-02 7.56249651e-02
      7.55405277e-02 6.14783689e-02 6.04058579e-02 3.17845680e-02
      1.90648921e-02 1.48821454e-02 5.71937412e-02 1.31374091e-01
      1.66350767e-01 1.25969708e-01 3.95175107e-02 2.33189315e-02
      1.56445093e-02 1.94640253e-02 2.41759121e-02 1.05649419e-02
      1.57490969e-02 1.40379453e-02 1.60428546e-02 1.27870254e-02
      6.72067329e-03 7.36860186e-03 9.02908202e-03 7.39840232e-03
      3.42433602e-02 5.03836796e-02 1.75475776e-02 1.08583122e-02
      1.88243706e-02 5.98075390e-02 1.45681798e-02 5.33107575e-03
      1.40846577e-02 7.39786448e-03 1.65810697e-02 1.11612631e-02
      2.17189547e-02 1.05066396e-01 2.52157360e-01 3.49555388e-02
      8.22041184e-03 8.17279518e-03 6.71465462e-03 9.53264907e-03
      9.14634671e-03 1.00838160e-02 1.39783071e-02 3.41604464e-02
      2.01154146e-02 1.65962186e-02 1.03342524e-02 2.12240987e-03
      8.98636528e-04 9.32235213e-04 2.26414087e-03 2.93892040e-03
      4.51519853e-03 3.44136893e-03 3.20395268e-03 3.62571678e-03
      5.95977940e-02 7.81869739e-02 7.38504529e-02 4.70492877e-02
      3.56318727e-02 3.51378024e-02 4.46913801e-02 2.56385971e-02
      3.36835943e-02 9.64584425e-02 1.43165395e-01 1.80984199e-01
      1.61830083e-01 2.54253119e-01 2.54253119e-01 9.52842385e-02
      3.23962048e-02 4.09707725e-02 2.54253119e-01 1.06631115e-01
      4.54229377e-02 4.94735390e-02 7.20842630e-02 5.97705096e-02
      3.88160385e-02 7.03838244e-02 9.36623141e-02 1.57791018e-01
      3.97630930e-02 6.16923580e-03 1.18178464e-02 5.47926361e-03
      6.85487920e-03 6.50199736e-03 9.41569638e-03 4.41228673e-02
      4.26292978e-02 6.03754558e-02 1.08375318e-01 7.90191516e-02
      4.96029817e-02 5.24757020e-02 7.21982867e-02 3.64194438e-02
      1.95173323e-02 1.55135170e-01 2.54253119e-01 2.54253119e-01
      2.54253119e-01 1.78558961e-01 7.47352690e-02 5.61622828e-02
      2.11942066e-02 4.17529792e-02 2.54253119e-01 1.77481517e-01
      8.92298445e-02 9.00295675e-02 5.73276393e-02 2.91359108e-02
      3.52037176e-02 5.38657717e-02 7.32310340e-02 1.38871357e-01
      3.54659446e-02 3.14771943e-03 6.85359165e-03 4.51924792e-03
      7.74900615e-03 1.11281490e-02 2.21301522e-02 3.97478715e-02
      1.96100809e-02 4.63688858e-02 4.72938679e-02 4.11557965e-02
      2.13438123e-02 1.70598421e-02 1.34183876e-02 8.87657981e-03
      7.92826619e-03 5.52626066e-02 1.23521380e-01 1.62120596e-01
      1.25116095e-01 4.24212478e-02 2.25241743e-02 1.58788748e-02
      2.14163437e-02 2.67541539e-02 2.37623807e-02 3.39887291e-02
      2.58600693e-02 3.04946024e-02 2.73637436e-02 1.85439624e-02
      2.03846265e-02 2.51401179e-02 1.84293222e-02 5.87099371e-03
      3.36868269e-03 2.63603684e-03 2.40434008e-03 3.21802916e-03
      5.89245744e-03 5.79807628e-03 7.32640410e-03 7.96029158e-03
      1.41287141e-03 5.23185125e-03 3.72746494e-03 1.13980444e-02
      5.27869798e-02 1.20921023e-01 1.77521352e-02 4.52893693e-03
      2.19073426e-03 9.94974934e-03 1.20452959e-02 1.19495858e-02
      1.37927989e-02 1.64167024e-02 4.16236930e-02 2.69497707e-02
      2.32144762e-02 1.59816854e-02 7.81918224e-03 3.67987738e-03
      3.12695256e-03 6.07326254e-03 9.45717748e-03 1.18001960e-02
      8.79368093e-03 9.69126821e-03 1.23511134e-02 4.61159786e-03
      2.89455638e-03 2.25633895e-03 1.49743236e-03 2.64122942e-03
      2.03347555e-03 1.65515614e-03 3.13636800e-03 5.21602156e-03
      7.27003142e-02 7.90998191e-02 8.75282660e-02 8.30702409e-02
      2.20856503e-01 1.64444327e-01 4.86479811e-02 1.86411906e-02
      2.47594137e-02 2.71475047e-01 1.38525069e-01 5.10131046e-02
      6.73116371e-02 6.69036135e-02 6.71488792e-02 5.29084653e-02
      1.00281924e-01 1.47948951e-01 2.71475047e-01 1.66103721e-01
      1.70051884e-02 2.85836905e-02 1.50655834e-02 2.20395233e-02
      1.97104346e-02 2.83467881e-02 1.42837748e-01 2.71475047e-01
      8.85746777e-02 7.13916961e-03 3.95026850e-03 3.92322848e-03
      6.01012912e-03 6.93645654e-03 1.15395356e-02 4.88064811e-02
      1.17467701e-01 1.76104248e-01 2.71475047e-01 2.19427899e-01
      9.92258936e-02 3.45443375e-02 2.44164430e-02 1.40282717e-02
      2.56942715e-02 2.71475047e-01 2.01967105e-01 7.97169730e-02
      8.93217772e-02 5.71805723e-02 3.92338000e-02 5.37445210e-02
      8.34800377e-02 1.20805420e-01 2.71475047e-01 1.40361920e-01
      1.96018796e-02 3.55428718e-02 1.71174370e-02 2.61605792e-02
      3.24059725e-02 7.32539967e-02 1.30386174e-01 1.52549863e-01
      5.51385097e-02 2.42715441e-02 2.59683859e-02 7.58404192e-03
      1.23648532e-02 1.68777145e-02 2.57658176e-02 5.28752282e-02
      2.75384169e-02 5.86941130e-02 7.91019425e-02 6.51679784e-02
      2.46783737e-02 1.12393573e-02 8.85722321e-03 1.27172330e-02
      1.57324988e-02 2.88739726e-02 3.91362831e-02 2.66595706e-02
      2.96032541e-02 3.10277324e-02 2.68649869e-02 3.01818512e-02
      3.71094458e-02 2.58020628e-02 2.41294354e-02 1.43832425e-02
      1.15407975e-02 1.30156241e-02 1.09130684e-02 1.85620096e-02
      1.61172859e-02 2.35242266e-02 2.73614936e-02 1.54413693e-02
      9.38661676e-03 7.90635776e-03 9.03420895e-03 4.14946815e-03
      8.28053057e-03 5.50699374e-03 7.33359577e-03 9.43656918e-03
      6.05842359e-02 1.71631798e-01 1.37296999e-02 1.51327904e-03
      9.98192700e-04 7.13864982e-04 1.10969786e-03 2.08863802e-03
      1.17683057e-02 1.36367366e-01 2.33151183e-01 5.67710400e-02
      1.86860058e-02 1.57956630e-02 4.90571512e-03 3.37131857e-03
      2.96175596e-03 2.16635708e-02 1.16852336e-01 1.49868414e-01
      8.90926942e-02 5.46119548e-02 4.58901450e-02 2.78583486e-02
      1.67911388e-02 4.04438823e-02 5.28426208e-02 4.03516702e-02
      3.49698365e-02 3.45828794e-02 2.38935687e-02 1.61506943e-02
      1.11388247e-02 2.89523415e-02 3.97568271e-02 3.77778895e-02
      7.23785684e-02 1.33629858e-01 5.94707355e-02 1.01770181e-02
      1.33693591e-03 1.32159982e-03 2.20395857e-03 2.23658793e-03
      2.35394388e-02 2.12218627e-01 2.33151183e-01 1.64096504e-01
      5.11490852e-02 2.50837095e-02 1.32150687e-02 1.22262146e-02
      2.27473117e-02 5.03645800e-02 7.90896118e-02 1.82601571e-01
      2.33151183e-01 2.33151183e-01 2.33151183e-01 1.23416223e-01
      5.98006397e-02 7.12099224e-02 5.97139597e-02 2.44590249e-02
      3.47958691e-02 3.16387899e-02 8.53757039e-02 1.85569495e-01
      9.22084749e-02 1.25005186e-01 8.23032111e-02 3.77963446e-02
      5.44546247e-02 4.95482981e-02 1.49526075e-02 1.58807877e-02
      2.54742336e-02 1.28990244e-02 1.61710270e-02 2.84873042e-02
      4.88214567e-02 5.91820329e-02 6.07862137e-02 3.58504727e-02
      2.90923528e-02 3.67433168e-02 3.11111622e-02 2.81598233e-02
      6.98085204e-02 1.09882772e-01 2.08932124e-02 5.76616861e-02
      9.26095471e-02 1.53566420e-01 2.33151183e-01 2.33151183e-01
      1.02336206e-01 8.73430818e-02 6.06506169e-02 1.72688980e-02
      4.73754704e-02 7.62222409e-02 9.24488530e-02 1.54978782e-01
      2.19641358e-01 6.02324381e-02 2.81672105e-02 2.11237986e-02
      3.76023795e-03 2.09697988e-03 5.67512866e-03 2.75080316e-02
      3.58626284e-02 1.13224434e-02 3.57362744e-03 2.78610690e-03
      2.83750286e-03 1.70561410e-02 8.45791213e-03 9.61205550e-03
      1.68737955e-02 2.09888406e-02 1.34201869e-02 8.95221345e-03
      1.48616256e-02 1.57815516e-02 1.16483346e-02 6.84785470e-03
      1.94531567e-02 2.93020010e-02 8.64139795e-02 1.26424879e-01
      2.75131837e-02 1.96028147e-02 2.01566890e-02 9.69653297e-03
      1.77985746e-02 4.06861976e-02 4.66882139e-02 9.21039730e-02
      1.11055285e-01 1.59817971e-02 1.02688419e-02 1.40116252e-02
      3.37691568e-02 6.45881146e-02 1.75124351e-02 6.64659031e-03
