<?xml version="1.0"?>
<opencv_storage>
<opencv_ml_svm>
  <format>3</format>
  <svmType>C_SVC</svmType>
  <kernel>
    <type>LINEAR</type></kernel>
  <C>1.</C>
  <term_criteria><iterations>10000</iterations></term_criteria>
  <var_count>3600</var_count>
  <class_count>2</class_count>
  <class_labels type_id="opencv-matrix">
    <rows>2</rows>
    <cols>1</cols>
    <dt>i</dt>
    <data>
      0 1</data></class_labels>
  <sv_total>1</sv_total>
  <support_vectors>
    <_>
      -3.98953818e-02 -2.47465204e-02 -1.49427392e-02 -1.55448467e-02
      2.46154964e-02 1.80989690e-02 1.83359552e-02 -1.70317129e-03
      -4.06892374e-02 -8.26230720e-02 -5.98356761e-02 -2.28457339e-02
      5.15245553e-03 5.89758791e-02 5.11235557e-02 3.14528607e-02
      -9.11059603e-03 -8.21202472e-02 -1.07293809e-02 -1.98946204e-02
      -1.42522529e-02 2.87329982e-04 2.11754609e-02 2.14315504e-02
      2.89005414e-02 -3.14213522e-03 -3.25123705e-02 -5.20925736e-03
      1.83250883e-03 -7.75399851e-04 -3.84812057e-03 3.05506401e-02
      1.45509103e-02 1.50682665e-02 -5.18251816e-03 -1.34301623e-02
      -3.68928537e-02 2.25433819e-02 -1.29177244e-02 -3.05280648e-03
      8.92985554e-04 -7.48167280e-03 7.74553344e-02 -3.75128444e-03
      -6.81810603e-02 -7.52374679e-02 -1.41449347e-02 2.23750882e-02
      2.44029541e-03 2.61875447e-02 -1.46075082e-03 2.33038981e-02
      -1.88296568e-02 -6.99217841e-02 -3.67893116e-03 4.08660248e-02
      3.72499786e-02 2.37418246e-02 1.14317071e-02 7.18121824e-04
      1.14861637e-01 3.94620597e-02 -1.57894325e-02 -7.81849958e-03
      -2.11842414e-02 -9.06386413e-04 1.13158464e-03 2.50296593e-02
      5.50348386e-02 9.72745791e-02 3.55711989e-02 -4.59194556e-02
      -4.22137380e-02 -1.98360272e-02 3.44907232e-02 4.59157377e-02
      3.74192484e-02 -3.47537138e-02 3.00456733e-02 -8.94359872e-03
      -5.92722781e-02 -7.63550848e-02 -3.21456082e-02 2.85079423e-02
      -4.06891406e-02 -3.09290607e-02 -6.74720109e-02 6.38275072e-02
      -4.87071322e-03 -8.16427842e-02 -3.89967449e-02 5.35915978e-02
      4.57644053e-02 -9.67876706e-03 -6.64382875e-02 -1.70730017e-02
      5.60066253e-02 -2.39431635e-02 -5.47434576e-02 1.13412458e-02
      1.97598506e-02 1.87660474e-02 -3.77846952e-03 -1.46517185e-02
      -2.81586661e-03 5.39237820e-02 8.37765858e-02 -9.61112138e-03
      -2.94620320e-02 -6.39594486e-03 6.18774537e-03 1.77808143e-02
      1.50675038e-02 4.13977122e-03 -8.60252324e-03 -2.78940108e-02
      -3.79010104e-02 -2.92535173e-03 -4.76561161e-03 1.65919140e-02
      -1.18081300e-02 -5.72889065e-03 1.70591718e-03 1.61453336e-02
      -7.24007748e-03 -1.64843258e-02 -7.86683988e-03 -9.36941057e-03
      -3.38369273e-02 -5.45048416e-02 -5.49159199e-03 -2.52984073e-02
      -1.82601325e-02 1.31016914e-02 -2.06051338e-02 5.12277195e-03
      1.30586261e-02 2.45072320e-03 -1.80231745e-03 -1.10665271e-02
      -6.67647924e-03 -2.52692611e-04 7.27108587e-03 -1.07656175e-03
      -3.12576927e-02 -2.30410080e-02 -3.70598747e-03 1.20305521e-02
      2.96000950e-02 2.12435853e-02 1.10645061e-02 -6.15614699e-03
      -3.47879976e-02 -3.99239967e-03 -1.78374164e-02 -1.75721478e-02
      -1.45915011e-02 2.49045622e-03 1.10529480e-03 1.64928045e-02
      -1.58937480e-02 -2.58712620e-02 -5.68705099e-03 4.77316556e-03
      4.92819876e-04 -2.60924455e-03 4.64509167e-02 1.23865483e-02
      1.38083622e-02 -2.56759077e-02 -3.03675067e-02 -6.38535479e-03
      -5.95318852e-03 -3.77303310e-04 1.79981086e-02 1.94215477e-02
      -7.36637134e-03 -2.18709325e-03 -1.00603653e-02 -5.75780543e-03
      -2.90286820e-02 1.66745216e-03 3.65010686e-02 2.43516825e-02
      2.33626645e-02 -9.72688198e-03 3.39025515e-03 -2.31350549e-02
      -5.21551631e-02 -3.92029434e-03 8.62096995e-03 1.93053652e-02
      -9.77842021e-04 -2.56482628e-04 -2.49285549e-02 7.50902444e-02
      2.53395760e-03 -4.65474539e-02 -5.01624569e-02 -4.94226106e-02
      1.21436222e-02 4.08849753e-02 8.81796405e-02 6.19387403e-02
      1.00061372e-01 -1.68029945e-02 -7.21529946e-02 1.15686310e-02
      -1.05176773e-03 4.72539067e-02 3.84396277e-02 6.03887625e-02
      -2.63425782e-02 1.96788344e-03 -1.63533576e-02 -4.31054132e-03
      -4.16248664e-02 -1.55702643e-02 1.24964789e-02 -4.31241393e-02
      -1.55925611e-02 -4.04534899e-02 4.64849547e-02 9.93985496e-03
      -4.35417518e-02 -4.89831343e-02 2.28202194e-02 3.46347876e-02
      -3.23957996e-03 -3.40286605e-02 -2.58779544e-02 3.28375734e-02
      -4.69833240e-02 -7.77079612e-02 8.24351609e-03 3.49578005e-03
      4.95253503e-02 4.75744642e-02 5.57357967e-02 -2.56574247e-03
      5.30820712e-02 5.24843037e-02 -7.64965173e-03 1.81960836e-02
      -4.39823791e-03 -1.38111075e-03 9.74330027e-03 3.84479910e-02
      1.69078987e-02 -7.60003459e-03 -1.90711152e-02 -4.92163189e-02
      -3.37877241e-03 -6.87646912e-03 -1.94859703e-03 -1.21695297e-02
      -3.56245037e-05 1.04124304e-02 1.08015090e-02 2.01450940e-03
      -5.51548507e-03 -4.08156551e-02 -8.32238607e-03 -2.21076347e-02
      -2.89346781e-02 1.04905653e-03 -3.32014263e-02 -2.04341803e-02
      8.67490284e-03 -4.47649509e-02 -3.08608549e-04 2.00091116e-02
      1.48068592e-02 -8.18551239e-03 -8.87253135e-03 1.70755811e-04
      4.47695795e-03 -9.36767459e-03 -3.52828167e-02 4.42810617e-02
      1.13280974e-02 -4.91907448e-03 -2.11667065e-02 -1.62731856e-02
      1.41017055e-02 2.55986466e-03 -9.19883233e-03 -2.04033442e-02
      2.28085672e-04 -4.23314050e-03 -8.84088408e-03 -1.38860941e-02
      -5.71091939e-03 -1.13330502e-03 5.85002545e-03 -4.48799459e-03
      -5.50953345e-03 -1.09652122e-02 6.82111923e-03 2.64446903e-03
      5.85268158e-03 3.32549773e-02 4.59518377e-03 2.10828660e-03
      -2.49692462e-02 -2.88926885e-02 -1.82324778e-02 -1.96337570e-02
      1.71386711e-02 4.09577005e-02 9.38827917e-03 -3.23772617e-02
      -2.65114419e-02 -2.73574404e-02 -9.28345323e-03 8.10246076e-03
      1.13459267e-02 4.56677973e-02 3.48590724e-02 -1.65635590e-02
      -2.54027955e-02 -3.31956036e-02 -1.06600812e-02 2.26796698e-03
      -3.52964317e-03 -6.03644131e-03 -2.06581503e-03 -1.39990589e-02
      -1.72032081e-02 -2.48075332e-02 3.17072272e-02 1.88509095e-02
      -3.49964015e-02 -6.41458482e-02 -4.40853201e-02 7.23951124e-03
      3.65101509e-02 7.85083994e-02 3.60106193e-02 6.46389052e-02
      -5.80072450e-03 -8.21099728e-02 -1.27406819e-02 -1.94638893e-02
      9.22723040e-02 5.33857420e-02 9.81674716e-03 -7.50477165e-02
      -2.62986328e-02 -5.21161035e-02 -4.63039204e-02 -3.35396756e-03
      -8.58810497e-04 3.18654962e-02 4.65781279e-02 -1.00759409e-01
      -2.17133295e-02 -1.24035869e-02 -3.16060930e-02 -1.90797858e-02
      -3.07299439e-02 4.60266881e-03 5.81567269e-03 -3.66223278e-03
      -1.77354161e-02 -2.68648230e-02 6.53579086e-03 -1.35120573e-02
      -6.52129501e-02 -1.89730227e-02 -1.98969804e-02 2.18884386e-02
      3.50724086e-02 5.37874475e-02 2.20967680e-02 3.68150733e-02
      3.30288708e-02 -2.21066102e-02 -4.97776866e-02 -1.01894597e-02
      7.34356185e-03 2.87324041e-02 1.91224962e-02 6.19030232e-03
      -1.27831157e-02 -7.11019188e-02 -5.56547083e-02 4.42597866e-02
      1.38759408e-02 7.00034276e-02 5.48981279e-02 -7.54255056e-02
      -1.50971040e-01 -3.11731901e-02 -7.29388073e-02 -7.51002599e-03
      -2.29189564e-02 -3.03873140e-03 -5.86112589e-03 -5.84014738e-03
      -1.18370680e-03 -7.66098360e-03 -8.84245615e-03 4.21511382e-03
      -2.11646724e-02 -1.41930198e-02 5.05235838e-03 1.00205084e-02
      -6.63117878e-03 1.50722364e-04 1.05438950e-02 1.18773393e-02
      -2.18988396e-02 -5.86289689e-02 2.57699527e-02 2.73202211e-02
      -6.27288129e-03 -2.47534793e-02 -9.69045144e-03 2.71141063e-02
      1.21630970e-02 -2.52667107e-02 -6.90190122e-02 1.27339894e-02
      3.03317029e-02 5.51542640e-02 3.31872478e-02 -3.92855704e-02
      -6.69085905e-02 -1.79439038e-02 -2.03259047e-02 -2.83359587e-02
      -7.72866746e-03 -1.30967866e-03 8.04729876e-04 6.09123427e-03
      1.24060232e-02 4.62904951e-04 -2.13706307e-03 -1.02061071e-02
      -1.18391467e-02 -1.56620611e-02 -2.06752941e-02 3.61482501e-02
      4.31823060e-02 -4.75664716e-03 -4.00487408e-02 -3.71693969e-02
      -2.48054340e-02 -8.30608513e-03 2.44136807e-02 2.51209997e-02
      6.76260889e-02 5.02879284e-02 -2.78897062e-02 -4.33218591e-02
      -5.77703230e-02 -1.37161165e-02 8.28118157e-03 1.30647924e-02
      1.32107921e-02 2.04607118e-02 2.16861684e-02 1.60657875e-02
      2.62615317e-03 9.36143799e-04 6.46311149e-04 5.77413756e-03
      -2.89074052e-02 -1.37130693e-02 2.45306455e-03 2.22290307e-02
      3.93239856e-02 1.22274375e-02 2.76905466e-02 8.69991723e-03
      -3.57102007e-02 -3.18955220e-02 -2.82987878e-02 7.97816738e-02
      4.94736470e-02 -7.00193495e-02 -9.39683914e-02 -4.12314199e-02
      -5.77474795e-02 -5.52297123e-02 -5.30650979e-03 1.61370274e-03
      4.30532917e-02 6.16754927e-02 -3.66011262e-02 -5.41520156e-02
      -3.41482162e-02 -4.85395268e-02 -3.15953232e-02 -2.78174179e-03
      7.43713416e-03 3.52882855e-02 5.99622317e-02 3.69173437e-02
      5.71193434e-02 2.80057937e-02 -8.14989093e-04 -7.47514237e-03
      -5.05817821e-03 -1.18222833e-02 6.35469193e-03 1.24484720e-02
      2.95605604e-02 2.70450525e-02 3.71498354e-02 3.12984250e-02
      -3.84523757e-02 -4.67249677e-02 -2.00154018e-02 -9.23655555e-03
      2.76001729e-02 -1.70623176e-02 3.99068417e-03 -1.94999166e-02
      -9.64948088e-02 -8.36195126e-02 5.53600267e-02 1.94497574e-02
      7.21364319e-02 3.28431092e-02 -5.31979054e-02 -9.83822793e-02
      -8.31377506e-02 -1.14994839e-01 -1.91524364e-02 -1.01014432e-02
      7.97447655e-03 8.28352869e-02 9.96988565e-02 3.12393624e-02
      8.54649115e-03 -1.41575420e-03 -6.70899265e-03 -1.11788167e-02
      -6.70783408e-03 -4.49018693e-03 -8.39490327e-04 -6.35199714e-03
      2.52254354e-03 1.69577450e-02 9.50743817e-03 -9.91086941e-03
      -2.72568259e-02 -5.93509059e-03 -2.55242945e-03 -3.10633276e-02
      -3.12988721e-02 -4.57348535e-03 4.33138348e-02 9.72445682e-03
      -2.35498864e-02 -1.06187083e-01 -2.36734003e-03 1.71849057e-02
      3.33399028e-02 1.84060857e-02 -1.08617388e-01 -1.60697654e-01
      -5.01888096e-02 -4.19692695e-02 -4.48283032e-02 -3.30287684e-03
      2.25851294e-02 7.97940418e-02 3.05660199e-02 -9.90300253e-03
      -3.73006724e-02 -4.47265152e-03 7.53138738e-04 -1.92642934e-03
      -1.75219798e-03 -5.65512246e-03 3.75781171e-02 4.19391580e-02
      -7.73675041e-03 -3.00946757e-02 -3.07089482e-02 -1.35104395e-02
      -3.56663228e-03 3.49692442e-02 1.79418996e-02 5.95426522e-02
      4.10122611e-02 -2.78506894e-02 -4.13676128e-02 -5.78041933e-02
      -5.62552921e-03 2.84571480e-02 2.85951979e-02 1.37027763e-02
      4.03990112e-02 3.99172492e-02 1.75134987e-02 -4.79072612e-03
      -5.12156589e-03 -1.47246465e-03 1.96736436e-02 1.17234362e-03
      2.52505252e-03 1.22523848e-02 3.67108099e-02 1.67338885e-02
      3.55322356e-03 7.52264983e-04 -2.34534661e-03 5.48191601e-03
      -5.65040018e-03 -8.14043637e-03 5.66816777e-02 6.37443140e-02
      -6.85240552e-02 -6.73215091e-02 -3.54906097e-02 -3.67575064e-02
      -2.88664158e-02 -3.31736566e-03 3.12229316e-03 3.43567282e-02
      4.20991965e-02 -7.24638700e-02 -8.90505463e-02 -3.19604836e-02
      -4.13787439e-02 -2.80372072e-02 -2.22884156e-02 2.49956152e-03
      8.05702657e-02 9.78097245e-02 6.16280362e-02 5.71349412e-02
      3.42103951e-02 -1.51617415e-02 -2.41922084e-02 -1.26880361e-02
      -1.50418505e-02 4.00272720e-02 3.95886414e-02 2.58973078e-03
      -6.06227084e-04 -2.47206166e-03 -2.20618141e-03 2.49930425e-03
      1.65655892e-02 -1.02329487e-02 -1.06542958e-02 -4.26658755e-03
      -5.47715975e-03 -1.10530891e-02 -1.63277760e-02 -7.06415325e-02
      -5.46666384e-02 5.00311404e-02 1.71793327e-02 6.62643313e-02
      3.24482955e-02 -8.94673169e-02 -1.29270479e-01 -1.05277695e-01
      -1.15311511e-01 -2.20293198e-02 -2.82703787e-02 -3.65187950e-03
      6.53947145e-02 9.82979164e-02 6.24034889e-02 6.93541765e-03
      -2.00211369e-02 -2.89977435e-02 -3.39552909e-02 -6.95910119e-03
      -5.13679581e-03 1.39389681e-02 -2.49082292e-03 7.77089130e-03
      -8.09855852e-03 -1.21935771e-03 -4.02809354e-03 -2.39295955e-03
      -9.11393203e-03 -1.59931704e-02 -3.22705470e-02 -2.45814975e-02
      1.11380767e-03 2.66018733e-02 1.75923819e-03 -1.61352884e-02
      -5.99887893e-02 -1.63782425e-02 -9.52931400e-03 2.03484669e-02
      -2.45798975e-02 -1.37892291e-01 -1.88400641e-01 -7.40248263e-02
      -5.12726419e-02 -4.22386639e-02 -1.18833631e-02 1.85185932e-02
      6.49995878e-02 5.70920818e-02 1.07501373e-02 -6.49848729e-02
      -7.70603726e-03 -3.98673164e-03 -1.04206307e-02 1.30955959e-02
      1.73480362e-02 1.75414942e-02 -1.49478689e-02 -8.03812407e-03
      -7.19812466e-03 -2.76161917e-03 -2.22509610e-03 1.39592856e-03
      -3.52399750e-03 2.05624793e-02 2.92670634e-02 2.58767419e-02
      -5.85094281e-03 -8.95180367e-03 4.35273908e-02 1.32835261e-03
      -2.42729466e-02 -1.13153374e-02 1.17360866e-02 4.10124622e-02
      1.08820116e-02 1.22943167e-02 -2.17635725e-02 2.73747109e-02
      -6.86447835e-03 -3.05089615e-02 1.63800158e-02 4.02646437e-02
      3.42549309e-02 1.93156190e-02 -9.44545399e-03 -2.41016131e-02
      5.63673191e-02 2.53966209e-02 -3.73657309e-02 3.20215477e-03
      -2.14262819e-03 4.25962405e-03 9.49985906e-03 1.52180223e-02
      2.82055605e-02 4.48032953e-02 2.62105912e-02 -2.28659324e-02
      -5.24422750e-02 -2.14199275e-02 4.87998016e-02 7.02647641e-02
      4.97082621e-02 -2.02170927e-02 2.09272355e-02 -1.43709276e-02
      -6.81671351e-02 -5.68732694e-02 -2.69523961e-03 4.35494296e-02
      -7.78152468e-03 -2.70706099e-02 -5.84116280e-02 7.62993917e-02
      2.23084167e-02 -6.40371293e-02 -3.25147845e-02 7.48368353e-02
      5.42868935e-02 -3.30200233e-03 -3.82848717e-02 -2.07854644e-03
      4.28077392e-02 -5.62211312e-03 -3.74846496e-02 1.16550121e-02
      3.39299478e-02 2.65232809e-02 5.24071185e-03 -2.92069977e-03
      2.02838108e-02 5.39014526e-02 9.28700045e-02 -1.87254436e-02
      -3.44386511e-02 -1.46764461e-02 3.75805236e-02 4.81159650e-02
      1.19608957e-02 9.19645187e-03 -1.84238516e-02 -3.37707326e-02
      -4.43467125e-02 1.32623315e-02 2.82956590e-03 1.44011686e-02
      -6.34350628e-03 1.86789688e-02 1.10384384e-02 2.56647374e-02
      6.80334913e-03 1.12379910e-02 1.19036613e-02 -1.18991528e-02
      4.10523871e-03 -4.81620394e-02 1.05031841e-02 -5.85172027e-02
      -1.25515340e-02 1.49354823e-02 -2.52902098e-02 1.14713423e-02
      2.54492480e-02 1.51720457e-02 1.73172858e-02 7.84107670e-03
      2.91486108e-03 8.91222712e-03 2.65397746e-02 2.25980580e-02
      1.10774888e-02 -1.08637009e-02 -2.29921490e-02 -2.17076000e-02
      -7.71014066e-03 -2.20845640e-03 5.43813594e-03 1.25810644e-02
      4.28389013e-02 -1.34189334e-02 -3.21635641e-02 -4.26716730e-02
      -2.57944018e-02 1.76281314e-02 9.57882497e-03 2.62490963e-03
      1.56388967e-04 2.00888533e-02 -4.79209200e-02 -1.71568580e-02
      -3.19035985e-02 -1.13955960e-02 -5.49054239e-03 1.16670234e-02
      1.38724986e-02 -2.73742597e-03 -3.08651384e-02 -2.56008725e-03
      3.42422351e-03 1.79020260e-02 3.28650698e-02 1.03185314e-03
      1.15110120e-03 8.57641455e-03 4.22275206e-03 4.49516578e-03
      -1.15728220e-02 1.55507261e-03 1.52205043e-02 8.21508188e-03
      8.42334796e-03 -1.41399633e-02 -1.23496237e-03 -9.56316758e-03
      -1.92794017e-02 -5.56823146e-03 1.26613881e-02 1.32575650e-02
      3.13491235e-03 -1.94514673e-02 -3.33236344e-02 3.13241184e-02
      6.94665732e-03 -6.15162291e-02 -1.92277543e-02 -1.36214877e-02
      3.76604218e-03 2.23610196e-02 4.23509553e-02 2.70377789e-02
      5.18128611e-02 1.96455717e-02 -7.08800778e-02 1.10447258e-02
      3.43502725e-05 1.00286286e-02 1.86182000e-02 3.89967859e-02
      -6.76085427e-03 1.63343200e-03 -7.81673938e-03 1.77984091e-03
      -3.56524140e-02 -1.15290713e-02 9.11208428e-03 -4.02255170e-02
      -1.60035230e-02 -2.78082807e-02 4.48633768e-02 1.66202113e-02
      -3.79162543e-02 -7.30755553e-02 2.23131590e-02 3.42306867e-02
      1.30723906e-03 -3.66642512e-02 -2.31370069e-02 1.31963994e-02
      -3.47756445e-02 -9.48431790e-02 -1.15014752e-02 1.54749835e-02
      5.21102324e-02 5.99320196e-02 5.81472665e-02 9.71296895e-03
      3.13323587e-02 5.51192388e-02 -2.46248282e-02 1.28081096e-02
      -3.29689006e-03 8.84341914e-03 2.08521001e-02 5.40391989e-02
      2.36843079e-02 -2.76665669e-03 -2.24106293e-02 -6.30224943e-02
      -6.59042457e-03 -1.58049911e-02 -5.13003301e-03 -2.39763521e-02
      -5.93378115e-03 2.18534842e-03 9.39976051e-03 -1.88451691e-03
      -7.44887860e-03 -5.18137403e-02 -3.66784967e-02 -2.46363319e-02
      -3.93237211e-02 7.35817524e-03 -6.65647388e-02 -2.71499623e-02
      -1.08724115e-02 -7.49180391e-02 -1.59678161e-02 2.41960753e-02
      2.82520857e-02 -1.47217349e-03 -5.83812827e-04 -4.57087904e-03
      1.79375969e-02 -1.19698802e-02 -4.08098893e-03 4.62330133e-02
      1.61236171e-02 -2.34307870e-02 -4.23006453e-02 -3.11542582e-02
      -5.25862398e-03 1.91329233e-02 -3.16326581e-02 -6.76176399e-02
      -2.21010111e-02 -9.65823978e-03 -1.07287755e-02 -9.79059096e-03
      3.74310970e-04 1.65950414e-03 2.30442864e-04 -3.62524064e-03
      -1.47904484e-02 -4.63399775e-02 -1.73460823e-02 -4.38786484e-03
      1.37945805e-02 7.82421033e-04 1.30629083e-02 2.02149935e-02
      -8.87273531e-03 -5.18953688e-02 2.57374067e-02 7.65735167e-04
      4.15482596e-02 4.87288795e-02 -1.82030275e-02 9.05132573e-03
      1.61420312e-02 -1.00848209e-02 -1.41379321e-02 7.58671537e-02
      -3.16152675e-03 4.60592136e-02 1.87771861e-02 -2.11947560e-02
      2.09702756e-02 2.45460332e-03 -1.72814298e-02 4.63951007e-03
      -3.57023301e-03 1.86786565e-04 4.74458968e-04 -1.66623353e-03
      -1.14592453e-02 -1.20547004e-02 1.06385080e-02 4.19259770e-03
      -1.99841652e-02 -2.40037646e-02 -1.52308531e-02 1.18043751e-03
      2.13675778e-02 3.53137106e-02 1.59384478e-02 3.35567370e-02
      1.35947755e-02 -4.65451814e-02 3.99702415e-03 -1.15188491e-02
      1.30178211e-02 3.04969065e-02 2.54822467e-02 -2.39657219e-02
      -5.44583332e-03 -2.18752138e-02 -1.05618630e-02 5.93425590e-04
      -1.99897913e-03 4.51154634e-03 1.75744877e-03 -7.46769905e-02
      -1.74284596e-02 4.85615153e-03 -1.32738287e-02 -7.04251137e-03
      -4.49003726e-02 2.13208748e-03 3.75323067e-03 -2.67102546e-03
      -1.51272640e-02 -2.31492966e-02 -1.78335793e-03 -1.12258960e-02
      -6.55119941e-02 -3.53101492e-02 -1.49908634e-02 1.92744564e-02
      4.91627678e-02 6.16060309e-02 2.82040685e-02 2.23585460e-02
      2.65234746e-02 -5.85728139e-02 -5.98460324e-02 -1.98529828e-02
      3.17069795e-03 4.07448113e-02 3.75091732e-02 -2.06267391e-03
      -2.47826166e-02 -9.02836248e-02 -8.48516449e-02 3.87393720e-02
      1.02941552e-02 4.54112589e-02 3.19211818e-02 -1.19266681e-01
      -1.68133155e-01 -3.12193055e-02 -6.60318434e-02 -7.41533237e-03
      -4.79400977e-02 -1.73133165e-02 -1.87560134e-02 -7.86311366e-03
      1.90644932e-03 -1.64109915e-02 -9.56954062e-03 7.93760270e-03
      -4.41038869e-02 -1.52062364e-02 -1.42547339e-02 1.76542811e-03
      -1.70787089e-02 7.67339254e-03 9.21513326e-03 2.00805347e-02
      -4.64206673e-02 -2.40316875e-02 -4.77599502e-02 -2.79716831e-02
      -7.16689900e-02 -6.50650933e-02 -4.60565276e-02 -2.52065342e-02
      1.83656812e-02 -8.14472884e-02 -8.22874829e-02 2.74806563e-02
      3.74616496e-02 5.10724634e-03 2.42364564e-04 -6.72245547e-02
      -9.75060314e-02 -3.39404196e-02 -3.47358733e-02 -4.53201570e-02
      -2.99365036e-02 -9.19266604e-03 3.23286047e-04 6.20515086e-03
      1.33100862e-03 1.92366019e-02 2.05709208e-02 -1.98914739e-03
      -3.05539817e-02 6.02178834e-03 -2.22508027e-03 2.12106351e-02
      1.63636282e-02 -2.89976243e-02 1.35605736e-02 1.36653120e-02
      -1.38182426e-02 -1.88005231e-02 4.03173044e-02 -5.70251681e-02
      2.31179595e-02 1.76047981e-02 4.13847185e-04 3.79389115e-02
      -3.02489940e-03 -3.34806517e-02 -3.27791870e-02 2.90591158e-02
      6.76363558e-02 9.27941967e-03 -1.39483204e-02 -1.94935978e-03
      -8.26914888e-03 2.29634671e-03 6.93496922e-03 -6.34129904e-03
      -6.92554936e-03 -3.39481886e-03 6.13254774e-03 2.13440042e-02
      2.34431569e-02 6.36781426e-03 1.27342166e-02 6.17104582e-03
      -1.27581684e-02 6.93954621e-03 -6.33680169e-03 2.75537036e-02
      3.30546983e-02 8.71212408e-03 -2.30147503e-02 -6.76974980e-03
      -2.14613918e-02 -9.89869330e-03 3.70313908e-04 -2.11964990e-03
      9.16894153e-03 8.44160281e-03 -1.48741737e-01 -2.36654226e-02
      7.67421722e-03 -1.97435990e-02 -1.13625098e-02 -3.30811553e-03
      -1.41355942e-03 9.04289261e-03 2.22800206e-02 1.35835707e-02
      1.84765141e-02 7.09869480e-03 -1.34304783e-03 -3.74181080e-03
      -3.45294550e-03 -7.76703423e-03 1.23447422e-02 2.74582338e-02
      4.50755283e-02 5.07158600e-02 3.55300009e-02 3.28765437e-02
      -3.36405486e-02 -5.18971123e-02 -1.54991271e-02 1.06312486e-03
      3.29356231e-02 1.29500683e-02 1.22868940e-02 -1.35641266e-02
      -8.83217454e-02 -8.83308277e-02 5.41317724e-02 1.90942530e-02
      6.48654699e-02 2.69075315e-02 -6.37801066e-02 -1.14784673e-01
      -7.96541646e-02 -1.06563620e-01 -1.40233021e-02 -8.02343618e-03
      6.56653941e-03 7.81906396e-02 6.14510253e-02 2.20937617e-02
      -1.30542861e-02 -2.40282807e-03 -4.30716155e-03 -8.66547786e-03
      -6.74901856e-03 -1.41272293e-02 -5.42454561e-03 -1.17270844e-02
      2.25063488e-02 6.25190288e-02 2.18821447e-02 -2.50991620e-02
      -4.14027087e-02 -4.85361293e-02 -5.66795655e-02 -9.88526866e-02
      -5.86366653e-02 -4.11036126e-02 -1.65525712e-02 2.79849712e-02
      -6.48156479e-02 -1.27850518e-01 1.11353779e-02 -7.72417895e-03
      -5.06048538e-02 -2.35486384e-02 -9.10002217e-02 -1.13336161e-01
      -7.28482231e-02 -6.05587736e-02 -6.40143380e-02 -9.89393797e-03
      3.94211411e-02 6.93195239e-02 5.24854772e-02 -2.57512443e-02
      -7.04641789e-02 1.60303898e-03 1.37930354e-02 -7.33947032e-04
      5.06755523e-03 -1.32894637e-02 4.69025876e-03 6.45187171e-03
      -1.11113302e-02 1.39608439e-02 8.03444814e-03 -5.35987411e-03
      -3.12345382e-03 3.00859232e-02 -5.28864712e-02 -2.22874759e-03
      3.75684798e-02 3.80231887e-02 5.34685589e-02 -5.26840849e-05
      -2.69275010e-02 -3.84937935e-02 1.72710195e-02 1.57438759e-02
      -1.95131432e-02 -3.49292792e-02 -1.30833089e-02 -2.37469822e-02
      1.27146915e-02 2.06644442e-02 -1.13662204e-03 9.36000329e-03
      7.03419596e-02 -1.68330604e-04 -1.89266913e-02 -2.41469759e-02
      -1.35215395e-03 2.55919378e-02 2.38441471e-02 9.61767044e-03
      6.31936360e-03 -5.26439049e-04 1.90532152e-02 1.61220878e-02
      -1.48944985e-02 -1.48176597e-02 -5.48253069e-03 -1.17575414e-02
      -5.36913564e-03 -1.01165776e-03 -1.34317856e-03 8.64082575e-03
      1.40875196e-02 -1.26649246e-01 -2.22771950e-02 6.37670793e-03
      -1.55424541e-02 -1.08743142e-02 -9.78752412e-03 -3.74767557e-03
      2.76535917e-02 8.12897831e-02 3.04750726e-02 3.00188586e-02
      8.92628450e-03 -5.56741655e-03 -1.01844976e-02 -3.89230577e-03
      -5.31290611e-03 1.13298912e-02 1.44551368e-02 1.87558320e-03
      -2.25730182e-04 3.37261066e-04 -1.48855848e-04 2.02046795e-04
      7.72213889e-03 -3.88911716e-03 -1.49226771e-03 4.38114442e-03
      2.32982952e-02 1.39024826e-02 -5.59015293e-03 -5.22673316e-02
      -6.08823672e-02 3.51132303e-02 1.84535682e-02 6.74586594e-02
      1.78902037e-02 -8.17557350e-02 -1.07802220e-01 -8.43320563e-02
      -1.00160442e-01 -2.01305952e-02 -2.25951280e-02 2.90612830e-03
      8.72036144e-02 8.99071395e-02 8.04883838e-02 -1.80791169e-02
      -2.12180857e-02 -2.48693638e-02 -2.38878857e-02 -3.14666214e-03
      -4.76386660e-04 2.83570085e-02 -1.92316510e-02 3.22935195e-03
      -7.93753006e-03 -2.01700861e-03 -3.36412876e-03 4.45028360e-04
      -6.08607568e-03 -4.75276746e-02 -7.63727501e-02 -3.89586389e-02
      1.02162817e-02 6.07478246e-02 1.25657273e-02 -2.93245334e-02
      -8.47530365e-02 -1.60535034e-02 -2.33109873e-02 -4.15007249e-02
      -1.18801203e-02 -1.26863793e-01 -1.23156771e-01 -5.87088168e-02
      -6.05454855e-02 -5.19797727e-02 -3.09484657e-02 3.33856940e-02
      2.93890536e-02 2.06365511e-02 1.53642716e-02 -1.20833315e-01
      -1.11079672e-02 1.36788050e-02 -1.88992713e-02 4.39706892e-02
      5.86195663e-02 3.19448411e-02 -1.06706657e-02 -5.87267894e-03
      -7.58235250e-03 -1.52072939e-03 -1.32579170e-03 -8.30793288e-03
      4.30172682e-03 -3.94039080e-02 -2.17880048e-02 1.98646840e-02
      3.07447687e-02 3.05217896e-02 8.41592439e-04 -1.11427102e-02
      -1.64316129e-02 -9.56977077e-04 2.14329287e-02 -4.93079834e-02
      -3.57157737e-02 -2.69434471e-02 -4.01218571e-02 1.55282142e-02
      2.49239411e-02 9.35108960e-03 6.30956143e-04 9.38491747e-02
      -3.94992577e-03 -2.77102757e-02 -4.28408533e-02 5.86001668e-03
      2.65849270e-02 4.08459753e-02 6.47442229e-03 5.10734022e-02
      8.60495865e-02 3.77421714e-02 9.79373604e-03 -3.64622776e-03
      6.85044006e-03 6.05510268e-03 3.93887796e-03 -1.02529805e-02
      -3.66785377e-02 -1.62176341e-02 1.34710781e-02 5.40968664e-02
      1.58376135e-02 -1.33009860e-02 -2.45978637e-03 -1.58016570e-02
      -4.69632037e-02 -2.42686849e-02 -7.87732936e-03 1.13872727e-02
      -2.07674745e-02 -2.07245462e-02 -3.09257805e-02 4.67040837e-02
      3.64515483e-02 -3.27483527e-02 -5.58788404e-02 2.21252162e-02
      3.96517180e-02 6.98349625e-03 -7.84300081e-03 -3.41602489e-02
      1.81657039e-02 1.26119489e-02 -6.10476658e-02 -2.74269246e-02
      8.93095229e-03 1.08054429e-02 1.39675979e-02 2.19058990e-02
      1.54705821e-02 1.89232081e-02 2.18772981e-02 -4.74172160e-02
      -3.90390754e-02 -3.46512906e-02 -6.84319809e-03 -2.88875483e-04
      -2.94812936e-02 8.42715893e-03 -1.56978201e-02 -2.67484263e-02
      -4.81203198e-02 -1.46539882e-02 -2.71425657e-02 -5.08719604e-05
      -2.36137398e-02 -2.85139382e-02 2.46674065e-02 1.00026540e-02
      -3.36256670e-03 1.18468022e-02 -2.17694137e-02 -4.52388860e-02
      -3.16050951e-04 -2.46272366e-02 2.06229184e-02 -3.63715701e-02
      -5.91312302e-03 1.70186604e-03 -2.40418911e-02 -2.82284040e-02
      3.31692211e-03 9.87067074e-03 2.35609747e-02 2.97941118e-02
      1.59651302e-02 6.06993446e-03 2.07148902e-02 -9.80681367e-03
      -6.81574875e-03 -3.01110297e-02 -4.94679436e-02 -4.69875261e-02
      -2.43925862e-02 -6.89877383e-03 1.39505155e-02 1.71616289e-03
      5.32505587e-02 -1.73345245e-02 -5.50848357e-02 -4.38055582e-02
      -2.09672060e-02 2.95098312e-02 2.71319859e-02 1.07059600e-02
      1.15200486e-02 7.27918074e-02 -3.71090919e-02 -1.01501895e-02
      1.37843739e-03 1.99100506e-02 -1.17171565e-02 1.01153282e-02
      1.49403354e-02 -1.72008015e-02 1.22377314e-04 2.87066959e-03
      -4.93827788e-03 1.72007624e-02 6.31444529e-02 1.30915083e-02
      2.04837956e-02 2.00092942e-02 6.32249285e-03 9.70572699e-03
      -2.30847076e-02 3.40753561e-03 2.07860917e-02 1.09195672e-02
      -9.90498159e-03 -2.52065761e-03 4.28963685e-03 2.77873361e-03
      3.37731130e-02 2.94528212e-02 4.25567776e-02 5.37318736e-03
      2.62745330e-03 2.20734254e-02 5.79237193e-03 5.69607830e-03
      2.31668409e-02 6.53506666e-02 8.94022137e-02 -2.09519006e-02
      -3.28724310e-02 -2.17215680e-02 -1.64087093e-03 1.34225804e-02
      2.50712875e-03 -2.04882398e-02 6.13500997e-02 5.08317836e-02
      6.07188651e-03 5.80441020e-03 2.04257164e-02 2.51253881e-02
      1.96917783e-02 1.00279022e-02 2.42545512e-02 6.08967058e-02
      -1.57309305e-02 -7.28706503e-03 -1.98382838e-03 -1.85788795e-02
      -8.89454503e-03 -1.11841317e-02 1.77098513e-02 8.76719691e-03
      -1.74381137e-02 -7.04513192e-02 -1.42375892e-03 4.02171025e-03
      -7.33980024e-03 -1.52764302e-02 -3.45272049e-02 -5.75749157e-03
      -6.92107016e-03 -7.81387538e-02 -5.02815135e-02 6.11987081e-04
      1.09159797e-02 1.05506470e-02 1.70830209e-02 2.17179675e-02
      2.08332296e-02 1.93177536e-02 -8.74384940e-02 8.42581410e-03
      -7.62733538e-03 1.82333100e-03 9.10375547e-03 3.03602088e-02
      3.11615057e-02 4.42656735e-03 -4.91246162e-03 -3.29659544e-02
      -1.94180124e-02 -2.45794505e-02 -1.38391843e-02 -2.47031804e-02
      -1.38168978e-02 6.90605678e-03 -4.78425482e-03 -1.08706933e-02
      -1.43606151e-02 -8.32124203e-02 -6.77552372e-02 -4.44613583e-02
      -3.71932313e-02 -6.60184957e-03 -6.00521825e-02 -3.29376012e-02
      -2.26148218e-02 -8.08247626e-02 -2.74060816e-02 -2.99978666e-02
      -1.33406017e-02 -6.15929719e-03 -1.75602492e-02 2.40896852e-03
      1.15307197e-02 -2.87997015e-02 -3.88125107e-02 3.67826857e-02
      -3.71916629e-02 -4.35173027e-02 -3.63264829e-02 -2.68514901e-02
      -1.22101828e-02 2.30860673e-02 -4.99661751e-02 -7.49447495e-02
      -4.66043279e-02 -3.26625258e-02 -3.09104770e-02 -2.18535699e-02
      2.17623520e-03 -3.53794824e-03 -6.52133254e-03 -1.09282918e-02
      -2.03491226e-02 -5.55878170e-02 -3.56872082e-02 -2.91328784e-02
      -7.05320528e-03 -2.09348593e-02 -1.64743804e-03 4.61706379e-03
      -3.45277004e-02 -1.92256551e-02 2.70482618e-03 -7.75824860e-02
      4.30803522e-02 6.40611649e-02 -4.29438949e-02 1.79304052e-02
      2.16727965e-02 -1.36400517e-02 -4.13003862e-02 5.62049188e-02
      -7.14346915e-02 2.92196982e-02 1.48053616e-02 1.62665658e-02
      3.48127522e-02 1.14582770e-03 -2.45297737e-02 -4.58140112e-03
      6.25292491e-03 1.03878241e-03 -8.31473805e-03 -8.37130938e-03
      1.93967542e-03 7.21840654e-04 1.76975209e-06 1.27288501e-03
      3.31878550e-02 4.82841395e-02 1.03104981e-02 -4.91582826e-02
      -1.70053970e-02 -4.93304664e-03 1.65711455e-02 4.20659408e-03
      -2.12183502e-02 4.55486439e-02 3.44731212e-02 -5.48500791e-02
      -1.11496858e-02 3.15627120e-02 2.94332262e-02 3.58869284e-02
      6.03237655e-03 4.59250808e-02 4.01699059e-02 1.98832210e-02
      -3.15268734e-03 -1.89087901e-03 1.54092843e-02 3.65341380e-02
      4.15358767e-02 4.09462908e-03 2.10781284e-02 1.40152788e-02
      -2.28515621e-02 -2.77326471e-04 5.37629006e-04 -3.94355884e-04
      -4.13833186e-03 -1.47039434e-02 -4.65428829e-03 -3.02292942e-03
      -2.66890209e-02 -2.28673909e-02 -3.77901318e-03 7.26363156e-03
      7.02258572e-03 1.21443942e-02 1.77150127e-02 2.17089336e-02
      1.66181009e-02 -5.29470742e-02 1.69197954e-02 -1.19518330e-02
      -2.63750693e-03 4.36119549e-03 3.28835435e-02 3.26365530e-02
      1.89343526e-04 -1.78081580e-02 -5.72889671e-02 1.17456205e-02
      2.17148568e-03 9.03840642e-03 -4.85531660e-03 -5.01324274e-02
      -7.32853562e-02 -1.48297437e-02 -2.64229346e-02 -6.51675556e-03
      -3.80226225e-02 -2.30847411e-02 -2.32451204e-02 -7.01240078e-03
      -8.77997372e-04 -6.48986781e-03 -7.90741481e-03 8.39746092e-03
      -3.30170207e-02 -2.01873779e-02 -4.00808603e-02 -1.81040894e-02
      -1.83576625e-02 -9.63633414e-03 1.97555963e-02 1.33609185e-02
      -4.74391803e-02 -3.49815562e-02 -4.71079461e-02 -8.84978920e-02
      -1.11797065e-01 -6.63194656e-02 -6.65871054e-02 -5.49381785e-02
      1.48968622e-02 -8.69522840e-02 -1.16528362e-01 1.28560113e-02
      -1.33406091e-02 -3.92874032e-02 -3.92838307e-02 -5.37242256e-02
      -7.34191835e-02 -2.82518119e-02 -2.83217244e-02 -2.99935471e-02
      -4.08796221e-02 -2.65460461e-02 -1.17153348e-02 2.13999487e-03
      -4.27950546e-03 1.50853489e-02 1.63136851e-02 -1.07180690e-02
      -3.08360718e-02 2.86830962e-02 -9.25829560e-02 3.02028023e-02
      2.80040577e-02 -5.97969517e-02 2.46085860e-02 2.13584863e-02
      -2.74555339e-03 -9.45781078e-03 1.86658129e-02 -7.15673044e-02
      2.55326815e-02 -2.61660181e-02 -3.18945129e-03 2.04001032e-02
      -9.29723494e-03 -4.57060374e-02 -3.67607214e-02 2.24307855e-03
      1.79638769e-02 -3.78803909e-02 -5.30350693e-02 -1.89072045e-03
      -2.98957038e-03 4.28352784e-03 2.84045772e-03 -2.54606381e-02
      1.71992779e-02 7.05087371e-03 -1.52129745e-02 -2.65037105e-03
      -4.33545101e-05 1.25611350e-02 7.57114729e-03 -6.43732725e-03
      2.41398755e-02 3.20276106e-03 -2.98155956e-02 -1.81064941e-02
      2.73453202e-02 2.62534562e-02 3.71790305e-02 6.72418950e-03
      5.10178804e-02 4.31248099e-02 2.10708175e-02 -2.30212472e-02
      -3.78608704e-02 -3.71021475e-03 4.41013165e-02 6.32657185e-02
      1.66919697e-02 2.99843810e-02 1.83196925e-02 1.16349086e-02
      5.72698237e-03 -3.90092954e-02 -3.18181701e-02 1.09300381e-02
      1.36331515e-02 1.16987983e-02 1.30153755e-02 7.24859117e-03
      -9.93071240e-04 -1.91714766e-03 4.74619679e-03 7.13506248e-03
      1.50417415e-02 1.95427779e-02 1.49720442e-02 9.98200383e-03
      -1.36092314e-02 2.18938310e-02 -6.49425853e-03 -1.16417056e-03
      3.80804553e-03 2.98200063e-02 2.89905202e-02 2.37752101e-03
      -2.03626212e-02 -4.49401475e-02 1.87729336e-02 6.44938089e-03
      2.27821246e-02 -8.19097646e-03 -1.02950297e-01 -1.61602110e-01
      -2.94865426e-02 -4.31492999e-02 -7.74406781e-03 -3.30178021e-03
      1.77126937e-03 2.39847936e-02 1.65753327e-02 8.22463073e-03
      -1.17761055e-02 -3.60397599e-03 -3.05241928e-03 -3.23715829e-03
      1.04288850e-02 -1.62827726e-02 -7.55624333e-03 -1.08060855e-02
      5.58943069e-03 5.02756387e-02 1.86318140e-02 -2.39893533e-02
      -1.45631609e-02 -3.59840803e-02 -7.93349668e-02 -1.19612046e-01
      -5.18775769e-02 -2.01239884e-02 -1.77638084e-02 1.83895919e-02
      -6.57414496e-02 -1.10425211e-01 1.49779562e-02 -1.40513666e-02
      -5.11142053e-02 -2.84037720e-02 -5.70344850e-02 -1.19427867e-01
      -5.25106080e-02 -3.89516689e-02 -3.00474577e-02 -1.52582843e-02
      2.60059293e-02 5.54697104e-02 4.48619686e-02 -2.40144748e-02
      -5.06937616e-02 6.42638188e-03 1.45743657e-02 -3.53465648e-03
      1.44197904e-02 -5.08044623e-02 8.59317929e-03 1.76474843e-02
      -2.31986940e-02 2.19278894e-02 1.13847042e-02 2.82452279e-03
      1.01391347e-02 2.91529428e-02 -3.92544530e-02 3.59512493e-02
      9.60574835e-04 2.64662169e-02 4.83087152e-02 -3.37827741e-03
      -3.72266173e-02 -3.32437716e-02 8.57057795e-03 -8.03039037e-03
      -6.02978803e-02 -7.62306228e-02 -5.90600632e-03 -7.09723448e-03
      1.90543309e-02 1.85799841e-02 -1.19270813e-02 1.81128308e-02
      6.17264584e-02 -3.17790247e-02 -5.17004430e-02 -3.14860418e-02
      1.12650525e-02 2.56684199e-02 3.49290073e-02 8.94480664e-03
      9.53955750e-04 -7.67363422e-03 -6.81347866e-03 1.47826076e-02
      2.10057627e-02 2.74296477e-02 2.07730941e-03 2.56242044e-02
      1.73883345e-02 1.29624717e-02 -3.21569890e-02 -4.46921885e-02
      -1.44798793e-02 4.80936468e-02 7.01921731e-02 2.72502415e-02
      1.77496579e-02 1.39067601e-02 3.68880332e-02 2.11237408e-02
      -9.97357965e-02 -6.63101599e-02 2.24436205e-02 2.61504296e-02
      2.76791751e-02 3.68795879e-02 2.14546099e-02 1.26392646e-02
      1.30713545e-02 -1.25701241e-02 -2.46827789e-02 9.30285198e-04
      1.04883667e-02 2.27251872e-02 1.94721576e-02 1.01776458e-02
      1.62841361e-02 -1.24675978e-03 -5.42741735e-04 -2.37443298e-03
      6.24851137e-03 5.94685832e-03 -6.09533978e-04 -1.09175593e-02
      -1.32377390e-02 8.98355059e-03 6.24588225e-03 2.29551140e-02
      -1.26696061e-02 -1.03950880e-01 -1.66441664e-01 -3.25154923e-02
      -3.71925496e-02 -9.88147594e-03 -9.75394808e-03 4.66821832e-04
      5.23049012e-02 5.33364415e-02 3.63436267e-02 -1.73190851e-02
      -1.11958394e-02 -1.15604522e-02 -8.26506782e-03 -8.49491742e-04
      4.14474256e-04 9.27484967e-03 -7.34529691e-03 -2.98006471e-05
      -3.36083723e-03 -1.68486149e-03 -1.76262273e-03 4.64108394e-04
      1.89271457e-02 -5.13302609e-02 -7.54394978e-02 -3.40815745e-02
      8.58579203e-03 5.57573065e-02 7.56367296e-03 -2.69410908e-02
      -5.47539070e-02 -5.85847069e-03 -1.82718970e-02 -3.00454907e-02
      -3.57146957e-03 -8.91893581e-02 -1.23116419e-01 -5.59864193e-02
      -2.90282257e-02 -1.83329862e-02 -3.99865285e-02 2.93771848e-02
      4.57748696e-02 1.44593939e-02 5.17318957e-03 -7.01167583e-02
      7.60474103e-03 1.80184003e-02 -2.33977996e-02 3.89436409e-02
      5.80082051e-02 2.57503074e-02 -1.18273927e-03 -1.27133634e-03
      -2.23373738e-03 8.23498704e-04 -1.53514862e-04 -1.75351035e-02
      7.58527126e-03 -6.59690872e-02 -3.00032236e-02 2.20878534e-02
      4.62082699e-02 4.74437475e-02 -4.74306144e-05 -1.80895757e-02
      -2.47296300e-02 -7.06201745e-03 3.33628617e-03 -4.08372432e-02
      -7.70595223e-02 -3.20615843e-02 -2.37224139e-02 3.31349634e-02
      3.99531163e-02 5.49328374e-03 -1.55925751e-02 6.16243295e-02
      -5.68309948e-02 -7.84614831e-02 -4.40873355e-02 1.33307017e-02
      3.02899741e-02 5.44934198e-02 -2.09561456e-03 4.35080342e-02
      1.18672170e-01 6.40156195e-02 1.67277288e-02 -6.56765373e-03
      9.18202475e-03 1.25959283e-02 8.39494355e-03 -1.63318589e-02
      3.07855220e-03 -1.59219764e-02 -2.87741497e-02 -1.64842661e-02
      2.03338396e-02 3.13825421e-02 1.30653353e-02 2.00851890e-03
      3.44180875e-03 4.46357653e-02 2.08631754e-02 -1.08264700e-01
      -8.25091451e-02 2.08626706e-02 1.92001574e-02 2.50482541e-02
      3.91470678e-02 2.43412890e-02 1.88376792e-02 3.19650285e-02
      -6.65314170e-03 -4.18117493e-02 -2.02538166e-03 1.87640153e-02
      3.40694338e-02 3.17745619e-02 1.08338557e-02 2.20944197e-03
      1.49442712e-02 1.46189407e-02 2.78100232e-03 -7.07006897e-04
      5.03233448e-03 5.52809797e-03 5.20703150e-03 4.57173155e-04
      -1.39958262e-02 -2.35438272e-02 -4.39478308e-02 -4.08069305e-02
      -3.71794142e-02 -2.65841209e-03 -8.52023717e-03 -1.60521325e-02
      -2.62428001e-02 4.54898132e-03 -1.25386622e-02 -7.39037525e-03
      -2.79093925e-02 -4.15403210e-02 5.80770569e-03 -1.69790182e-02
      -2.36130469e-02 -2.98643555e-03 -3.55439149e-02 -2.26827916e-02
      -1.28945671e-02 -3.90035613e-03 6.13818644e-03 -6.50216034e-03
      -1.24982111e-02 1.20902862e-02 -3.04853264e-02 -2.18781792e-02
      -4.57741180e-03 3.10037844e-03 1.17242234e-02 1.26005802e-02
      -3.88829707e-04 -5.09001606e-04 4.89341328e-04 -1.36486152e-02
      -3.45525257e-02 -3.80500108e-02 -4.27430645e-02 -4.43921685e-02
      -3.80884260e-02 -1.97949093e-02 7.55213853e-03 -2.62520388e-02
      5.25366608e-03 -4.83271256e-02 -6.45168722e-02 -5.45244962e-02
      -4.56374064e-02 3.17671639e-03 1.88970324e-02 6.42318372e-03
      -6.69743679e-03 3.78129818e-02 -2.92077828e-02 -1.80287510e-02
      -6.57251198e-03 3.49770789e-03 -6.64135115e-03 7.60901440e-03
      1.07082659e-02 -3.42431962e-02 -2.93450523e-03 -1.63724441e-02
      -2.74846144e-02 5.55389933e-03 4.78305966e-02 8.78941175e-03
      2.92971656e-02 1.89617183e-02 -4.56665596e-03 -1.32664721e-02
      -6.94495291e-02 1.92302857e-02 4.32313196e-02 8.35314207e-03
      -2.38740016e-02 -4.46978165e-03 1.25021245e-02 -3.56908276e-04
      2.77553890e-02 3.91170681e-02 3.44911702e-02 1.95308272e-02
      1.92813892e-02 7.55521376e-03 1.16418973e-02 2.27671359e-02
      2.56135985e-02 5.34829460e-02 8.91132429e-02 -4.26392667e-02
      -2.02423916e-03 -2.51800697e-02 1.07317548e-02 3.53336409e-02
      3.11854854e-02 -1.34884184e-02 3.04098781e-02 2.93339882e-02
      -3.29150669e-02 -2.09306437e-03 4.26419675e-02 3.25145237e-02
      4.42911796e-02 1.47868032e-02 3.38207148e-02 6.14377968e-02
      -3.50873098e-02 3.28680575e-02 3.00378911e-02 1.12320194e-02
      3.46739986e-03 -4.15839767e-03 -1.38577411e-03 -3.23482906e-03
      -1.10871363e-02 -2.82439590e-02 2.46565845e-02 1.95262097e-02
      -2.35815644e-02 -6.23733317e-03 1.33671444e-02 -5.18119312e-04
      6.97623845e-03 4.75598313e-03 -1.19173881e-02 8.45247135e-03
      2.86079999e-02 4.66938466e-02 4.15677913e-02 1.76083222e-02
      -2.39980649e-02 1.03490213e-02 3.17011774e-03 -8.78588110e-03
      5.23356013e-02 1.85203888e-02 1.26109999e-02 2.02060230e-02
      2.90085115e-02 1.37614328e-02 1.77706350e-02 -4.28745430e-03
      -1.08750435e-02 -1.03861559e-02 -5.92369400e-03 -8.66132695e-03
      -7.27899233e-03 8.03449249e-04 -6.75461628e-03 -7.72485649e-03
      -8.12526699e-03 -3.78999487e-02 -3.11630704e-02 -2.99571361e-02
      -1.19326431e-02 -5.07867942e-03 -9.11974907e-03 -1.07730376e-02
      6.67515257e-03 -3.47681791e-02 -2.93233339e-02 -2.60963142e-02
      -1.03936577e-02 -2.76863831e-03 -3.13251279e-03 5.99473622e-03
      -1.83847122e-04 -1.96278654e-02 -2.48681810e-02 1.92556437e-02
      -2.44284775e-02 -1.93322543e-02 -9.14469454e-03 -1.68434717e-02
      3.86435054e-02 9.51528642e-03 -2.32336633e-02 -2.66432986e-02
      -3.86997499e-02 -3.17387246e-02 -2.62531750e-02 -1.71727799e-02
      5.80542162e-03 -5.88040566e-03 -8.81898496e-03 -1.02218892e-02
      -1.39852157e-02 -3.05790417e-02 -5.79358824e-02 -3.27304937e-02
      -1.40792206e-02 -2.27451697e-02 -2.36448389e-03 -6.42842089e-04
      -3.67679410e-02 8.06592929e-04 -1.98701699e-03 -1.24185525e-01
      2.37943288e-02 5.39218709e-02 -1.93122812e-02 1.89882275e-02
      1.57415960e-02 -2.32541744e-04 -2.51287725e-02 1.41449077e-02
      -1.05530560e-01 -2.18792669e-02 6.69421162e-03 1.82986967e-02
      2.29289625e-02 -6.19804580e-03 -1.05101755e-02 -7.40318885e-03
      -9.53895971e-03 -9.43335332e-03 -2.50145476e-02 -1.87682677e-02
      2.71632522e-03 2.42619799e-03 2.73565482e-03 5.27683226e-03
      5.50722964e-02 4.89964075e-02 -7.15723187e-02 -6.18016869e-02
      -3.47876884e-02 -2.16003784e-04 2.26898901e-02 9.70763154e-03
      -2.38024741e-02 7.15238880e-03 2.73673013e-02 -8.30620378e-02
      4.87217028e-03 4.13094088e-02 3.15847099e-02 3.31052989e-02
      -2.69730557e-02 6.57054186e-02 -8.49366654e-03 -1.40368193e-03
      -6.06997423e-02 -5.19098938e-02 5.85261639e-03 2.97043882e-02
      3.56802382e-02 -1.05983261e-02 3.27085182e-02 1.19883120e-02
      -2.48110108e-02 -5.24678128e-03 -9.68244486e-03 -1.66589245e-02
      -3.51100904e-03 2.19963584e-03 -5.56111522e-03 1.72296364e-03
      -1.62638130e-03 -3.71625982e-02 -3.63510242e-03 3.17064114e-02
      3.11515629e-02 2.37049013e-02 4.93384991e-03 -2.37029716e-02
      2.68442649e-03 -9.16686095e-03 -2.52708606e-02 3.57810408e-02
      -1.31139997e-02 2.93463143e-03 1.67849120e-02 3.65825482e-02
      2.28413306e-02 2.40823030e-02 -1.36236325e-02 4.82376432e-03
      -4.53142030e-03 -1.26399677e-02 4.61305608e-04 1.30586466e-02
      2.72885375e-02 3.79637349e-03 8.05698056e-03 6.72092289e-03
      -1.28951613e-02 -1.08186994e-02 -1.04306713e-02 -3.15665151e-03
      -1.64973433e-03 -3.01484461e-03 -1.85335334e-03 2.27012951e-03
      -1.16312727e-02 -4.38395236e-03 -2.43587214e-02 -1.27737978e-02
      -9.52084176e-03 -1.10020572e-02 1.00308843e-02 2.18320242e-03
      -2.34404244e-02 -1.37687651e-02 3.95750292e-02 -5.41666113e-02
      -5.35239652e-02 -2.21642628e-02 -8.16008262e-03 3.93211097e-02
      1.71806023e-03 -4.04269062e-02 -4.35204692e-02 2.68978998e-03
      -1.22424727e-02 -2.40126681e-02 -1.78851355e-02 -1.20760864e-02
      -2.01591644e-02 -9.75090731e-03 -9.33849346e-03 -8.69799964e-03
      -2.55058762e-02 -2.63867266e-02 -1.13720763e-02 -1.85328652e-03
      -6.76777773e-03 1.89870186e-02 8.83191172e-03 -1.61877573e-02
      -9.81650036e-03 1.73427048e-03 -1.38618127e-01 8.61028675e-03
      2.34096926e-02 -4.88240495e-02 1.86116192e-02 1.03895711e-02
      2.07388643e-02 -8.86752363e-03 1.94232929e-02 -9.75050703e-02
      -3.60933617e-02 -2.52771974e-02 2.46536802e-03 3.34077701e-02
      -1.32691339e-02 -2.09290255e-02 -2.49212496e-02 -1.09893708e-02
      1.39957797e-02 -5.37219755e-02 -6.47898465e-02 -5.14100539e-03
      3.06325988e-03 3.99138127e-03 -2.17910088e-03 -2.77980939e-02
      1.47779742e-02 -1.13334181e-02 -4.90053855e-02 -7.01720314e-03
      1.37646950e-03 1.48005122e-02 8.33509490e-03 -1.17344186e-02
      4.44810465e-02 1.56267695e-02 -9.89348292e-02 -3.65497954e-02
      3.37029845e-02 5.91890626e-02 4.28670458e-02 -1.59809869e-02
      6.24058172e-02 6.61258679e-03 -6.24383986e-03 -9.59991813e-02
      -6.32049367e-02 -1.44430147e-02 5.19059822e-02 6.82230219e-02
      1.46387424e-02 4.16058898e-02 2.09054332e-02 1.57985855e-02
      -1.00793585e-03 -1.19468994e-01 -6.74050748e-02 2.51898654e-02
      2.59567425e-02 1.59644727e-02 1.50218802e-02 7.72041269e-03
      -2.07891613e-02 -3.72513954e-04 9.10653733e-03 1.07618123e-02
      7.51763815e-03 3.56673729e-03 -4.24514897e-03 8.74999329e-04
      -4.57589282e-03 -1.78999435e-02 3.03805936e-02 -2.67206971e-02
      -2.69204192e-03 1.22752171e-02 2.46652737e-02 2.30026376e-02
      2.19942033e-02 -4.99682967e-03 4.75685950e-03 -1.34683363e-02
      -2.37321127e-02 -1.11745140e-02 2.83280220e-02 3.82347442e-02
      1.56933665e-02 1.55493673e-02 1.21781826e-02 1.17765879e-02
      2.63308361e-02 2.53564790e-02 1.05715711e-02 1.63091142e-02
      1.75464749e-02 8.23665969e-03 4.72571468e-03 1.87185302e-03
      5.73311700e-03 -9.86875221e-03 -5.64967096e-03 -5.84465265e-03
      -5.45315025e-03 1.21624991e-02 3.66445165e-03 -1.20591829e-02
      -2.94453814e-03 3.27129178e-02 -5.65170795e-02 -6.14501461e-02
      -2.00558323e-02 -9.47975367e-03 3.56870368e-02 -1.71866923e-04
      -3.27502303e-02 -3.79732251e-02 -2.23264471e-03 -2.00637411e-02
      -4.12243865e-02 -3.58739980e-02 -3.59986275e-02 -5.92157505e-02
      -1.89944543e-02 -1.17676742e-02 -7.85583816e-03 -7.63483765e-03
      6.87501766e-03 1.02267060e-02 8.98035057e-03 -1.63977165e-02
      -1.84166506e-02 3.22903926e-03 6.57622935e-03 -1.63436262e-03
      1.08302440e-02 -7.06511587e-02 -1.36281978e-02 1.09667061e-02
      -2.03268230e-02 1.22153172e-02 3.76073876e-03 1.28045343e-02
      1.70260426e-02 7.27016525e-03 -7.75607079e-02 -2.42863242e-02
      -2.32874677e-02 1.83037203e-02 4.90646325e-02 -7.05056265e-03
      -2.29507368e-02 -2.25251317e-02 -1.85315460e-02 -1.31941801e-02
      -1.05415441e-01 -1.08103417e-01 -2.84320153e-02 1.88861648e-03
      1.97798163e-02 1.25899184e-02 -3.05164419e-02 1.76005494e-02
      4.90860492e-02 -5.39036766e-02 -7.44250938e-02 -3.08571868e-02
      8.97906255e-03 2.48955097e-02 2.24859547e-02 3.02760163e-03
      -2.47232988e-02 -5.04298024e-02 -4.59305346e-02 1.57342236e-02
      4.30000536e-02 5.39399348e-02 -6.58801640e-04 5.20867482e-02
      2.70047095e-02 -1.05825225e-02 -8.43231529e-02 -6.38025552e-02
      -3.77740264e-02 7.44413435e-02 4.42474037e-02 3.04235108e-02
      2.54987869e-02 1.36900190e-02 5.65516613e-02 2.28753258e-02
      -7.00637400e-02 -6.56865984e-02 4.60158475e-02 4.75928225e-02
      3.21447626e-02 4.22371812e-02 3.20698470e-02 1.43140871e-02
      1.70608945e-02 -3.47985439e-02 -5.14170788e-02 1.35064439e-03
      1.76797006e-02 2.94112861e-02 3.25926282e-02 1.51141798e-02
      -3.32959625e-03 4.22259932e-03 -1.58554781e-02 -1.56092457e-03
      9.55001637e-03 1.28578441e-02 8.05570371e-03 8.77219625e-03
      7.11740053e-04 3.82899947e-04 -1.66618135e-02 -2.30348874e-02
      -1.83529407e-02 3.64559293e-02 4.46011946e-02 1.55177042e-02
      1.14190234e-02 6.34903694e-03 2.63359286e-02 6.40007928e-02
      4.37866971e-02 3.89404446e-02 3.16220187e-02 3.59223932e-02
      1.42914364e-02 1.05629852e-02 8.29055626e-03 1.00791063e-02
      3.55389230e-02 3.83498780e-02 4.58745006e-03 9.89877619e-03
      2.19065379e-02 3.13070160e-03 3.28509067e-03 4.25268104e-03
      8.18905979e-03 -3.65471281e-02 -4.29481491e-02 -1.45161347e-02
      3.94227309e-03 1.85924824e-02 5.41682006e-04 -1.44432019e-02
      -1.96692068e-02 -1.20997718e-02 -2.36462913e-02 -4.30472940e-02
      -2.53899600e-02 -5.25534414e-02 -8.68672132e-02 -2.28602681e-02
      -6.82323426e-03 -2.49306648e-03 -1.73780005e-02 1.50116459e-02
      2.58314069e-02 3.48573588e-02 -1.74685828e-02 -2.88215913e-02
      5.54141449e-03 1.06078777e-02 -1.02402875e-02 1.86946299e-02
      2.50519309e-02 7.83914607e-03 -1.48648943e-03 -2.41677742e-03
      -9.29097354e-04 4.31940833e-04 8.00923372e-05 -1.01234522e-02
      -7.25321984e-03 -7.48746470e-02 -4.91891503e-02 1.38524990e-03
      2.94380169e-02 3.50082777e-02 8.01532704e-04 -1.35839721e-02
      -2.20644698e-02 -1.85559858e-02 -1.37668783e-02 -8.85312855e-02
      -1.05355822e-01 -6.24434203e-02 -9.28992312e-03 2.83455569e-02
      2.72619743e-02 -1.20953377e-02 2.18037586e-03 5.90435229e-02
      -9.62457135e-02 -1.19936302e-01 -6.18625470e-02 1.53631158e-02
      3.00724804e-02 4.74143960e-02 -7.37104006e-03 5.07333316e-02
      7.84452558e-02 4.03582305e-02 7.53539661e-03 -9.80245881e-03
      4.70612338e-03 1.16547598e-02 8.23082775e-03 -7.30237504e-03
      -7.36906845e-03 -6.40466139e-02 -9.48499590e-02 -4.75396402e-02
      3.33406627e-02 6.81212321e-02 2.63340846e-02 2.54556420e-03
      2.14319909e-03 6.60324097e-02 3.57391983e-02 -6.36817664e-02
      -6.64193258e-02 2.27285530e-02 4.20726016e-02 4.08555381e-02
      6.55426830e-02 4.31723595e-02 1.80789158e-02 3.60004827e-02
      -4.19523194e-02 -6.11411817e-02 -2.03557708e-03 2.36283652e-02
      4.04478982e-02 4.80046868e-02 1.32588502e-02 -5.71788894e-03
      2.06016414e-02 2.16773216e-04 -2.50821318e-02 -7.33116269e-03
      9.86479409e-03 9.16300155e-03 4.88053821e-03 -4.67827823e-03
      -2.56010168e-03 -1.15484027e-02 -1.49801383e-02 -1.77621320e-02
      1.07124820e-02 2.77074333e-02 7.91224185e-03 4.38562408e-03
      1.04666268e-03 2.78859083e-02 7.30074272e-02 5.81214912e-02
      5.01088649e-02 3.49716581e-02 3.65157165e-02 8.95744190e-03
      6.90871384e-03 1.00819319e-02 2.17862893e-02 7.52462149e-02
      8.13773870e-02 1.25470990e-02 2.10533831e-02 4.43931371e-02
      5.66763477e-03 2.96892994e-03 3.93258408e-03 -2.65648705e-04
      2.51461728e-03 -4.23731059e-02 -5.21359779e-02 2.01283582e-03
      1.43067846e-02 1.00798877e-02 7.59712420e-03 1.24478061e-03
      -3.29383947e-02 -2.52823401e-02 -5.51295206e-02 -4.38639969e-02
      -2.89765112e-02 -2.04565246e-02 -2.90420209e-03 -2.12815795e-02
      2.79132626e-03 -4.06171866e-02 -5.51818311e-02 -3.59975770e-02
      -2.92529985e-02 1.00916494e-02 -7.37062469e-03 -8.79640982e-04
      -7.74575491e-03 2.92375963e-02 1.21336589e-02 -3.67868170e-02
      -2.37844954e-03 -3.30582308e-03 -7.75039708e-03 1.16023067e-02
      -5.28224232e-03 -4.01721634e-02 1.75586473e-02 -6.08522678e-03
      -2.96567082e-02 -3.80565226e-03 5.67430863e-03 -1.96286198e-02
      4.17916058e-03 2.54672981e-04 -5.76699385e-03 -1.14089984e-03
      -8.53612274e-02 4.07460425e-03 9.28321108e-03 -2.89897118e-02
      -3.29652950e-02 -9.06542689e-03 8.25539045e-03 -4.46971785e-03
      1.65376700e-02 1.72277261e-02 1.94178224e-02 -3.86176165e-03
      -1.25701260e-02 -1.66193582e-02 -1.39748137e-02 8.63588788e-03
      1.17931506e-02 4.53120917e-02 4.18938436e-02 -6.69600219e-02
      -5.28130755e-02 -1.49398018e-02 -6.09292462e-03 1.09320842e-02
      2.57048886e-02 -2.19588615e-02 1.45735610e-02 1.13789283e-03
      -2.19468027e-02 -3.41431201e-02 1.73026491e-02 1.07849222e-02
      1.42630870e-02 -2.91346628e-02 1.61242299e-02 4.50435206e-02
      -5.74279986e-02 5.06355427e-02 4.36269641e-02 6.99554803e-03
      -9.98551585e-03 -2.19629444e-02 -1.18571846e-02 -1.65097862e-02
      -2.92952228e-02 -8.99711065e-03 7.86010250e-02 2.97774766e-02
      -5.30777872e-02 -7.05792382e-02 7.01367250e-03 -5.00805909e-03
      4.27975226e-03 -1.81936170e-03 -7.97911175e-03 2.00373996e-02
      1.38402330e-02 5.05155809e-02 3.89935039e-02 -2.13393802e-03
      -2.38262508e-02 1.43794836e-02 -1.81435526e-03 -7.52620911e-03
      3.34401540e-02 1.62645802e-02 1.35031296e-02 2.82098632e-02
      4.32087965e-02 1.10709183e-02 3.74307372e-02 -7.30517227e-03
      2.99543850e-02 2.82944851e-02 -5.16190985e-03 1.86382455e-03
      -1.89513825e-02 -9.08990856e-03 -3.08005488e-03 -4.08858759e-03
      6.30344730e-03 6.09136149e-02 7.30028525e-02 7.63654336e-03
      -4.94344831e-02 -7.05431178e-02 1.02995550e-02 8.87809414e-03
      9.20135155e-03 1.25310589e-02 6.62610447e-03 5.90821877e-02
      5.75583801e-02 1.08440863e-02 8.96601938e-03 1.51182245e-02
      1.18969586e-02 -2.02357490e-03 -6.81141019e-03 1.09718749e-02
      1.42081939e-02 2.85553597e-02 1.60400774e-02 1.04464618e-02
      1.30480900e-02 1.22230137e-02 7.64328660e-03 8.17518402e-03
      -1.60184130e-02 -1.74393170e-02 -1.25187226e-02 -8.23148806e-03
      3.22977034e-03 -2.24273349e-03 -3.27030662e-03 -2.86415941e-03
      2.99942354e-03 3.88881401e-03 -3.31552587e-02 -8.96358117e-03
      -6.70605246e-03 -8.94212071e-03 1.31121343e-02 -4.27784212e-03
      -3.15590650e-02 1.15123801e-02 -9.53294057e-03 -9.42221433e-02
      -1.95200257e-02 1.00355316e-02 -2.99941413e-02 4.70054708e-03
      -1.05002022e-03 1.04209790e-02 1.65330991e-02 -4.85606072e-03
      -6.10654987e-02 1.29390592e-02 -4.22105135e-04 -2.72716992e-02
      -2.33888067e-03 -9.63689014e-03 2.69075180e-03 -4.84175020e-04
      -1.57838129e-02 -1.57825109e-02 -3.10382918e-02 -2.02600975e-02
      -4.01128503e-03 3.58135672e-04 5.13657322e-03 9.85352695e-03
      5.18004782e-02 2.66557969e-02 -6.64316341e-02 -6.62056804e-02
      -2.40903609e-02 9.09330137e-03 2.08449829e-02 1.32325310e-02
      -2.24544797e-02 7.56839011e-03 7.82286189e-03 -6.86953589e-02
      2.31477054e-04 2.41505187e-02 3.32971253e-02 4.62260619e-02
      -5.79573847e-02 4.75076288e-02 -2.29719859e-02 -1.24403695e-02
      -6.78694472e-02 -6.99246228e-02 -1.09928492e-02 2.92502437e-02
      4.82443757e-02 -3.24884467e-02 2.83240899e-02 5.88863995e-03
      -2.90342271e-02 -1.14456322e-02 -2.73502786e-02 -4.62146737e-02
      -1.67316031e-02 2.87097902e-03 -1.53316436e-02 -6.62557068e-05
      -3.86720244e-03 -3.12630981e-02 -5.08884294e-03 7.94101227e-03
      5.80121838e-02 4.64416780e-02 -4.32630256e-03 -4.92262915e-02
      2.04158085e-03 -6.63164258e-03 -6.36353740e-04 -2.99360510e-02
      -5.70980599e-03 5.35008591e-03 2.05138903e-02 4.56691943e-02
      2.65211631e-02 6.09180108e-02 -3.60259251e-03 1.80976745e-02
      -1.28113711e-02 -2.25984566e-02 -3.68528930e-03 1.10692289e-02
      9.80644394e-03 -1.71078031e-03 2.65357159e-02 2.10121237e-02
      1.14987697e-02 1.93600301e-02 -8.66465271e-04 -1.92393735e-02
      -1.75432861e-02 2.34654429e-03 1.00785482e-03 4.94444277e-04
      -2.12891842e-03 -5.98071609e-03 3.44590135e-02 6.39017373e-02
      1.48211746e-02 1.47834234e-02 3.36013571e-03 -7.22452824e-05
      -8.52267537e-03 -1.22200260e-02 1.65706761e-02 1.84500162e-02
      3.98610830e-02 1.34780146e-02 1.28966812e-02 1.84821431e-02
      1.27055794e-02 1.01572266e-02 1.21223330e-02 1.11226207e-02
      2.54262914e-03 -1.08838500e-02 -1.60300676e-02 2.60458998e-02
      1.68982092e-02 8.30559118e-04 1.68964602e-02 1.62876956e-02
      -3.19041428e-03 -1.14704520e-02 -3.86476330e-03 -1.71773834e-03
      -2.84938840e-03 6.23925310e-03 -3.08338611e-04 -9.47671570e-03
      5.39430464e-03 1.24395918e-03 -8.60427096e-02 -2.74470132e-02
      1.02633620e-02 -1.74369700e-02 6.79871393e-03 -9.04697983e-04
      1.86944287e-02 2.13226490e-02 -3.88288661e-03 -7.57031292e-02
      -1.91110950e-02 -2.15351861e-03 -1.02347322e-02 1.42706176e-02
      -6.84351800e-03 4.59402334e-04 -1.28108147e-03 -6.97974768e-03
      -8.53901554e-04 -2.94301417e-02 -3.32651772e-02 -3.68696218e-03
      4.01334697e-03 2.48462870e-03 -1.99676049e-03 -1.34744924e-02
      -4.65161726e-03 -2.68766880e-02 -5.55112101e-02 -4.67998860e-03
      4.58038738e-03 1.00932159e-02 4.87199286e-03 -9.29632038e-03
      3.13143246e-02 -2.36980598e-02 -8.36337954e-02 -3.56024653e-02
      1.83088817e-02 7.69273937e-02 5.72104529e-02 -2.11369712e-02
      6.12166747e-02 1.06925769e-02 -2.87609156e-02 -8.30796957e-02
      -6.00528605e-02 -4.17992324e-02 5.96687160e-02 7.30179250e-02
      1.00314468e-02 3.42450701e-02 6.41530473e-03 7.57999625e-03
      -1.30601041e-02 -1.22147858e-01 -6.11476600e-02 3.08170058e-02
      2.35018693e-02 8.08882993e-03 5.12420433e-03 6.75838266e-04
      -3.12902816e-02 -1.11882612e-02 1.64417196e-02 2.19265725e-02
      1.56123647e-02 2.06644437e-03 -1.64841190e-02 1.59747410e-03
      -5.00448328e-03 -1.34534028e-04 -2.95838360e-02 -3.08702309e-02
      -1.20797399e-02 1.60946399e-02 4.09320705e-02 3.52462940e-02
      5.13446555e-02 7.89736025e-03 2.10415088e-02 -3.97029892e-02
      -3.25579159e-02 -3.66568975e-02 -2.49690488e-02 3.12736467e-03
      1.82518736e-02 4.32660580e-02 3.63148041e-02 1.53245535e-02
      3.26170512e-02 1.33382613e-02 1.87879447e-02 3.06897350e-02
      3.47826816e-02 9.26394202e-03 6.12483220e-03 4.96687088e-03
      -3.41488956e-03 6.59833523e-03 2.01999135e-02 6.90882979e-03
      5.95586514e-03 1.06801454e-03 -3.67347384e-04 -3.18699540e-03
      -4.13172832e-03 1.18369553e-02 9.90787800e-03 1.51655022e-02
      -5.05300425e-03 7.07200356e-03 1.57402288e-02 1.04436651e-02
      1.07105095e-02 9.36461147e-03 2.61241868e-02 3.53988027e-03
      -3.38212773e-02 -4.21676151e-02 2.94567160e-02 6.05497360e-02
      2.00835764e-02 3.35400738e-02 3.95596623e-02 7.28659518e-03
      7.01249531e-03 1.32960193e-02 3.19654085e-02 3.39694619e-02
      1.84865221e-02 1.72333769e-03 6.63668010e-03 1.26864426e-02
      1.45849446e-03 -3.96298580e-02 -1.27465297e-02 6.37732958e-03
      -4.12232848e-03 6.42302725e-03 -4.03731792e-05 8.75886530e-03
      7.99793471e-03 -8.93573742e-03 -6.46001697e-02 -3.63285542e-02
      -4.37716255e-03 8.45998153e-03 2.27902252e-02 -4.23976686e-04
      -3.34807741e-03 -8.41300003e-03 -1.12842247e-02 -4.61592805e-03
      -7.87590295e-02 -9.26090777e-02 -1.86860394e-02 6.03396818e-03
      8.89989920e-03 2.92780809e-03 -1.64959058e-02 6.13837829e-03
      1.26955779e-02 -2.78495792e-02 -3.82740013e-02 -1.25880772e-02
      3.88266519e-03 1.02572264e-02 6.75942190e-03 -1.73708773e-04
      -4.17462438e-02 -4.33212668e-02 -6.65302277e-02 6.42854720e-03
      4.47989702e-02 5.51969968e-02 -1.67935935e-03 3.54049541e-02
      8.59904382e-03 -3.45632657e-02 -9.46384892e-02 -7.87447989e-02
      -6.80857599e-02 6.74743205e-02 3.64200100e-02 2.47401875e-02
      1.17028635e-02 -2.88136676e-03 3.23727839e-02 2.65875589e-02
      -5.73725291e-02 -4.43919860e-02 5.15900664e-02 4.17853296e-02
      2.32422613e-02 3.34732756e-02 1.85368806e-02 8.09494779e-03
      1.32220611e-02 -3.95294614e-02 -4.60009314e-02 3.93810775e-03
      1.43535016e-02 2.17968393e-02 2.58271098e-02 1.12080453e-02
      3.22183419e-04 -6.35460159e-03 -4.27500084e-02 -1.05967643e-02
      1.09240394e-02 2.02042945e-02 1.51088461e-02 2.06089318e-02
      5.95584325e-03 5.30392071e-03 -5.51899150e-02 -4.26372774e-02
      -5.98609149e-02 -1.48483338e-02 1.92461647e-02 1.66407637e-02
      2.89714746e-02 2.08568256e-02 3.16541716e-02 3.62597965e-03
      1.27875097e-02 7.20146205e-03 5.13783433e-02 6.86234236e-02
      1.04185091e-02 2.57936283e-03 1.04195494e-02 1.21056484e-02
      6.18408397e-02 8.60289037e-02 1.34426197e-02 1.91018861e-02
      4.38324995e-02 -7.86579959e-03 -1.63141154e-02 -4.75090556e-03
      4.07370413e-03 1.29806774e-03 -2.29984522e-03 -1.11459056e-02
      1.86461082e-03 8.53272248e-03 4.36047418e-03 5.49340015e-03
      3.82687687e-03 2.33474057e-02 -1.64596329e-03 -3.46767716e-02
      -3.65963317e-02 3.12905945e-02 6.42817169e-02 1.71873178e-02
      2.70286128e-02 3.74349654e-02 4.22712229e-03 1.53447101e-02
      4.48474959e-02 6.34715259e-02 5.95220551e-02 3.13093588e-02
      -1.96144264e-03 3.58584686e-03 1.34756565e-02 -7.70240743e-03
      -1.41955027e-03 4.99799324e-04 -1.73044461e-03 -1.73385476e-03
      7.61738699e-03 -2.07728683e-03 -9.84838232e-03 -5.88460965e-03
      -8.00870638e-03 -4.06254493e-02 -3.24896090e-02 -9.90402233e-03
      9.95241851e-03 1.52864102e-02 2.51917914e-03 -2.96160555e-03
      -7.75724463e-03 -8.85234401e-03 -5.17437095e-03 -1.22288056e-01
      -1.29353419e-01 -4.24176790e-02 4.23414307e-03 1.23869758e-02
      8.35332833e-03 -1.07263289e-02 2.00740714e-02 4.89685871e-02
      -4.64275144e-02 -7.93491155e-02 -2.80586351e-02 1.00387149e-02
      2.68299393e-02 1.85041483e-02 -4.84956754e-03 1.39345266e-02
      2.13547722e-02 1.20627955e-02 2.61029229e-03 -4.73575527e-03
      1.29574607e-03 5.22896741e-03 4.22111852e-03 -8.04727679e-05
      -2.32185274e-02 -9.55166668e-02 -1.03843838e-01 -7.24090263e-02
      2.93827597e-02 6.63317069e-02 2.39260234e-02 -9.13443277e-04
      -4.15998744e-03 4.92443889e-02 3.41485441e-02 -4.51933704e-02
      -6.41038641e-02 3.09326407e-02 4.05146331e-02 3.00116949e-02
      5.35769761e-02 3.36023122e-02 9.96232312e-03 4.05553728e-02
      -5.56460284e-02 -6.31752238e-02 -5.91950584e-03 2.38879062e-02
      3.67591120e-02 4.02738638e-02 8.36887304e-03 -1.02773653e-02
      1.29630808e-02 -1.84862167e-02 -4.34655622e-02 -1.03156464e-02
      9.88820568e-03 8.14984087e-03 1.40432967e-03 -6.63619768e-03
      -5.91139309e-03 -4.31871675e-02 -5.23028374e-02 -6.12674952e-02
      3.36766168e-02 4.71227542e-02 7.79179391e-03 1.16558634e-02
      5.77530358e-03 3.82915772e-02 7.71348691e-03 5.43304859e-03
      -1.67804621e-02 5.62596507e-02 7.22351596e-02 -1.95982466e-05
      -7.94229563e-03 1.20149963e-02 2.85963044e-02 1.40673950e-01
      1.43925488e-01 6.46017715e-02 3.94080393e-02 8.76875967e-02
      -9.69295669e-03 5.28043462e-03 -2.02639811e-02 1.02582120e-03
      4.19824198e-03 -8.78433660e-02 -1.03143536e-01 3.51000275e-03
      3.50252688e-02 2.33055782e-02 1.38339475e-02 2.25130934e-03
      1.30337952e-02 -1.21235638e-03 -1.77465435e-02 -2.03473419e-02
      1.49965873e-02 3.58478613e-02 6.72281953e-03 1.23849642e-02
      2.01580655e-02 -3.32469074e-03 2.03579534e-02 7.08577037e-02
      7.38802925e-02 5.70226535e-02 3.05931829e-02 -6.08615018e-03
      -3.04805045e-03 7.35264132e-03 -8.24828353e-03 4.06776275e-03
      -1.08122872e-02 -2.98155490e-02 -1.50441900e-02 2.04539653e-02
      1.76402309e-03 -2.04156786e-02 -1.33578079e-02 2.05454398e-02
      9.77054983e-03 -2.34183483e-02 -4.46702279e-02 -1.18984133e-02
      1.28266998e-02 8.43711756e-03 -9.37676802e-03 7.31188711e-03</_></support_vectors>
  <uncompressed_sv_total>43</uncompressed_sv_total>
  <uncompressed_support_vectors>
    <_>
      1.97255723e-02 1.48729188e-02 1.48561038e-02 1.43469973e-02
      1.88213307e-02 1.01638874e-02 6.66322000e-03 2.92993221e-03
      8.67750775e-03 2.50884723e-02 6.28115684e-02 8.90034512e-02
      1.65225700e-01 1.79613411e-01 8.31198096e-02 2.58010402e-02
      1.03026135e-02 1.53248981e-02 5.89468330e-02 6.87498599e-02
      1.34131983e-01 1.13675743e-01 6.19147420e-02 2.55259052e-02
      1.67472903e-02 5.15997149e-02 4.41253819e-02 3.08009330e-02
      1.24747641e-02 1.09198838e-02 7.53724109e-03 4.26560873e-03
      2.21887464e-03 9.96594504e-03 2.89738458e-02 2.45613102e-02
      1.53326944e-01 1.22348815e-01 1.28975496e-01 7.01911896e-02
      1.91564150e-02 8.12083576e-03 1.26276789e-02 2.45602001e-02
      1.36191368e-01 6.40138164e-02 1.59754828e-01 2.29146361e-01
      2.29146361e-01 2.29146361e-01 2.22798109e-01 5.56929410e-02
      1.83494203e-02 5.22124395e-02 5.13769165e-02 4.46544625e-02
      1.02343008e-01 1.28227115e-01 1.89384267e-01 1.63317710e-01
      6.60366416e-02 4.15575318e-02 6.20645024e-02 4.19791080e-02
      3.55792493e-02 3.37644666e-02 2.66810711e-02 7.54130259e-03
      7.98120257e-03 1.19390590e-02 2.14067101e-02 3.39514650e-02
      8.60470608e-02 9.90779251e-02 9.32516083e-02 5.45598194e-02
      1.87140629e-02 1.51961604e-02 1.13782035e-02 3.51915099e-02
      7.26940036e-02 9.40873697e-02 1.43749058e-01 1.69783518e-01
      1.65801078e-01 2.10689038e-01 1.64046541e-01 8.65019187e-02
      6.27084672e-02 6.76994249e-02 5.01103960e-02 4.40162830e-02
      4.09274772e-02 7.31584281e-02 2.29146361e-01 2.29146361e-01
      1.46931812e-01 5.67410924e-02 3.21863741e-02 4.51150872e-02
      4.90611568e-02 1.65994298e-02 7.04649370e-03 9.86988004e-03
      1.33365393e-02 1.46036847e-02 1.77166089e-02 2.69172974e-02
      3.29240188e-02 2.98674162e-02 2.10380591e-02 1.00149894e-02
      9.83649399e-03 8.34753551e-03 5.09490864e-03 1.22440830e-02
      2.60943398e-02 3.21149975e-02 3.25094387e-02 5.52533381e-02
      4.12064753e-02 4.85513210e-02 3.75217944e-02 2.10173279e-02
      2.53777318e-02 3.15172561e-02 5.55761121e-02 3.11698131e-02
      2.38455962e-02 2.01422013e-02 6.78551719e-02 1.27084538e-01
      1.15225948e-01 7.57918656e-02 6.13296703e-02 5.84674068e-02
      1.30551066e-02 4.67759650e-03 1.98048167e-03 3.40289995e-03
      9.81237460e-03 1.64445136e-02 3.85053717e-02 5.57037145e-02
      1.44321127e-02 4.33362313e-02 6.47306219e-02 9.86590534e-02
      9.57293510e-02 4.21173386e-02 1.22814327e-02 6.13949308e-03
      9.03495681e-03 9.18661505e-02 7.35776797e-02 1.44097850e-01
      1.19654104e-01 6.31639287e-02 2.69133262e-02 2.30724737e-02
      8.07511285e-02 6.95412979e-02 9.84139368e-02 4.31619249e-02
      3.45908962e-02 2.16362458e-02 1.27488645e-02 1.22529408e-02
      3.62729244e-02 9.31558013e-02 8.08020458e-02 7.35246763e-02
      2.90398467e-02 2.54156720e-02 1.59552451e-02 1.89831872e-02
      1.45852854e-02 1.50152668e-02 3.93501371e-02 6.08468801e-02
      1.42332818e-02 6.90324306e-02 1.33918360e-01 2.04848185e-01
      2.10341796e-01 1.53249770e-01 3.72571722e-02 8.17389414e-03
      1.23136230e-02 8.01271722e-02 5.91403209e-02 1.37331933e-01
      1.33610398e-01 1.66336641e-01 1.47717297e-01 7.63249099e-02
      5.92144877e-02 9.24945772e-02 1.57027557e-01 1.24356776e-01
      9.90386158e-02 8.87366533e-02 2.53835730e-02 3.25759538e-02
      4.74816635e-02 8.26498419e-02 1.17870338e-01 1.27498299e-01
      5.77560365e-02 1.85463149e-02 2.31812242e-02 1.80046093e-02
      2.62469985e-02 4.05411422e-02 6.70300201e-02 8.22520405e-02
      4.94074747e-02 6.61365315e-02 6.96903244e-02 8.15592781e-02
      1.45441175e-01 1.28106356e-01 6.64045662e-02 3.24948430e-02
      2.63990667e-02 5.85906394e-02 5.96616678e-02 5.40632457e-02
      8.31819326e-02 2.10341796e-01 2.10341796e-01 1.62168846e-01
      6.79971203e-02 4.64053974e-02 1.68003678e-01 1.75239250e-01
      5.53726517e-02 2.64116153e-02 3.67156863e-02 4.91484962e-02
      6.64149299e-02 6.80830479e-02 9.05129313e-02 4.67353798e-02
      4.44194376e-02 2.62059625e-02 1.89515520e-02 2.04320922e-02
      3.38139907e-02 6.56048208e-02 4.69193459e-02 2.95573771e-02
      1.97337624e-02 1.96902119e-02 2.83313319e-02 2.14691367e-02
      3.20339054e-02 2.56374758e-02 1.51950261e-02 1.72299389e-02
      1.87172741e-02 9.18168798e-02 3.48079614e-02 2.28329264e-02
      2.10690144e-02 7.53136799e-02 1.63766578e-01 1.53615057e-01
      1.04810499e-01 1.02448806e-01 1.76910102e-01 5.12144528e-02
      1.89051777e-02 8.33075494e-03 9.63617209e-03 2.21463013e-02
      5.25863878e-02 1.42804191e-01 1.83320478e-01 3.41805108e-02
      2.87163034e-02 1.48100220e-02 5.38518140e-03 2.33185478e-03
      8.62765033e-03 2.11543143e-02 5.91391958e-02 8.82003978e-02
      4.11190540e-02 2.29964368e-02 4.26357314e-02 3.24694179e-02
      1.59760229e-02 7.64603820e-03 9.37413424e-03 3.61509547e-02
      3.08672115e-02 9.69953537e-02 4.34661172e-02 3.18917744e-02
      1.83367375e-02 1.18535208e-02 1.59142856e-02 3.72259803e-02
      8.70542005e-02 8.24697316e-02 1.81728587e-01 7.32332990e-02
      7.69690424e-02 5.23830056e-02 5.79512939e-02 3.96032482e-02
      3.88827361e-02 9.54272449e-02 1.51147410e-01 4.46668267e-02
      2.45507415e-02 3.79502587e-02 3.26692052e-02 3.54278572e-02
      2.81613450e-02 2.85525713e-02 2.83884313e-02 3.85217406e-02
      3.70729454e-02 2.52513532e-02 5.38943633e-02 3.81693579e-02
      2.89879832e-02 2.96095479e-02 2.53301207e-02 2.47542132e-02
      4.02515419e-02 1.73718721e-01 1.24922529e-01 8.47908929e-02
      8.31911638e-02 2.39361711e-02 3.68625820e-02 5.38026690e-02
      8.68035778e-02 1.21613584e-01 2.23047063e-01 1.35586008e-01
      5.18538170e-02 7.99349248e-02 1.06048070e-01 8.50987285e-02
      9.61850360e-02 1.75249040e-01 2.23047063e-01 7.48052821e-02
      3.87463458e-02 4.22986113e-02 9.51292366e-02 2.23047063e-01
      1.45326167e-01 4.02198844e-02 5.53870946e-02 8.42141658e-02
      1.89260840e-02 2.46121883e-02 2.15221904e-02 2.58866828e-02
      7.50107840e-02 7.66998008e-02 5.04550226e-02 2.42177881e-02
      2.03389842e-02 1.77210614e-01 1.77757233e-01 5.34546003e-02
      2.80662086e-02 3.74369584e-02 5.23748621e-02 8.10072795e-02
      7.37052858e-02 8.99224579e-02 8.64958763e-02 8.38098228e-02
      6.53757975e-02 7.38674626e-02 1.13920890e-01 9.78375077e-02
      1.37912065e-01 1.06838956e-01 7.41680488e-02 1.43306935e-02
      1.24818590e-02 3.17611620e-02 1.24565944e-01 2.23047063e-01
      1.22032948e-01 1.68360807e-02 2.19837632e-02 2.82885022e-02
      4.61715236e-02 1.19405370e-02 6.07139757e-03 5.99245168e-03
      2.30061803e-02 5.74792027e-02 5.57933301e-02 4.15125303e-02
      5.06001115e-02 1.51395798e-01 5.40812574e-02 2.00109128e-02
      9.69649758e-03 7.92959146e-03 1.70956943e-02 5.21478355e-02
      1.53256357e-01 1.79353133e-01 8.31352845e-02 6.89614341e-02
      6.42299503e-02 6.21489175e-02 2.65560728e-02 2.17934456e-02
      4.08727489e-02 1.08077861e-01 1.85277492e-01 2.11901795e-02
      2.13756710e-02 6.59887940e-02 1.69312537e-01 7.87164867e-02
      1.08707696e-02 4.79601137e-03 6.00246433e-03 1.38563644e-02
      3.56830917e-02 1.57254878e-02 1.01221623e-02 4.99928370e-03
      3.78928031e-03 7.13989465e-03 1.31620346e-02 2.82524768e-02
      3.06891464e-02 1.49302199e-01 6.24334514e-02 7.85090700e-02
      5.50787970e-02 5.69016822e-02 3.76598164e-02 3.55408341e-02
      7.93011338e-02 1.23030640e-01 6.72411472e-02 4.29168567e-02
      5.64305075e-02 5.39133400e-02 6.33043721e-02 4.75566164e-02
      5.25074862e-02 4.56572287e-02 5.98739609e-02 8.11078213e-03
      1.31767988e-02 1.27916643e-02 1.29644386e-02 1.07068848e-02
      3.87952360e-03 8.84900242e-03 7.19220238e-03 5.16470196e-03
      6.85533807e-02 4.28934433e-02 2.45556831e-02 2.59210188e-02
      7.82454386e-03 1.46891689e-02 2.22474597e-02 3.21957096e-02
      4.48220670e-02 2.57864714e-01 1.13764629e-01 5.09501360e-02
      8.99489149e-02 1.48951396e-01 9.23424587e-02 7.76579604e-02
      1.52923256e-01 2.05730662e-01 1.00575775e-01 6.36135340e-02
      8.36343467e-02 1.67857870e-01 2.75569886e-01 2.75569886e-01
      7.23067522e-02 8.34856331e-02 1.19675830e-01 9.28972755e-03
      2.57530510e-02 5.10550030e-02 4.33689356e-02 2.20208261e-02
      1.51689807e-02 8.26313440e-03 5.62514039e-03 3.20636784e-03
      6.05742149e-02 5.94216995e-02 1.88590419e-02 1.04284892e-02
      1.32209621e-02 2.02384889e-02 3.59847695e-02 2.83943396e-02
      3.01718824e-02 6.04936145e-02 5.84718771e-02 5.58518395e-02
      8.78881738e-02 1.57316968e-01 9.61790457e-02 9.65785682e-02
      8.35437328e-02 6.36787042e-02 2.01083198e-02 2.20053438e-02
      6.39216229e-02 2.32722163e-01 2.75569886e-01 2.32718527e-01
      3.06357574e-02 3.48574854e-02 4.17792536e-02 2.31646914e-02
      3.13586965e-02 5.11825643e-02 5.34777045e-02 3.30904536e-02
      1.97701734e-02 1.12815946e-02 5.36407251e-03 9.09471046e-03
      4.15098369e-02 1.96282938e-02 7.52176158e-03 3.99822509e-03
      2.08200375e-03 5.06566931e-03 1.83704477e-02 5.59128895e-02
      6.29896447e-02 7.11320117e-02 5.90885393e-02 7.43128583e-02
      9.15700346e-02 3.92498299e-02 1.82595942e-02 2.69119386e-02
      6.80347756e-02 1.31824240e-01 2.90867891e-02 3.67861912e-02
      1.19420886e-01 2.75569886e-01 1.54919088e-01 2.11185534e-02
      1.03401830e-02 1.05459662e-02 1.73940584e-02 1.20152440e-02
      2.60550436e-02 4.04738262e-02 4.86121848e-02 2.26351973e-02
      5.38549246e-03 4.37290734e-03 2.54696584e-03 4.13892465e-03
      7.24968612e-02 3.13765258e-02 4.51453850e-02 3.27279381e-02
      3.18378285e-02 2.22151112e-02 2.07715314e-02 3.89572382e-02
      5.95028698e-02 5.92723861e-02 4.67445627e-02 5.26427664e-02
      5.45657724e-02 6.74922913e-02 4.61670198e-02 5.56065701e-02
      4.32299823e-02 5.30354939e-02 2.29053088e-02 3.45325992e-02
      3.47549729e-02 3.68400924e-02 3.52255926e-02 1.16689010e-02
      2.07368489e-02 2.00623553e-02 1.31076472e-02 1.31498845e-02
      1.38388360e-02 3.61592136e-02 3.12704742e-02 3.08052599e-02
      8.33987258e-03 5.52705349e-03 2.83666188e-03 5.71412733e-03
      1.25209898e-01 5.53495362e-02 3.10124587e-02 6.18758537e-02
      1.26151547e-01 6.50020316e-02 3.94591317e-02 7.91352019e-02
      1.10604748e-01 7.76632652e-02 6.70370385e-02 1.00296289e-01
      1.69808954e-01 2.84003288e-01 2.84003288e-01 7.42593408e-02
      7.31483921e-02 9.46105421e-02 2.46699676e-02 7.45505616e-02
      1.79148570e-01 1.65736109e-01 7.18694627e-02 4.41768430e-02
      2.11322587e-02 1.48251001e-02 7.21159903e-03 7.69846374e-03
      4.31859046e-02 1.56002611e-01 1.03433348e-01 2.94021908e-02
      1.87389906e-02 6.67150877e-03 3.44363879e-03 2.77775386e-03
      2.41171177e-02 2.27475949e-02 2.98386179e-02 6.42077625e-02
      1.32133797e-01 6.04669191e-02 3.87360752e-02 3.79693545e-02
      3.26522775e-02 1.80506147e-02 2.71781329e-02 7.90450349e-02
      2.45474145e-01 2.84003288e-01 2.46762320e-01 3.48081030e-02
      3.50067094e-02 3.56970355e-02 7.87377805e-02 9.35781077e-02
      1.58015370e-01 1.94051147e-01 1.08137600e-01 7.29567185e-02
      3.55765373e-02 1.03204660e-02 2.67769508e-02 1.47431474e-02
      1.25607848e-02 4.53346148e-02 8.91583636e-02 5.93054369e-02
      4.45847474e-02 1.66946743e-02 3.72837344e-03 4.67883423e-03
      3.45828235e-02 2.97900196e-02 5.04664779e-02 7.77116194e-02
      3.27277891e-02 9.44548286e-03 9.89668444e-03 2.22413894e-02
      5.11180982e-02 2.54048854e-02 4.22162153e-02 1.28048807e-01
      2.84003288e-01 1.70488715e-01 2.39654277e-02 1.33948345e-02
      1.19013274e-02 1.39475716e-02 4.05855738e-02 7.18322769e-02
      1.03555642e-01 1.24217607e-01 5.23789451e-02 1.30534526e-02
      1.09929126e-02 6.78191846e-03 1.34273889e-02 1.01964120e-02
      7.89943896e-03 9.12400149e-03 1.54157123e-02 3.88494693e-03
      2.34243367e-03 4.55061719e-03 4.85755038e-03 5.01664774e-03
      6.77060336e-02 6.22648038e-02 6.68301284e-02 3.69038135e-02
      9.09875520e-03 2.77162506e-03 5.27465995e-03 1.33875906e-02
      6.53787032e-02 3.00373491e-02 7.77898729e-02 1.46192461e-01
      1.64839476e-01 1.73101112e-01 9.68430713e-02 2.76971143e-02
      1.06654782e-02 2.50283051e-02 1.62347257e-02 1.08398143e-02
      4.12515774e-02 5.45244105e-02 9.70261097e-02 8.33112374e-02
      3.56831998e-02 1.07223773e-02 1.94942150e-02 1.54182026e-02
      1.64690893e-02 1.52119705e-02 1.12951612e-02 3.98590788e-03
      4.00260091e-03 3.78478807e-03 5.43674733e-03 1.34772714e-02
      9.98714566e-02 1.00987978e-01 9.08643231e-02 4.98023406e-02
      2.08093375e-02 2.00477857e-02 1.34545341e-02 4.26701196e-02
      8.13202262e-02 1.10627010e-01 1.44133344e-01 1.73421040e-01
      1.63457096e-01 2.19385728e-01 1.83277726e-01 9.94642675e-02
      7.95921460e-02 8.60255212e-02 6.39623478e-02 5.30495308e-02
      4.29776572e-02 7.45912418e-02 2.19385728e-01 2.19385728e-01
      2.05450594e-01 8.98862630e-02 4.70135584e-02 5.44533953e-02
      5.58583364e-02 1.64222717e-02 7.23038381e-03 1.13502238e-02
      1.70513522e-02 2.16910187e-02 2.69284081e-02 3.27642746e-02
      9.19392407e-02 9.09139961e-02 5.40356748e-02 2.85324827e-02
      2.62331422e-02 2.08080430e-02 1.42265223e-02 2.68470254e-02
      6.17531575e-02 9.42555740e-02 9.78229791e-02 1.48294643e-01
      1.03194945e-01 1.08162098e-01 7.88051113e-02 5.04982285e-02
      6.20622449e-02 7.59895444e-02 1.74600169e-01 9.51894969e-02
      6.67399839e-02 5.84284849e-02 1.52545840e-01 2.19385728e-01
      2.19385728e-01 2.03971595e-01 1.86312959e-01 1.84398204e-01
      3.57130319e-02 1.34734567e-02 1.00955963e-02 1.15253534e-02
      2.98568215e-02 4.58959863e-02 1.19843736e-01 1.79234222e-01
      2.23465189e-02 1.90904923e-02 6.53608609e-03 9.08351503e-03
      2.82011926e-03 5.06499084e-03 4.27636085e-03 4.95960610e-03
      9.08173528e-03 3.23380604e-02 2.48522367e-02 2.36058142e-02
      1.70972403e-02 1.68618131e-02 1.30522829e-02 1.35369506e-02
      1.56491231e-02 2.11235471e-02 4.21977751e-02 2.35382915e-02
      1.28994575e-02 2.16198061e-02 2.67797299e-02 1.60309374e-02
      2.69786045e-02 2.97480188e-02 3.70981283e-02 2.73969453e-02
      1.20641543e-02 8.69133603e-03 1.22791165e-02 1.12773851e-02
      1.17659532e-02 1.00661963e-02 2.16177497e-02 2.82599442e-02
      5.33461617e-03 2.40718815e-02 4.68871035e-02 6.28859401e-02
      8.35455135e-02 5.43622337e-02 1.55734215e-02 3.61132785e-03
      4.26695729e-03 1.84457097e-02 1.34961167e-02 4.54042479e-02
      4.65127118e-02 6.84664547e-02 5.77651598e-02 2.95592118e-02
      1.02719385e-02 2.17497889e-02 4.66508716e-02 4.35026623e-02
      3.35165262e-02 2.90404763e-02 1.06505984e-02 1.14953211e-02
      1.28427809e-02 1.81487836e-02 3.69356386e-02 3.36414166e-02
      1.73340514e-02 6.86631631e-03 9.05457418e-03 7.91450962e-03
      9.00879875e-03 1.36681972e-02 1.77223925e-02 2.06172504e-02
      4.61285822e-02 5.20855561e-02 5.59799671e-02 6.34703189e-02
      1.21461980e-01 1.09399743e-01 5.80389574e-02 3.29094641e-02
      2.86005046e-02 5.75047061e-02 5.35655916e-02 3.96978296e-02
      6.33999333e-02 2.40832478e-01 2.40832478e-01 1.83703363e-01
      8.58288482e-02 5.00112511e-02 1.53574899e-01 1.57696590e-01
      4.52009626e-02 2.13847943e-02 3.08536906e-02 4.53572981e-02
      7.01628700e-02 7.72849694e-02 8.38907436e-02 4.25553396e-02
      4.49414365e-02 2.36864518e-02 1.50246657e-02 1.46353822e-02
      2.97016446e-02 6.43084794e-02 4.80879880e-02 2.82385387e-02
      4.37184460e-02 4.55615409e-02 5.95319383e-02 4.06217352e-02
      5.14672399e-02 3.91800180e-02 2.73551494e-02 3.32519189e-02
      3.49498130e-02 2.27251634e-01 8.24389607e-02 5.05055673e-02
      5.07409126e-02 1.36281654e-01 2.40832478e-01 2.40832478e-01
      2.21802965e-01 2.40832478e-01 2.40832478e-01 1.02797955e-01
      3.93766239e-02 3.12500298e-02 2.75810678e-02 5.41244298e-02
      1.11663975e-01 2.40832478e-01 2.40832478e-01 8.72152746e-02
      5.63113838e-02 3.00503355e-02 1.62084587e-02 1.13739604e-02
      1.64429322e-02 3.63967456e-02 1.46811232e-01 2.40832478e-01
      1.26603795e-02 1.07740993e-02 9.84762888e-03 7.12380139e-03
      7.31809624e-03 5.64521598e-03 6.54245075e-03 7.31402356e-03
      8.56478699e-03 5.15568554e-02 2.44410913e-02 1.39103830e-02
      2.34779455e-02 2.94107236e-02 1.72212142e-02 2.77439822e-02
      3.47961485e-02 4.70903404e-02 6.59122020e-02 2.84349564e-02
      2.06656642e-02 4.19704169e-02 3.32950912e-02 3.07615660e-02
      2.51774546e-02 5.59609197e-02 7.41713196e-02 3.04321386e-02
      7.07344431e-03 7.90603273e-03 3.26354913e-02 2.55956464e-02
      1.18484609e-02 1.09393839e-02 3.22214887e-02 6.61883801e-02
      7.91627914e-03 6.67732581e-03 1.81752983e-02 1.39784887e-02
      1.28772687e-02 1.09757679e-02 8.56666267e-03 3.80350137e-03
      9.22037568e-03 5.09585775e-02 4.12286296e-02 2.71914601e-02
      2.64270287e-02 9.91301704e-03 1.18398350e-02 1.50775379e-02
      1.96838379e-02 3.65783125e-02 7.66716599e-02 3.96130942e-02
      1.92557666e-02 3.11894212e-02 4.28824909e-02 2.80961264e-02
      2.98409499e-02 4.41461392e-02 5.78942634e-02 1.89012289e-02
      1.14780823e-02 1.55219929e-02 3.75238545e-02 1.37843937e-01
      4.96593751e-02 9.88731347e-03 1.44435558e-02 2.51184255e-02
      1.78453159e-02 2.05388144e-02 1.40285231e-02 1.84334889e-02
      6.66694120e-02 7.75669739e-02 5.78413829e-02 3.00389621e-02
      2.00492647e-02 1.54094413e-01 1.57406092e-01 4.39191721e-02
      2.24654600e-02 2.92706843e-02 4.51367423e-02 7.92979375e-02
      7.93420672e-02 8.01682472e-02 7.77995139e-02 8.14472213e-02
      5.44415489e-02 6.26829565e-02 8.96191224e-02 8.29850212e-02
      1.30750179e-01 1.02514125e-01 6.32842779e-02 1.26131000e-02
      1.13645690e-02 2.37121936e-02 1.30732298e-01 2.49717161e-01
      9.51722637e-02 1.51245333e-02 1.91123132e-02 1.93492156e-02
      1.11993738e-01 2.73780394e-02 1.35516450e-02 1.54765239e-02
      4.21365499e-02 1.07614070e-01 1.02783583e-01 8.69245976e-02
      1.21040955e-01 2.49717161e-01 1.00661881e-01 3.85834835e-02
      3.36993597e-02 2.43396461e-02 4.09049988e-02 1.05395168e-01
      2.49717161e-01 2.49717161e-01 2.05372199e-01 1.37209401e-01
      1.49640143e-01 1.42584756e-01 5.73178045e-02 3.91713157e-02
      6.45577312e-02 2.49717161e-01 2.49717161e-01 5.58730178e-02
      5.49519099e-02 1.73056737e-01 2.49717161e-01 1.14588112e-01
      1.88385695e-02 8.85312632e-03 1.20368330e-02 3.83885503e-02
      2.31384374e-02 9.63342935e-03 5.96307451e-03 9.23337415e-03
      1.14655402e-02 7.05150981e-03 1.03256023e-02 1.52207194e-02
      2.18348857e-02 5.90292364e-02 2.39914153e-02 1.80569198e-02
      4.81134579e-02 3.48112732e-02 2.80345660e-02 2.33419612e-02
      5.37344776e-02 7.35727996e-02 7.05647171e-02 2.10429318e-02
      4.93649542e-02 8.97409245e-02 5.82583062e-02 2.85829753e-02
      2.36799326e-02 6.71921968e-02 1.50506809e-01 2.29410529e-02
      2.31457558e-02 6.46933243e-02 5.88144995e-02 1.55512262e-02
      7.62563758e-03 5.08752838e-03 3.91369406e-03 1.87547114e-02
      2.09441055e-02 1.42689338e-02 8.17705225e-03 8.73775594e-03
      3.49112530e-03 4.68008826e-03 6.97289407e-03 8.11604038e-03
      1.37436166e-02 6.58645034e-02 3.50576788e-02 1.98577885e-02
      3.71482633e-02 6.19952977e-02 3.16291153e-02 2.39225123e-02
      4.00513522e-02 5.61741069e-02 2.66520511e-02 2.03606766e-02
      3.14383730e-02 6.76665977e-02 2.71269679e-01 1.00186333e-01
      1.90254636e-02 2.30858102e-02 3.71833555e-02 2.90984334e-03
      1.05005568e-02 1.99451055e-02 1.61616113e-02 8.83024838e-03
      6.39796164e-03 3.00092762e-03 1.28806010e-03 8.60666391e-04
      5.41850701e-02 5.63161969e-02 1.68539435e-02 8.94821808e-03
      1.04119573e-02 1.79593656e-02 3.58430259e-02 3.14353742e-02
      2.80270334e-02 5.83366975e-02 5.90165965e-02 4.64390181e-02
      8.14790875e-02 1.32916018e-01 8.46050903e-02 9.57982317e-02
      8.14902335e-02 5.38026802e-02 1.73909310e-02 1.96760371e-02
      5.33324778e-02 2.60564983e-01 2.71269679e-01 1.86859399e-01
      2.82076858e-02 3.17550674e-02 2.98580993e-02 2.55347192e-02
      3.02432813e-02 4.82680090e-02 5.50781824e-02 3.31566818e-02
      1.53720006e-02 9.53673385e-03 5.15057147e-03 9.56735853e-03
      1.00049525e-01 3.68807130e-02 1.44595420e-02 1.38369845e-02
      8.06389749e-03 1.21692112e-02 3.73117328e-02 1.34160846e-01
      1.60908610e-01 1.83692053e-01 1.28673717e-01 1.91061512e-01
      2.10423931e-01 7.48955533e-02 3.41164283e-02 4.33806293e-02
      1.74145982e-01 2.71269679e-01 8.30601901e-02 1.00677416e-01
      2.71269679e-01 2.71269679e-01 2.39499912e-01 3.96887995e-02
      2.04924606e-02 2.09679659e-02 4.85316366e-02 2.10779253e-02
      5.44300862e-02 8.57734531e-02 1.06655493e-01 4.69709672e-02
      1.43404258e-02 1.03562120e-02 4.78695193e-03 7.50132557e-03
      1.98445134e-02 7.25082448e-03 5.73915197e-03 2.07919031e-02
      1.42324567e-02 9.41526797e-03 7.87733402e-03 1.95392147e-02
      2.90568992e-02 6.26605302e-02 2.34204307e-02 6.64159805e-02
      9.06279832e-02 4.96132039e-02 2.51484048e-02 1.94194615e-02
      5.08481748e-02 1.24655582e-01 3.74240726e-02 4.44615632e-02
      1.12617671e-01 1.10875934e-01 3.11214570e-02 1.50653245e-02
      1.00047057e-02 5.92760276e-03 2.30306014e-02 4.37965896e-03
      5.38642285e-03 1.57020856e-02 3.00422460e-02 1.33020841e-02
      7.59121310e-03 3.90996505e-03 4.61208139e-04 1.03876309e-03
      3.20268571e-02 1.73527338e-02 1.23803513e-02 2.60767937e-02
      5.25563918e-02 2.21338551e-02 1.14863124e-02 2.09191050e-02
      3.16999517e-02 2.11281888e-02 2.27666944e-02 3.72555777e-02
      6.70588762e-02 2.77251095e-01 1.08130060e-01 2.05109399e-02
      2.09302381e-02 2.96154097e-02 7.12341629e-03 2.92603225e-02
      7.15942085e-02 6.53366819e-02 2.95088571e-02 2.04145033e-02
      8.56878143e-03 2.72136228e-03 1.60423014e-03 1.17215596e-03
      1.26162535e-02 5.20107001e-02 3.87976281e-02 1.33052496e-02
      1.00067100e-02 3.44476756e-03 8.51874240e-04 5.76448743e-04
      2.40678620e-02 2.31838953e-02 2.36943420e-02 6.31700680e-02
      1.14344910e-01 5.34663945e-02 3.89102995e-02 3.62398922e-02
      2.58756112e-02 1.48196900e-02 2.34571584e-02 7.04224855e-02
      2.77251095e-01 2.77251095e-01 1.97623789e-01 3.18295956e-02
      3.23647223e-02 2.63659637e-02 9.08459648e-02 9.43516120e-02
      1.45771459e-01 1.91243351e-01 1.02437623e-01 5.54837212e-02
      2.90373210e-02 1.06105190e-02 2.94048209e-02 1.84796993e-02
      1.43309562e-02 3.47025953e-02 7.60829598e-02 4.71369363e-02
      3.32641192e-02 1.37576377e-02 4.70491871e-03 5.50701283e-03
      9.05332118e-02 6.86020330e-02 1.35941833e-01 1.75638512e-01
      5.69603294e-02 1.73819009e-02 1.55280316e-02 5.84508479e-02
      1.50607303e-01 7.62979984e-02 1.16123289e-01 2.77251095e-01
      2.77251095e-01 2.73505270e-01 4.80139367e-02 2.75795646e-02
      2.29803734e-02 3.73404920e-02 6.47533387e-02 1.44272655e-01
      2.13714167e-01 2.58081347e-01 1.07578181e-01 3.57950851e-02
      2.72597224e-02 1.36332009e-02 2.40674801e-02 1.60640217e-02
      1.32727884e-02 1.41158607e-02 2.24315245e-02 7.40045775e-03
      5.24355890e-03 9.51978471e-03 9.65046976e-03 9.92677733e-03
      3.08841895e-02 1.48899332e-02 4.87587228e-02 5.46834730e-02
      2.40427423e-02 1.20784827e-02 8.61141551e-03 2.04113778e-02
      5.55750430e-02 3.71081494e-02 4.87215817e-02 1.11374594e-01
      1.21611878e-01 3.80113907e-02 1.87410526e-02 1.19475825e-02
      5.24152722e-03 1.64580029e-02 8.80206842e-03 1.10473521e-02
      3.38594168e-02 6.35457039e-02 2.97461208e-02 1.86119843e-02
      1.07779577e-02 1.75613607e-03 2.66716559e-03 1.25559559e-03
      1.86744111e-03 2.51291879e-03 1.33488129e-03 3.15435021e-03
      1.34467520e-03 2.36062473e-03 1.06185547e-03 7.97063694e-04
      5.10597080e-02 4.25858721e-02 3.82365659e-02 1.88115910e-02
      1.08589875e-02 1.17900716e-02 7.15914182e-03 2.26323698e-02
      4.16768491e-02 5.55249192e-02 5.85708469e-02 7.83260167e-02
      6.96675256e-02 1.04083508e-01 8.88555124e-02 5.01123145e-02
      4.43815701e-02 4.90714647e-02 3.57396640e-02 2.80045532e-02
      2.06884574e-02 3.18489671e-02 1.50611967e-01 1.81871846e-01
      1.33564860e-01 6.46431372e-02 3.18067111e-02 2.89301481e-02
      2.68558376e-02 7.15277577e-03 3.36339232e-03 5.93078136e-03
      1.00203808e-02 1.46122482e-02 1.87437925e-02 1.91210937e-02
      1.16642065e-01 1.21340983e-01 5.99531904e-02 3.45383063e-02
      2.89770477e-02 2.27304883e-02 1.75812300e-02 2.63409261e-02
      6.45850971e-02 1.25294983e-01 1.27271041e-01 1.76591128e-01
      1.14919357e-01 1.07740119e-01 7.46726245e-02 5.51917851e-02
      6.73320219e-02 8.15707296e-02 2.17533037e-01 1.23711109e-01
      8.11025724e-02 7.59403855e-02 1.57839119e-01 2.17533037e-01
      2.17533037e-01 2.17533037e-01 2.17533037e-01 2.17533037e-01
      4.46834788e-02 1.76289510e-02 1.78825986e-02 1.72065422e-02
      3.84916067e-02 5.43288291e-02 1.56271592e-01 2.17533037e-01
      5.42367548e-02 3.76111083e-02 1.65980924e-02 2.52789315e-02
      7.03440467e-03 1.37978746e-02 1.05314609e-02 1.39749479e-02
      2.43160482e-02 1.27007365e-01 7.74187297e-02 4.90356125e-02
      4.07932848e-02 3.97007689e-02 3.47883590e-02 3.36093791e-02
      4.43737842e-02 7.41369799e-02 1.68330625e-01 7.62033314e-02
      3.52200791e-02 5.03448397e-02 6.29999191e-02 4.26439159e-02
      7.32085556e-02 7.31887966e-02 1.25381812e-01 7.82340690e-02
      4.34949957e-02 2.80947555e-02 3.39344032e-02 3.22155841e-02
      3.16830575e-02 2.59959809e-02 4.36383672e-02 6.99160546e-02
      6.28798455e-02 1.54336719e-02 2.61968980e-03 1.63371803e-03
      1.16967451e-04 1.56133238e-03 1.59214030e-03 4.01007244e-03
      1.28025562e-02 1.92451328e-01 8.81473497e-02 1.79859120e-02
      6.12082193e-03 2.16184324e-03 7.87525345e-03 1.07207075e-02
      1.41922440e-02 4.96259965e-02 2.17533037e-01 1.03848331e-01
      2.78184284e-02 1.26934880e-02 8.36515985e-03 5.57863666e-03
      9.62247979e-03 2.43920162e-02 1.37933373e-01 1.65201440e-01
      4.76373062e-02 1.27385929e-02 7.51825189e-03 4.82559390e-03
      3.52883618e-03 3.68628046e-03 6.92258729e-03 5.72309084e-02
      1.85960364e-02 1.70501247e-02 2.03571692e-02 2.16981471e-02
      4.47560996e-02 4.05715927e-02 2.25062296e-02 1.51361749e-02
      1.41673656e-02 2.52587702e-02 2.10587829e-02 1.30213797e-02
      2.01914757e-02 9.61529464e-02 1.22387029e-01 9.74286050e-02
      4.90652472e-02 2.53494717e-02 6.19451404e-02 6.13466538e-02
      1.68585293e-02 8.01285170e-03 1.16512189e-02 1.87828671e-02
      3.33260298e-02 4.03946638e-02 3.77707668e-02 1.71481743e-02
      2.10226625e-02 1.01554785e-02 5.61826071e-03 4.40616393e-03
      1.15421265e-02 2.67346799e-02 2.12325174e-02 1.25568192e-02
      4.37616073e-02 4.57625724e-02 5.59142642e-02 3.48862819e-02
      3.76996882e-02 2.72739083e-02 2.22720969e-02 2.79592331e-02
      2.85951998e-02 2.36150816e-01 8.43021497e-02 4.91285585e-02
      5.43846637e-02 1.14769638e-01 2.40585089e-01 2.31898934e-01
      2.02151209e-01 2.40585089e-01 2.40585089e-01 9.50351208e-02
      3.73414755e-02 4.22932617e-02 3.39910574e-02 5.78860082e-02
      1.04070440e-01 2.40585089e-01 2.40585089e-01 9.98857841e-02
      4.77698706e-02 2.62424834e-02 2.02366188e-02 1.61034372e-02
      1.43286232e-02 2.99521443e-02 1.56865805e-01 2.40585089e-01
      4.19404916e-02 2.62769219e-02 1.61937289e-02 1.31244799e-02
      1.32799130e-02 1.19295092e-02 1.30524021e-02 1.64717827e-02
      2.57572085e-02 1.48771599e-01 6.60606325e-02 3.17377001e-02
      4.31445949e-02 5.51587865e-02 3.60109173e-02 5.92464805e-02
      6.23286143e-02 1.10112391e-01 1.34878546e-01 7.54615664e-02
      5.34689575e-02 9.45032761e-02 7.61067420e-02 6.47395626e-02
      4.79525737e-02 8.54644254e-02 1.36612073e-01 4.53017019e-02
      1.57716274e-02 2.66894922e-02 9.68127623e-02 6.69924244e-02
      3.11831664e-02 2.40597706e-02 4.56863716e-02 9.06477645e-02
      6.36367798e-02 3.17955688e-02 7.80986715e-03 3.01198638e-03
      1.13505311e-03 3.01878341e-03 4.21383651e-03 5.92131400e-03
      2.21724417e-02 2.40215316e-01 8.45573843e-02 2.05356590e-02
      8.83489288e-03 6.68766536e-03 4.09303745e-03 6.37595262e-03
      1.79431047e-02 1.13426343e-01 2.40585089e-01 9.26590711e-02
      3.08238212e-02 2.45923996e-02 1.89779401e-02 1.08753098e-02
      8.20980407e-03 1.66098382e-02 1.00242183e-01 3.35114114e-02
      2.33561043e-02 2.69464571e-02 7.93191642e-02 5.21450937e-02
      1.63383652e-02 5.38316043e-03 9.06128529e-03 8.98667052e-03
      7.30722677e-03 7.02805771e-03 3.63078178e-03 5.09915547e-03
      2.43874136e-02 3.29953879e-02 2.89730486e-02 1.57518927e-02
      8.83499160e-03 5.52370399e-02 5.70713952e-02 1.57064870e-02
      7.89960939e-03 9.51817539e-03 1.61063224e-02 3.23701315e-02
      3.67915630e-02 3.26559693e-02 2.97292564e-02 3.53945009e-02
      2.03048605e-02 2.53470894e-02 2.96269804e-02 2.89648883e-02
      4.94257100e-02 3.95159684e-02 2.32910626e-02 4.77399817e-03
      4.65659611e-03 7.88612012e-03 6.33396357e-02 1.04401425e-01
      2.86983661e-02 5.55277383e-03 6.74878806e-03 5.14906039e-03
      1.06169641e-01 2.56003756e-02 1.25722475e-02 1.61733665e-02
      3.37204635e-02 8.12647045e-02 7.46787190e-02 7.41751716e-02
      1.13725670e-01 2.42907867e-01 8.10638741e-02 3.15840729e-02
      4.08390760e-02 2.87491400e-02 4.11829092e-02 8.96431208e-02
      2.42907867e-01 2.42907867e-01 2.12864533e-01 1.11185491e-01
      1.39430091e-01 1.31206617e-01 5.15946299e-02 3.02065928e-02
      4.61478569e-02 2.42907867e-01 2.42907867e-01 6.04058467e-02
      5.68760410e-02 1.74733832e-01 2.42907867e-01 6.97342530e-02
      1.44571420e-02 7.21685914e-03 1.03575503e-02 4.27128039e-02
      5.64410463e-02 2.53953338e-02 1.31420856e-02 1.57747157e-02
      2.02608760e-02 1.36605436e-02 2.02987418e-02 2.34256648e-02
      4.16652858e-02 1.02148421e-01 5.52700646e-02 4.39785719e-02
      1.00881457e-01 7.35481828e-02 5.42152822e-02 3.86995822e-02
      7.22983927e-02 1.16329558e-01 9.36796665e-02 3.98557186e-02
      1.08555645e-01 2.38981321e-01 1.44455478e-01 6.80420399e-02
      4.97283712e-02 8.85504410e-02 1.88840806e-01 3.12000867e-02
      3.82511728e-02 1.14133947e-01 1.33559555e-01 4.88041081e-02
      1.96743924e-02 1.11570107e-02 7.99801573e-03 2.70255767e-02
      9.41791162e-02 2.88327169e-02 6.72338391e-03 2.68613617e-03
      2.36805109e-03 1.33431482e-03 1.74986047e-03 5.62605308e-03
      4.07282449e-02 2.24045426e-01 7.88409710e-02 3.05432659e-02
      2.90353466e-02 2.37623341e-02 1.27564268e-02 7.61211943e-03
      1.59939267e-02 7.42225572e-02 4.22038659e-02 3.58235948e-02
      6.06377684e-02 2.00180680e-01 1.20309353e-01 3.28575931e-02
      1.10241147e-02 1.57586634e-02 1.16994521e-02 1.48589839e-03
      1.08403834e-02 2.67022531e-02 7.04833940e-02 4.19691540e-02
      1.31463334e-02 4.41093650e-03 4.79000062e-03 1.49133650e-03
      2.07779836e-02 2.30806172e-02 6.91597397e-03 3.55891860e-03
      3.48706730e-03 6.82424288e-03 1.53246615e-02 1.55126611e-02
      1.24305189e-02 2.53197681e-02 2.84124147e-02 1.80729870e-02
      3.81798111e-02 4.94987965e-02 3.16806287e-02 3.96263078e-02
      3.32060494e-02 2.02150140e-02 6.75133755e-03 8.43702257e-03
      2.13744882e-02 1.38872519e-01 2.31687590e-01 6.05333634e-02
      1.13516515e-02 1.25551401e-02 8.67767911e-03 1.18110934e-02
      1.36098815e-02 2.15513892e-02 2.55657230e-02 1.51554467e-02
      5.03415894e-03 3.58272484e-03 2.22887332e-03 4.20774054e-03
      1.03577174e-01 3.10180578e-02 1.21657606e-02 1.80426631e-02
      1.11984303e-02 1.33754872e-02 3.41864526e-02 1.34450316e-01
      1.69102535e-01 2.07681313e-01 1.19599916e-01 2.02656239e-01
      2.02635050e-01 6.37860969e-02 2.86721010e-02 3.32978405e-02
      1.91630155e-01 2.47873902e-01 1.00799114e-01 1.15512162e-01
      2.47873902e-01 2.47873902e-01 1.64897293e-01 3.48294750e-02
      1.83788203e-02 1.85045805e-02 5.75099178e-02 1.78237725e-02
      4.82439175e-02 7.61426762e-02 1.00442119e-01 4.36743870e-02
      1.64677761e-02 1.06668808e-02 3.80572397e-03 6.21578889e-03
      3.43296491e-02 1.75697561e-02 1.63505804e-02 4.85926680e-02
      3.35054062e-02 2.07076930e-02 1.39309121e-02 2.77907308e-02
      4.61584814e-02 9.00871307e-02 4.52791117e-02 1.45849779e-01
      2.47873902e-01 1.41069502e-01 6.48261532e-02 4.56727855e-02
      7.50131533e-02 1.73472300e-01 5.64334020e-02 8.03148597e-02
      2.17991263e-01 2.47873902e-01 9.85998660e-02 4.26518060e-02
      2.41253637e-02 1.44883841e-02 3.79133038e-02 6.56313868e-03
      8.81671812e-03 3.34040634e-02 6.35625571e-02 3.05442065e-02
      1.57900192e-02 7.47208111e-03 1.08703400e-03 1.77662889e-03
      7.28652254e-02 2.98866238e-02 1.39669832e-02 1.53351016e-02
      1.37162432e-02 7.15260394e-03 3.24580516e-03 7.22986041e-03
      2.33211890e-02 2.30215136e-02 2.55136807e-02 5.97665310e-02
      2.17507765e-01 1.21070571e-01 2.94471215e-02 1.02458419e-02
      1.22906277e-02 7.04440428e-03 3.06993700e-03 2.37210002e-02
      5.42920753e-02 1.16152182e-01 8.14692378e-02 2.85696108e-02
      9.35287029e-03 1.03538819e-02 2.85636284e-03 4.80744027e-04
      2.42784154e-03 8.15151725e-03 1.46806501e-02 1.64301600e-02
      3.34442989e-03 9.21128318e-04 6.87089632e-04 3.02092492e-04
      1.25393169e-02 1.32530332e-02 9.99043509e-03 3.60954776e-02
      4.98665720e-02 2.27780975e-02 1.86557844e-02 1.64007526e-02
      1.01215160e-02 6.18200842e-03 1.13055548e-02 3.48853841e-02
      1.73781663e-01 2.60670394e-01 7.30905235e-02 1.48683675e-02
      1.52066899e-02 9.22341738e-03 5.00028357e-02 5.00635728e-02
      7.23014772e-02 9.69040468e-02 5.06227538e-02 2.01545190e-02
      1.19254552e-02 5.63844712e-03 1.54223805e-02 1.09946039e-02
      8.13852064e-03 1.26506453e-02 3.09599675e-02 1.79044604e-02
      1.17296865e-02 5.91795938e-03 3.01758968e-03 3.30700609e-03
      1.18533470e-01 7.71725699e-02 1.71307877e-01 1.90521553e-01
      5.04979119e-02 1.66111849e-02 1.34088127e-02 7.64681026e-02
      2.08585963e-01 1.10258736e-01 1.53441638e-01 2.60670394e-01
      2.60670394e-01 2.27402121e-01 5.14221229e-02 2.90402249e-02
      2.22151112e-02 4.92831841e-02 5.48109338e-02 1.41203940e-01
      2.13380009e-01 2.60670394e-01 1.14201836e-01 4.82097305e-02
      3.32811512e-02 1.33554451e-02 2.22573709e-02 1.25097129e-02
      1.13418661e-02 1.15689011e-02 1.66781321e-02 7.56375538e-03
      5.77139715e-03 9.65692289e-03 9.38692037e-03 9.53256339e-03
      5.12593463e-02 3.20849270e-02 1.16387263e-01 1.79287657e-01
      8.31049979e-02 3.59735563e-02 2.39440389e-02 3.62343900e-02
      9.12749320e-02 6.49663582e-02 1.00640655e-01 2.53396124e-01
      2.60670394e-01 1.30169958e-01 6.02668487e-02 3.30386497e-02
      1.59017500e-02 3.29730995e-02 1.64599363e-02 2.23678257e-02
      8.27532709e-02 1.54540524e-01 7.72732347e-02 4.22831438e-02
      2.34477501e-02 4.21733782e-03 5.57594514e-03 3.03151645e-03
      4.55086725e-03 6.39569014e-03 3.28504387e-03 1.02363564e-02
      2.89100665e-03 5.89155871e-03 2.29157228e-03 1.83065736e-03
      4.58235713e-03 1.04856575e-02 3.57689708e-02 1.36799589e-01
      7.18470737e-02 1.59665812e-02 5.76119125e-03 6.14280719e-03
      1.79851451e-03 3.64705455e-03 3.03673334e-02 6.83043450e-02
      1.23036265e-01 1.03511818e-01 3.77654210e-02 1.18659055e-02
      1.29832458e-02 3.18362727e-03 1.63566309e-03 5.86856203e-03
      1.86904408e-02 3.27253193e-02 3.95002589e-02 6.64846180e-03
      2.34535336e-03 1.58839696e-03 1.01203460e-03 6.96560019e-04
      7.29264517e-04 1.40178599e-03 8.77080718e-04 8.07979517e-03
      2.88584793e-04 1.09265815e-03 4.81154362e-04 5.24361851e-04
      4.50771861e-02 4.72351275e-02 1.87128410e-02 1.27870543e-02
      9.46813822e-03 7.85852037e-03 6.72896951e-03 7.33592315e-03
      1.97722968e-02 5.11756837e-02 4.96416427e-02 6.15691021e-02
      3.68393175e-02 3.03399246e-02 1.99014135e-02 1.91514809e-02
      2.25534383e-02 2.70452723e-02 8.80156010e-02 4.72101346e-02
      2.93420255e-02 3.02713308e-02 4.67284583e-02 8.88005868e-02
      8.61768425e-02 7.96904862e-02 8.82090852e-02 9.01032537e-02
      1.65413059e-02 7.06393039e-03 9.84724518e-03 8.40959139e-03
      1.56193329e-02 1.95188746e-02 5.98383099e-02 9.00064483e-02
      4.72957753e-02 2.48215459e-02 1.30472705e-02 2.07392648e-02
      5.06189326e-03 1.12534082e-02 8.08219519e-03 1.26104802e-02
      2.11832784e-02 1.49717972e-01 7.95525089e-02 3.44332866e-02
      3.01297233e-02 2.73741633e-02 2.75874157e-02 2.52617039e-02
      3.96992676e-02 7.75167868e-02 2.00099930e-01 8.18045437e-02
      3.28585021e-02 3.48929390e-02 4.44521420e-02 3.44507247e-02
      6.03643954e-02 6.08753264e-02 1.36455938e-01 7.75796771e-02
      4.87255938e-02 2.83960458e-02 2.85006817e-02 2.79388092e-02
      2.58746278e-02 2.14819890e-02 2.86416113e-02 6.11111261e-02
      2.26872087e-01 4.17368002e-02 7.42874481e-03 3.18406569e-03
      2.31787664e-04 2.92643998e-03 3.45672178e-03 8.15449469e-03
      3.62109952e-02 2.76660472e-01 2.35632315e-01 4.32977825e-02
      1.44823035e-02 4.71769506e-03 1.81951709e-02 2.72079464e-02
      3.12147904e-02 1.22829244e-01 2.76660472e-01 2.75686979e-01
      6.96092620e-02 3.68074030e-02 2.00514626e-02 1.13791069e-02
      2.40558591e-02 6.04179166e-02 2.76660472e-01 2.76660472e-01
      1.13115750e-01 2.83085499e-02 1.53460708e-02 8.32089037e-03
      6.29578577e-03 8.47147405e-03 1.59355626e-02 1.35923848e-01
      1.53149694e-01 2.09318027e-02 1.45416409e-02 9.65948682e-03
      1.69115185e-04 1.10236499e-04 2.75780400e-03 2.67884694e-03
      2.47683488e-02 2.76660472e-01 9.75899175e-02 3.85138430e-02
      2.44766288e-02 4.58573969e-03 2.37346580e-03 5.64442994e-03
      1.55175636e-02 5.32954782e-02 2.54027694e-01 1.01426199e-01
      2.75867116e-02 1.70982871e-02 5.50473761e-03 2.47777742e-03
      1.13011021e-02 3.44846845e-02 1.15962833e-01 1.01223379e-01
      3.30632254e-02 1.47735961e-02 6.69061439e-03 3.34772887e-03
      6.96617225e-03 1.21116526e-02 9.11038741e-03 2.98646260e-02
      1.75826531e-02 1.80922225e-02 2.03346740e-02 1.12565355e-02
      9.72730480e-03 6.60189241e-03 7.58708920e-03 9.44697578e-03
