<?xml version="1.0"?>
<opencv_storage>
<opencv_ml_svm>
  <format>3</format>
  <svmType>C_SVC</svmType>
  <kernel>
    <type>LINEAR</type></kernel>
  <C>1.</C>
  <term_criteria><iterations>10000</iterations></term_criteria>
  <var_count>3600</var_count>
  <class_count>2</class_count>
  <class_labels type_id="opencv-matrix">
    <rows>2</rows>
    <cols>1</cols>
    <dt>i</dt>
    <data>
      0 1</data></class_labels>
  <sv_total>1</sv_total>
  <support_vectors>
    <_>
      -4.65418063e-02 -5.33637917e-03 1.26647549e-02 1.95494331e-02
      7.04307482e-02 3.48678157e-02 2.18127705e-02 5.92555152e-03
      -4.35960405e-02 -1.13233171e-01 -5.17056696e-02 1.77443549e-02
      6.76729605e-02 1.11759424e-01 6.03410192e-02 4.99715507e-02
      3.16154473e-02 -8.63515511e-02 -4.00783755e-02 -4.33670245e-02
      -1.80857237e-02 -2.62121130e-02 2.02847533e-02 2.70739347e-02
      3.89218368e-02 2.14271974e-02 -2.43048016e-02 -1.90275423e-02
      -4.48022597e-03 1.88460201e-02 -1.10982629e-02 -4.48832102e-03
      1.68011396e-03 8.65564775e-03 -2.01508421e-02 -3.48633379e-02
      -5.44143431e-02 5.48021458e-02 4.11442742e-02 4.14038450e-02
      3.13829966e-02 8.28284770e-03 5.72715439e-02 1.04172593e-02
      -8.48685429e-02 -5.81383035e-02 3.75017077e-02 7.81008303e-02
      4.77284454e-02 4.04394194e-02 -2.72902064e-02 -1.93092576e-03
      -2.01962721e-02 -2.15387493e-02 -5.95510416e-02 2.36744583e-02
      1.09283842e-01 1.19510777e-01 6.80109933e-02 -2.10525822e-02
      1.21940643e-01 8.12692195e-02 -1.84344687e-02 -1.45354629e-01
      -7.51305148e-02 1.88358594e-02 7.29332492e-02 3.60249616e-02
      4.81963418e-02 1.01849928e-01 2.24070791e-02 -1.16578206e-01
      -9.17457789e-03 3.27212065e-02 3.24495547e-02 5.78605719e-02
      4.41728719e-02 -3.71620134e-02 -9.42704268e-03 -6.63557500e-02
      -6.67423457e-02 -8.15303773e-02 -3.31569836e-02 1.38568766e-02
      -5.32746017e-02 -7.62986904e-03 -5.52819967e-02 5.18144108e-02
      -4.03629094e-02 -7.98139274e-02 -8.24507624e-02 -1.23422183e-02
      1.22827105e-02 -1.49144558e-02 -6.64189607e-02 -3.20617892e-02
      2.45579183e-02 1.88827910e-03 -5.13242595e-02 -7.88124204e-02
      -8.02172348e-02 5.42901596e-03 5.00979200e-02 -2.37291921e-02
      -5.31563461e-02 4.16958630e-02 7.76915997e-02 -3.87909934e-02
      -1.35183567e-02 -3.20795402e-02 -5.82530862e-03 2.21095178e-02
      1.52025018e-02 -1.39853992e-02 -2.31726244e-02 -3.62528116e-02
      -2.98167542e-02 3.95786902e-03 -3.43366005e-02 -7.31205707e-03
      -2.51322053e-02 9.48490668e-03 -5.94616868e-03 -3.12621519e-03
      -1.83838159e-02 -9.55574214e-03 -2.40651127e-02 -4.35590111e-02
      -3.03485841e-02 -7.22919255e-02 -1.00841947e-01 -7.94108436e-02
      -6.08186563e-03 3.55238467e-02 1.67349093e-02 -3.85337323e-02
      -2.09586620e-02 -1.21064065e-03 -3.70931649e-03 -8.63643736e-02
      -5.15860505e-02 7.10320892e-03 5.61731402e-03 -1.11070443e-02
      -3.49734500e-02 -1.76886637e-02 5.34602441e-03 2.66857669e-02
      4.48792316e-02 2.21330933e-02 1.80924721e-02 1.23448335e-02
      -2.29045879e-02 1.17042027e-02 -1.15215965e-02 6.48188312e-03
      -2.16408260e-02 6.40425878e-03 3.78224486e-03 2.21317746e-02
      6.86321221e-03 4.93269227e-03 -7.86492415e-03 2.36491803e-02
      6.98106587e-02 3.84837203e-02 1.70384289e-03 -1.22754918e-02
      8.47180188e-03 -4.01836038e-02 -5.59631735e-02 -1.95863470e-03
      7.76235852e-03 1.88516974e-02 2.66478471e-02 -9.79242753e-03
      -3.16841118e-02 -5.82979666e-03 -1.90304276e-02 -1.51183959e-02
      1.62932388e-02 2.28543412e-02 4.81574945e-02 4.36696298e-02
      2.76148412e-02 -2.67363861e-02 -1.13194091e-02 -1.05339009e-02
      -1.06817959e-02 -2.50542425e-02 2.00489238e-02 9.48187709e-02
      8.95134360e-02 9.28213671e-02 -2.42466889e-02 8.97519961e-02
      6.13035075e-02 -6.56481553e-03 -1.53275505e-01 -1.00413062e-01
      9.04969200e-02 1.39225379e-01 4.97159995e-02 5.94834238e-03
      1.27587840e-01 -7.13978894e-03 -1.22733228e-01 1.54843098e-02
      1.12227574e-02 8.75685662e-02 8.27900916e-02 5.60543686e-03
      -1.55467123e-01 -9.55421291e-03 -1.68973971e-02 -3.96301923e-03
      -3.03665381e-02 -1.55543704e-02 1.23560261e-02 -3.65309417e-02
      -7.70435389e-03 -4.29009162e-02 3.95218916e-02 1.71829965e-02
      1.80437532e-03 -6.28618523e-02 -1.35864103e-02 3.02410945e-02
      1.61084123e-02 4.11644345e-03 -2.93077473e-02 2.15178914e-02
      8.22167192e-03 -2.84006651e-02 -9.20502618e-02 -8.85344595e-02
      4.55181636e-02 1.14714056e-01 7.65732676e-02 -3.90478186e-02
      2.81027313e-02 5.97607754e-02 -5.19365184e-02 1.91553980e-02
      3.79643962e-03 2.28221640e-02 1.47512751e-02 -2.17053518e-02
      -1.13173611e-01 -9.93814468e-02 -3.35707068e-02 -3.53276022e-02
      2.15461990e-03 -1.59559119e-02 -1.54302467e-03 -1.14832418e-02
      4.90447087e-03 1.14308698e-02 1.02137113e-02 1.08952951e-02
      5.29931393e-03 -5.04609570e-02 -2.98172757e-02 -1.95976384e-02
      -4.27808911e-02 -7.61455297e-02 -3.85255329e-02 8.15019291e-03
      2.95675136e-02 -2.02178061e-02 -6.25399873e-02 -2.75927559e-02
      1.08465506e-03 9.06460639e-03 -3.59495580e-02 -2.18635518e-02
      1.31176533e-02 -1.21003063e-02 -5.73680140e-02 4.35543917e-02
      1.23621924e-02 -4.65481821e-03 -8.92270263e-03 -8.69155675e-02
      -3.42615359e-02 -2.07755733e-02 -1.41168647e-02 -2.25638393e-02
      2.29954105e-02 9.27511323e-03 2.63285283e-02 3.26071074e-03
      -9.58158984e-04 2.61278148e-03 9.58957151e-03 9.50441137e-03
      2.37683076e-02 3.12312762e-03 5.41027300e-02 8.49713460e-02
      5.99546842e-02 1.17111914e-02 -1.33964829e-02 3.84676340e-03
      -3.30375694e-02 -4.53758314e-02 -3.71242687e-03 1.95786990e-02
      5.72488196e-02 6.11950159e-02 -1.26562929e-02 -5.72763085e-02
      -3.06475237e-02 -3.52221169e-02 -1.52783832e-02 1.90431774e-02
      1.18674031e-02 5.88307083e-02 4.29253690e-02 -1.54345604e-02
      -3.55931409e-02 -3.59550826e-02 -1.12858973e-02 1.29140653e-02
      -1.92824714e-02 7.69796502e-03 7.10658431e-02 5.37116602e-02
      5.64258844e-02 -1.09028099e-02 4.20488901e-02 4.74616215e-02
      -1.73089225e-02 -1.55204132e-01 -7.05064014e-02 9.05353799e-02
      1.44778073e-01 3.11232470e-02 -3.16438894e-03 1.02557331e-01
      -3.44482297e-03 -1.20531082e-01 -2.50683352e-03 4.65243263e-03
      1.45002112e-01 1.12479150e-01 3.29153775e-03 -1.61284417e-01
      -4.86268103e-02 -6.70462027e-02 -5.00587747e-02 -6.24288851e-03
      -3.40082357e-03 3.87396403e-02 5.93850613e-02 -8.15291703e-02
      -2.79761087e-02 -1.13849603e-02 -3.75447758e-02 -2.34684348e-02
      -3.24971452e-02 -1.91872511e-02 1.64422579e-02 3.30309868e-02
      4.96205539e-02 1.61769204e-02 1.19005609e-02 1.62673667e-02
      -2.96654105e-02 -1.05362244e-01 -9.45720002e-02 3.67002152e-02
      1.34667054e-01 7.19618946e-02 -3.53641026e-02 1.07397027e-02
      3.29080410e-02 -5.59528396e-02 -4.15484942e-02 -1.48643774e-03
      4.25893702e-02 4.17434387e-02 2.64618685e-03 -7.09281415e-02
      -1.11986347e-01 -8.67764652e-02 -5.67473918e-02 3.35445404e-02
      2.58922251e-03 7.31218755e-02 6.46063685e-02 -7.79161379e-02
      -1.50242537e-01 -2.83577833e-02 -7.10006207e-02 -8.93578399e-03
      -3.29634063e-02 -1.60421934e-02 -7.02132843e-03 -1.03450296e-02
      -1.26866661e-02 2.20970456e-02 2.09911168e-02 2.20915917e-02
      -1.40703609e-02 -7.55592510e-02 -5.63673936e-02 -2.37725433e-02
      2.61138752e-02 3.61210369e-02 3.65544893e-02 1.60845872e-02
      -1.87801197e-02 -8.66203159e-02 2.86312345e-02 2.65192948e-02
      -4.59319772e-03 5.76015795e-03 -1.48758143e-01 -6.70271218e-02
      -3.61900479e-02 -3.71672511e-02 -8.01868811e-02 2.49563530e-02
      3.47558521e-02 6.64826706e-02 5.29736727e-02 -5.08596972e-02
      -8.57050270e-02 -1.92446224e-02 -1.62006095e-02 -2.31172945e-02
      2.26562750e-02 4.49955799e-02 7.98584968e-02 8.21154043e-02
      4.50803759e-03 -9.26841795e-03 3.60588683e-03 -1.08387573e-02
      -9.98868421e-03 3.29141207e-02 4.21716943e-02 8.51946101e-02
      6.89324811e-02 -1.06746117e-02 -5.33520840e-02 -3.07866074e-02
      -8.12127348e-03 1.89710185e-02 8.05865228e-02 3.36551480e-02
      9.31549370e-02 5.91268688e-02 -1.94718204e-02 -5.85412718e-02
      -4.02543768e-02 1.20336097e-03 5.84384128e-02 8.52732081e-03
      1.77457184e-02 2.49194000e-02 2.64333636e-02 2.00072564e-02
      -8.96398153e-04 4.41100774e-03 9.95587179e-05 1.71004445e-03
      -6.93794489e-02 -1.99247096e-02 4.82817218e-02 9.28777531e-02
      1.94027589e-03 -3.41991782e-02 5.36577702e-02 2.93256459e-03
      -4.96147908e-02 -7.76454899e-03 1.70027744e-03 1.48715436e-01
      1.36421084e-01 -8.91458020e-02 -1.80979967e-01 -6.79921806e-02
      -6.28386214e-02 -3.98372263e-02 4.59146919e-03 8.22587125e-03
      6.46663308e-02 8.13614652e-02 -2.15787124e-02 -7.60528743e-02
      -2.04144809e-02 -3.99650894e-02 -3.37952748e-02 7.13000353e-03
      9.60552972e-03 3.21181528e-02 5.41099012e-02 4.36256044e-02
      6.67084679e-02 4.18863855e-02 1.07336938e-02 -5.95074380e-03
      -5.67189828e-02 -7.05885291e-02 1.20328702e-02 9.10604224e-02
      6.99359253e-02 -3.92933488e-02 -9.58886091e-03 1.22559946e-02
      -5.23482896e-02 -3.95811126e-02 -1.26375742e-02 3.43919545e-02
      3.58429514e-02 -4.49796841e-02 -6.16894513e-02 -8.44815373e-02
      -1.03220433e-01 -6.63490370e-02 3.80057581e-02 -1.41299665e-02
      7.53160641e-02 6.52592182e-02 -7.23653752e-03 -1.02456979e-01
      -7.75769129e-02 -1.10436477e-01 -2.72693969e-02 -5.17420610e-03
      2.60564964e-03 8.81853625e-02 1.05382271e-01 4.19165492e-02
      -4.99890978e-03 8.28140939e-04 -1.58330379e-03 -4.05488117e-03
      -3.53689641e-02 -5.32341115e-02 -3.57075743e-02 2.32161731e-02
      3.79828699e-02 4.85179760e-02 8.23548716e-03 -3.47651588e-03
      -3.51922549e-02 1.69334374e-02 -2.88316887e-03 -1.61110032e-02
      2.86079906e-02 -1.25303820e-01 -7.07445219e-02 -4.59657311e-02
      -2.74002906e-02 -8.47277269e-02 4.20880169e-02 2.19833218e-02
      4.94698882e-02 7.81083778e-02 -1.08966567e-01 -1.81109652e-01
      -4.65094931e-02 -2.13804655e-02 -3.28234732e-02 4.74200882e-02
      2.48738639e-02 8.88235122e-02 4.36086133e-02 -7.82493781e-03
      -4.32383083e-02 -3.53774545e-03 -1.44297967e-03 -7.19909556e-04
      3.31726372e-02 2.64731497e-02 5.75086214e-02 4.00024876e-02
      -6.36724848e-03 -3.60905789e-02 -2.37624217e-02 4.61357972e-03
      2.57153921e-02 1.01916641e-01 2.25197673e-02 8.28251019e-02
      3.92477326e-02 -2.20357645e-02 -6.31994605e-02 -2.80788988e-02
      -1.32982316e-03 7.57752284e-02 -9.08929761e-03 8.23435560e-03
      4.28298377e-02 4.01336215e-02 1.80566981e-02 -2.12794747e-02
      1.63467927e-03 -9.67352465e-03 -1.00921169e-02 -2.25540269e-02
      -7.98566639e-03 1.69824529e-02 3.00880838e-02 1.86432004e-02
      1.14842188e-02 1.21778036e-02 -2.56723375e-03 -1.16407517e-02
      1.30193206e-02 1.07448478e-03 9.54809561e-02 1.28413633e-01
      -2.51865219e-02 -1.60933197e-01 -7.73736238e-02 -3.96293364e-02
      -1.22520197e-02 9.35275387e-03 1.60088204e-02 6.04735576e-02
      3.48391607e-02 -8.14619139e-02 -1.43957496e-01 -1.98504999e-02
      -2.70075146e-02 -4.14134935e-02 2.04009544e-02 -4.81010787e-03
      6.11385591e-02 8.95463303e-02 4.58338670e-02 2.68433355e-02
      5.10462373e-02 1.69496760e-02 -1.05376923e-02 1.23355379e-02
      -1.56539232e-02 6.20361343e-02 4.96553257e-02 1.55041395e-02
      -6.86857570e-03 1.81628717e-03 1.20973410e-02 3.03495601e-02
      1.81526486e-02 -1.34285297e-02 7.35989166e-03 -2.27416400e-02
      -4.54006307e-02 -8.51096362e-02 -7.50694126e-02 -7.88049847e-02
      -2.56302524e-02 3.56583893e-02 -4.31974195e-02 5.69500215e-02
      5.30725457e-02 -8.10238943e-02 -2.04402149e-01 -1.40464991e-01
      -1.35815203e-01 -4.66107465e-02 1.13087483e-02 -2.65002102e-02
      7.69680217e-02 8.57303366e-02 3.20842862e-02 -6.77875578e-02
      -3.00428700e-02 -1.13762589e-02 1.83936059e-02 2.33021043e-02
      8.30146484e-03 5.32085709e-02 1.23400530e-02 1.36209708e-02
      -1.75256636e-02 -1.38950087e-02 -3.93908331e-03 3.81150916e-02
      2.33679432e-02 -1.32230846e-02 -1.54284239e-02 9.55205411e-03
      -1.57542825e-01 -9.45095867e-02 -3.85229364e-02 -1.84366442e-02
      -2.48357486e-02 3.39775085e-02 -2.67550573e-02 1.14894779e-02
      2.98679806e-02 -1.40014380e-01 -2.21608162e-01 -7.76908994e-02
      -3.68235260e-02 -5.55090941e-02 -1.03875352e-02 -2.33319160e-02
      6.99679181e-02 8.21803138e-02 2.37857625e-02 -8.11935216e-02
      -1.54589349e-02 -2.00956799e-02 1.63664762e-03 8.00963044e-02
      1.68289375e-02 1.57715809e-02 -1.07396459e-02 -2.64449278e-03
      -1.49963377e-02 -2.10832115e-02 -1.79176256e-02 3.90504226e-02
      1.44511240e-03 3.74107882e-02 5.06407730e-02 4.60718051e-02
      7.37059768e-03 5.64354668e-05 3.13421041e-02 3.65422200e-03
      -9.21323895e-03 4.77165617e-02 4.02144492e-02 6.80386424e-02
      4.44041304e-02 3.64037529e-02 -3.45767252e-02 -1.35546539e-03
      -1.00278473e-02 5.16487285e-03 -7.13313650e-03 4.84943539e-02
      7.20560253e-02 8.48924220e-02 6.38169125e-02 -4.53804545e-02
      5.34015782e-02 5.27277812e-02 -2.53514089e-02 -3.80121544e-02
      -1.87647380e-02 1.51046170e-02 3.05176824e-02 3.73640135e-02
      2.93228272e-02 4.73189987e-02 2.41506826e-02 -3.53901908e-02
      4.08252981e-03 3.90495099e-02 4.03271616e-02 6.93656728e-02
      5.39564155e-02 -2.70112380e-02 -1.23408912e-02 -5.76873086e-02
      -5.91095760e-02 -5.48359677e-02 1.15260761e-02 3.25913727e-02
      -1.94419362e-02 1.45959370e-02 -3.59597243e-02 6.54504299e-02
      1.63841352e-03 -5.45315593e-02 -4.25237603e-02 1.51027292e-02
      2.66526490e-02 1.48268696e-03 -4.20909487e-02 -1.84964091e-02
      3.10041364e-02 3.45991887e-02 -6.33729761e-03 -5.02931625e-02
      -5.92645071e-02 1.91930998e-02 6.03399724e-02 -1.43506145e-02
      -1.43011594e-02 4.61332016e-02 9.44200009e-02 -1.53713915e-02
      3.32994363e-03 -7.03678727e-02 8.49609822e-03 5.45210391e-02
      1.62543934e-02 -2.22149603e-02 -4.23053801e-02 -3.43206748e-02
      -1.69441272e-02 3.24803405e-02 6.07585534e-04 3.97682609e-03
      2.54100263e-02 6.32798672e-02 1.48589294e-02 -1.26634445e-02
      -3.03090177e-03 3.62281874e-02 1.07138911e-02 -3.94176170e-02
      9.37343948e-03 -9.26159248e-02 -6.64241686e-02 -1.34387091e-01
      1.47006745e-02 4.50547189e-02 2.84090471e-02 -4.67389226e-02
      -3.84590439e-02 -9.76012263e-04 -7.43529713e-03 -5.70327565e-02
      -5.19679487e-02 3.85940745e-02 2.88164765e-02 6.52948488e-03
      1.73907001e-02 -3.61347236e-02 -3.88628766e-02 -3.15276422e-02
      -1.42556976e-03 -7.40806619e-03 -5.82271277e-05 2.67151054e-02
      6.11900687e-02 1.70945786e-02 -5.02674282e-02 -5.14948480e-02
      -3.10676470e-02 2.07595881e-02 3.42552667e-03 -5.83312067e-04
      3.05102160e-03 4.51633781e-02 -2.21873708e-02 -4.06880379e-02
      -5.75356372e-02 -6.76927865e-02 -7.85031542e-02 1.36229591e-02
      4.58706282e-02 2.51182299e-02 -3.69270481e-02 -1.96773522e-02
      -2.96596270e-02 -2.58317664e-02 -2.63804514e-02 -2.00460162e-02
      -2.59463396e-03 1.00419326e-02 1.05947861e-02 -7.25698145e-03
      1.22030647e-02 1.13726109e-02 2.59300489e-02 2.29365639e-02
      1.71419661e-02 -2.11819746e-02 -7.46449502e-03 -4.61989176e-03
      4.60028090e-03 -1.08236326e-02 2.49155685e-02 6.08963929e-02
      7.72274807e-02 5.46889640e-02 -3.63222435e-02 3.34607735e-02
      3.50154117e-02 -3.36592831e-02 -6.38717040e-02 -3.44463289e-02
      3.15272696e-02 6.99200928e-02 7.33980089e-02 1.64435618e-02
      6.19605780e-02 1.97761226e-02 -7.09118992e-02 1.12348888e-02
      2.78957631e-03 2.96965521e-02 3.98697518e-02 2.09230147e-02
      -5.32793775e-02 -7.73661071e-03 -7.76326144e-03 4.89421003e-03
      -2.69627254e-02 -1.68248173e-02 7.97336828e-03 -3.24867219e-02
      -5.40692871e-03 -1.56399682e-02 4.38010432e-02 2.94640828e-02
      9.42514464e-03 -6.90893680e-02 -2.56465701e-03 2.21763831e-02
      3.58813740e-02 -2.89845513e-03 -6.41258806e-03 2.81770099e-02
      2.76443176e-02 -3.13871913e-02 -9.36086178e-02 -7.40640610e-02
      5.01579866e-02 1.39552221e-01 8.07159916e-02 2.13853223e-03
      2.91914046e-02 7.30931684e-02 -5.14346100e-02 1.65702887e-02
      1.88476872e-03 2.23930925e-02 2.15242039e-02 -4.46395725e-02
      -1.04041554e-01 -6.46678135e-02 -3.02958377e-02 -4.44779396e-02
      1.44555327e-02 -3.04908901e-02 4.01207060e-03 -1.30756730e-02
      1.45316822e-02 1.28682824e-02 1.42002013e-02 2.37429235e-02
      2.07444634e-02 -6.97929710e-02 -6.96976855e-02 -1.85475163e-02
      -5.66416830e-02 -6.09537363e-02 -8.42943490e-02 4.17974442e-02
      2.66372189e-02 -2.94086356e-02 -8.05100054e-02 -5.39699681e-02
      -3.59388697e-03 3.14104855e-02 2.91838720e-02 3.43084782e-02
      6.46323711e-02 1.44688110e-03 -2.69274227e-02 4.38537598e-02
      1.31076192e-02 -3.67969945e-02 -1.75706912e-02 -1.14287592e-01
      -8.33353996e-02 -2.99914870e-02 -4.07489017e-02 -7.69151449e-02
      -1.27729811e-02 -1.21997353e-02 -8.61302763e-03 -4.43622796e-03
      7.50823272e-03 6.21483196e-03 5.59020368e-03 3.89380078e-03
      -1.30180046e-02 -3.80808450e-02 -3.00548635e-02 -1.07584121e-02
      -2.22950671e-02 -3.71927992e-02 4.11043949e-02 6.59649968e-02
      2.60727331e-02 -5.98434880e-02 -1.20807923e-02 -2.73467284e-02
      1.55382678e-02 3.67827304e-02 2.71701608e-02 2.63255201e-02
      2.58094128e-02 2.55682436e-03 -3.14957835e-02 7.93168545e-02
      1.63837411e-02 4.52092476e-02 1.86995212e-02 -1.17039448e-02
      2.53178626e-02 1.40028289e-02 -1.19971111e-02 2.83633126e-03
      -8.11001752e-03 5.20883175e-03 2.81721056e-02 4.27826233e-02
      2.72589009e-02 -5.84508386e-03 1.45584615e-02 1.67849530e-02
      -1.08792102e-02 -5.67785539e-02 -3.11829634e-02 2.76150052e-02
      6.96649924e-02 6.21462539e-02 -3.67921754e-03 4.45794687e-02
      1.04654720e-02 -4.90151830e-02 5.62993204e-03 -4.49894648e-03
      4.69712615e-02 7.60672390e-02 2.90687755e-02 -8.42856616e-02
      -2.29744483e-02 -2.61591785e-02 -6.70774886e-03 -1.56242820e-03
      -2.70132092e-03 6.35944540e-03 4.17288207e-03 -7.11595640e-02
      -2.17496734e-02 4.02289536e-03 -1.51421390e-02 -9.45013482e-03
      -3.62679921e-02 -2.69401670e-02 4.22970485e-03 2.58991886e-02
      4.19611447e-02 2.77077742e-02 1.21182017e-02 1.54656675e-02
      -1.92712620e-02 -1.07543916e-01 -9.32085812e-02 3.19013335e-02
      1.42962992e-01 9.55256000e-02 -6.40401617e-03 8.14977847e-03
      3.42552587e-02 -7.29301274e-02 -4.52270694e-02 -1.32870935e-02
      3.00687179e-02 4.24208492e-02 -1.49083408e-02 -7.37626404e-02
      -9.81618464e-02 -8.88030231e-02 -7.79722333e-02 3.40767913e-02
      1.61461218e-03 4.82548811e-02 4.03334647e-02 -1.23660274e-01
      -1.77278787e-01 -2.67950743e-02 -5.89415431e-02 -2.32617417e-03
      -6.42867088e-02 -4.22486514e-02 -1.63276792e-02 -1.25774965e-02
      -3.19406167e-02 1.49261607e-02 5.19210026e-02 3.36138643e-02
      -3.18819843e-02 -1.09139420e-01 -1.10060588e-01 -3.21548283e-02
      5.32666594e-02 3.70130502e-02 2.37010010e-02 4.85728607e-02
      -2.99215838e-02 -5.95446229e-02 -4.09456268e-02 -4.12160456e-02
      -8.74224901e-02 -4.35297657e-03 -7.05162063e-02 -7.99091458e-02
      -5.29996008e-02 -1.00679442e-01 -7.92414322e-02 4.72127274e-02
      5.22577912e-02 2.09019259e-02 3.09439618e-02 -9.81951281e-02
      -1.18591405e-01 -3.27233858e-02 -2.78712139e-02 -4.23139669e-02
      -2.89158113e-02 -2.99728941e-02 -8.00473057e-03 1.11507317e-02
      1.00577110e-02 4.22331356e-02 4.39738445e-02 1.67716462e-02
      -4.25094664e-02 -3.65795419e-02 -2.24998854e-02 6.46537868e-03
      4.10094298e-02 5.69606498e-02 5.16520478e-02 2.92811655e-02
      2.39596656e-03 -3.40472460e-02 3.45052257e-02 -2.96524465e-02
      3.73912305e-02 4.56890874e-02 4.30586003e-03 6.67912960e-02
      3.22514102e-02 -2.22005006e-02 -3.86898257e-02 3.66773680e-02
      8.40032101e-02 1.75286829e-02 -5.96311642e-03 -1.18940473e-02
      -2.41385866e-03 7.21547008e-03 5.84266149e-03 -1.49520328e-02
      -1.58420652e-02 -9.53537039e-03 1.59792546e-02 3.62012759e-02
      2.53147371e-02 -1.94138382e-02 1.44537324e-02 3.22514842e-03
      -1.06935734e-02 1.35707268e-02 2.43456243e-03 6.27559572e-02
      7.84318373e-02 2.72363070e-02 -7.72096962e-02 -2.65427195e-02
      -2.63905022e-02 -2.49174703e-03 -5.97734470e-04 1.02267266e-04
      1.61141995e-02 1.12022841e-02 -1.41127840e-01 -3.63923684e-02
      5.52013796e-03 -2.11400725e-02 -1.65299196e-02 7.57321104e-05
      -1.05695659e-03 8.02421477e-03 2.16648802e-02 1.46025410e-02
      1.96579099e-02 1.02701886e-02 2.07608473e-03 -2.11668899e-03
      -1.43052191e-02 -4.98557426e-02 1.89730413e-02 7.24226087e-02
      4.54440042e-02 -9.13963001e-03 1.13653892e-03 2.75434218e-02
      -1.69162415e-02 -3.84385847e-02 -9.67291370e-03 3.03902589e-02
      1.74552556e-02 -5.36478609e-02 -7.36591145e-02 -8.36831927e-02
      -8.46553743e-02 -7.29999170e-02 4.47852500e-02 -1.09760221e-02
      6.14768825e-02 4.85955030e-02 -5.54462187e-02 -1.28271148e-01
      -7.50501677e-02 -9.41560343e-02 -9.42159072e-03 -5.79629885e-03
      -3.63489904e-04 8.55078772e-02 7.63864070e-02 2.53550988e-02
      -3.15429457e-02 -3.31762596e-03 -6.15512661e-04 -3.46667669e-03
      -4.93037961e-02 -1.00365467e-01 -6.67015612e-02 2.32511740e-02
      1.00816719e-01 1.07559800e-01 1.40781607e-02 -1.48356361e-02
      -5.50762936e-02 -2.29989495e-02 -7.13773966e-02 -1.08173713e-01
      -8.12486559e-03 -8.50344300e-02 -7.49355704e-02 -3.12502794e-02
      -7.98607543e-02 -1.19653292e-01 3.39252613e-02 1.00420564e-02
      -3.11062615e-02 4.60658669e-02 -1.06422640e-01 -1.36318773e-01
      -6.73193857e-02 -4.37798798e-02 -8.04895610e-02 7.33097196e-02
      4.40197662e-02 7.92466700e-02 6.99447393e-02 -2.97953319e-02
      -7.94238523e-02 3.39200022e-03 6.63254503e-03 -1.71782020e-02
      -1.64399203e-02 -4.22773845e-02 -1.82635374e-02 1.80025734e-02
      4.02254872e-02 3.38535197e-02 1.54769206e-02 7.39586493e-03
      -5.14414348e-03 2.29647495e-02 -4.61359173e-02 -1.47693893e-02
      6.69885352e-02 6.95555285e-03 8.21455121e-02 4.13615145e-02
      -1.44986091e-02 -3.23326848e-02 3.52557078e-02 4.49112132e-02
      -2.19600159e-03 -1.22298365e-02 -2.64553782e-02 -1.47474427e-02
      1.40163060e-02 1.29277259e-02 -2.32498944e-02 6.66763708e-02
      9.11271945e-02 8.22341349e-03 -1.68434735e-02 -2.52403449e-02
      -1.42127404e-03 2.26023551e-02 2.03528963e-02 1.60579360e-03
      1.17299557e-02 4.45824163e-03 3.46433073e-02 3.22510898e-02
      1.54724636e-03 -3.71053070e-02 -1.86276641e-02 -1.49968490e-02
      -1.38790303e-04 -9.37195786e-04 2.81676464e-03 1.70921125e-02
      8.68669711e-03 -1.30317539e-01 -3.81785147e-02 3.63759813e-03
      -1.66770611e-02 -1.86902378e-02 2.82302476e-03 -5.91654889e-03
      1.82866547e-02 7.06839263e-02 3.00905611e-02 2.41545141e-02
      1.32292788e-02 2.95211608e-03 -2.80896085e-03 1.42703736e-02
      -2.87249801e-03 3.43632847e-02 3.30125503e-02 3.90123874e-02
      6.46267971e-03 6.25191163e-03 6.83729863e-03 2.29156855e-02
      1.10445181e-02 -5.04938560e-03 6.87587541e-03 -1.52373314e-02
      -1.25283390e-01 -7.24566877e-02 -5.53129427e-02 -5.83395138e-02
      -3.58502679e-02 2.17629578e-02 -3.05423532e-02 4.73382212e-02
      2.82030981e-02 -8.37503299e-02 -1.52823970e-01 -9.07908678e-02
      -9.38511714e-02 -2.46839207e-02 -1.08723100e-02 -2.21204050e-02
      1.01999149e-01 9.38606411e-02 8.11378136e-02 -6.78653121e-02
      -3.11706103e-02 -1.55543769e-02 -1.51315902e-03 2.53150854e-02
      5.14306594e-03 5.27484082e-02 7.76252476e-03 3.15994993e-02
      -7.94284418e-03 -7.07384571e-03 -4.08883207e-03 3.81663255e-02
      -8.46855692e-04 -7.29277134e-02 -8.18236172e-02 -1.79249998e-02
      -1.37264639e-01 -7.66452625e-02 -5.46115078e-02 -4.31723818e-02
      -6.90561384e-02 9.31649655e-03 -9.65967961e-03 -4.72024977e-02
      4.03580666e-02 -1.40559182e-01 -1.56370118e-01 -5.83207272e-02
      -6.87299222e-02 -1.41720593e-01 -2.79245712e-03 -2.07837932e-02
      3.75964455e-02 3.00705880e-02 3.97248752e-03 -1.47697181e-01
      -2.17855666e-02 -1.99953634e-02 -5.23527525e-02 9.32573155e-02
      3.54850814e-02 2.03751214e-02 -1.52028715e-02 -7.44779548e-03
      -2.47743446e-02 -2.37362981e-02 -2.52921972e-02 3.15726809e-02
      -8.78963619e-03 -5.96316531e-02 -3.90371718e-02 1.82610583e-02
      -1.30433887e-02 3.48987617e-02 1.64713450e-02 -9.65070911e-03
      -8.66968092e-03 3.97727825e-02 5.02303839e-02 -4.07365188e-02
      -1.64384972e-02 -3.55864540e-02 -4.00184058e-02 -1.03368191e-03
      -4.36177105e-03 -5.67289293e-02 4.19487953e-02 9.47524831e-02
      2.71101412e-03 -1.73398126e-02 -4.34931666e-02 -6.88910484e-03
      1.37292836e-02 2.53537204e-02 -6.76530134e-03 1.18465237e-01
      8.13053027e-02 2.15710681e-02 -2.17243396e-02 -2.77615637e-02
      -1.06586562e-02 1.28310244e-03 -3.70643032e-03 1.47998054e-02
      -2.02165777e-03 1.16285617e-02 5.36436588e-03 4.09892499e-02
      1.37869399e-02 -1.53539665e-02 -1.04112020e-02 -2.07612179e-02
      -2.29000244e-02 -1.67751089e-02 -1.70491301e-02 1.56022434e-03
      -1.71053857e-02 -7.30365573e-04 -1.87029201e-03 3.79183404e-02
      3.06929518e-02 1.00631304e-02 -2.98847556e-02 -4.03385377e-03
      2.56155171e-02 2.28860304e-02 1.44576579e-02 -1.04537122e-02
      1.87499113e-02 3.87463495e-02 6.00404013e-03 -3.13019715e-02
      -2.64822412e-02 6.26574829e-03 2.80673467e-02 1.26278829e-02
      1.07869171e-02 1.76138822e-02 2.69451123e-02 -1.10823903e-02
      -7.39421323e-03 -8.60177875e-02 -2.53248066e-02 2.05272532e-04
      -1.88707542e-02 -2.00984776e-02 -3.76521312e-02 -1.55479535e-02
      1.51579420e-03 2.22652145e-02 -2.02658772e-02 1.03054638e-03
      1.20738028e-02 2.63804086e-02 3.74312848e-02 -1.92835797e-02
      1.33825671e-02 6.97035715e-02 -3.14287879e-02 -4.35283221e-02
      1.79111157e-02 -4.83926870e-02 -6.76045120e-02 -5.34272790e-02
      4.56979387e-02 3.91464680e-02 1.03107197e-02 -8.06687102e-02
      -6.32866025e-02 -1.10689113e-02 -6.06706075e-04 -3.91364172e-02
      1.95670477e-03 4.89090122e-02 3.13209444e-02 -1.73980165e-02
      1.53319808e-02 -8.28222185e-02 -7.70185441e-02 -4.84830253e-02
      -1.28765982e-02 -2.14884654e-02 5.80940256e-03 3.27034481e-02
      8.75069275e-02 -3.55177978e-03 -9.04889405e-02 -6.88444749e-02
      -3.99986506e-02 1.95592046e-02 2.51663066e-02 2.34467797e-02
      1.57522663e-04 1.10619187e-01 4.31180466e-03 -1.22370077e-02
      -8.90574604e-03 -1.13504170e-03 -7.00830156e-03 3.11157126e-02
      6.50197789e-02 1.55069949e-02 2.23000273e-02 -4.42100875e-02
      -8.21868628e-02 -5.78438155e-02 -1.30698150e-02 2.58973014e-04
      1.97883453e-02 1.82078369e-02 1.49159813e-02 -1.54680777e-02
      -4.49154573e-03 -8.77123419e-03 1.17006339e-02 7.33199529e-03
      -2.25765575e-02 -1.97474323e-02 -1.52403361e-03 1.48617774e-02
      4.64015640e-02 7.11925924e-02 -1.02155562e-02 -2.36744750e-02
      -1.08559700e-02 -3.42732109e-02 -7.20660994e-03 1.78374629e-03
      3.93245965e-02 1.32263079e-01 1.22949935e-01 -4.07935493e-02
      -5.38678765e-02 -3.76555435e-02 -2.44444497e-02 -1.73990689e-02
      1.13626923e-02 -7.49170035e-03 8.45385641e-02 4.53378335e-02
      1.53064611e-03 -6.38862839e-03 1.94336232e-02 3.30219641e-02
      -1.76091632e-03 2.62584239e-02 2.42215022e-02 5.09675816e-02
      -1.15311854e-02 -1.37246782e-02 -4.14089486e-03 -1.60910562e-02
      -6.06765645e-03 -3.51297716e-03 1.59233212e-02 1.43493740e-02
      5.85263269e-03 -4.21328656e-02 -2.81071998e-02 -7.86933023e-03
      4.10147384e-03 2.96654156e-03 5.89417899e-03 2.43243854e-03
      1.58156678e-02 -1.86854843e-02 -6.11825362e-02 -5.01906462e-02
      1.20356334e-02 4.58027907e-02 1.90483201e-02 1.47074023e-02
      1.22176670e-02 2.33667996e-02 -5.13345301e-02 1.16650490e-02
      -6.41492987e-03 6.39418326e-03 9.12716705e-03 -3.32812555e-02
      6.26353503e-05 -1.10553224e-02 -9.67856590e-03 -1.86890867e-02
      -1.79957040e-03 -3.61973532e-02 5.48937009e-04 -1.18094590e-02
      8.20136257e-03 1.36220176e-02 -4.36857948e-03 5.86988963e-03
      4.57738899e-03 -9.46565419e-02 -8.82152691e-02 -2.92489007e-02
      -5.34811243e-02 -9.07482952e-02 -5.82450218e-02 4.01581824e-02
      2.07085423e-02 -5.53482287e-02 -9.42716822e-02 -1.12548620e-01
      -5.75329624e-02 2.56279088e-03 -6.26940234e-03 1.25396280e-02
      6.01985939e-02 -9.00667813e-03 -6.27631992e-02 3.04117855e-02
      -5.64349853e-02 -7.43604302e-02 -2.19438262e-02 -7.35404193e-02
      -7.47969598e-02 -1.32159311e-02 -5.84945343e-02 -8.45376402e-02
      -2.89239679e-02 -4.72216010e-02 -3.22377868e-02 -1.29839554e-02
      4.85368865e-03 1.84977322e-03 2.64727324e-03 -6.25347858e-03
      -2.06614584e-02 -5.06656766e-02 -5.96677847e-02 -5.70371225e-02
      -2.95440182e-02 -8.70768388e-04 4.80018966e-02 6.82553798e-02
      6.85167080e-03 -1.10176578e-02 -6.77424744e-02 -1.20168254e-01
      3.65028456e-02 5.88742048e-02 2.53368169e-02 2.99735405e-02
      1.37141440e-02 1.39856304e-03 -5.24049737e-02 4.81745675e-02
      -4.38842215e-02 2.98599210e-02 2.03775428e-02 2.41231080e-02
      4.95828949e-02 1.56846847e-02 -1.91019308e-02 -8.97311233e-03
      1.69794057e-02 -1.15159191e-02 -1.95784196e-02 -7.07754679e-03
      -8.45387019e-03 1.73352193e-04 -1.96584384e-04 8.27181712e-03
      5.05898297e-02 6.11739866e-02 -1.41049763e-02 -9.19348970e-02
      -2.14594956e-02 2.40173079e-02 3.85713726e-02 2.96340231e-02
      -1.00670662e-02 5.47197722e-02 1.34888897e-02 -7.04296455e-02
      1.85214877e-02 4.86015081e-02 6.78917766e-02 4.45822366e-02
      3.73296663e-02 5.73309883e-02 3.20041738e-02 8.10291804e-03
      1.90061179e-03 9.20563340e-02 3.85195203e-02 3.63412872e-02
      5.44403009e-02 -1.77156122e-03 2.16272213e-02 6.24013878e-03
      -7.63143459e-03 -1.41174663e-02 -3.95235093e-03 3.74813844e-03
      5.75750368e-03 8.03328492e-03 -3.81911610e-04 4.16357117e-03
      4.14586673e-03 -2.97151208e-02 -4.31291573e-02 8.57363176e-03
      3.83306891e-02 1.77236982e-02 3.54604935e-03 6.79186638e-03
      1.65842362e-02 -2.80639175e-02 2.15183403e-02 -9.48667619e-03
      6.94108568e-03 2.14817352e-03 -9.71491933e-02 -3.51421833e-02
      -2.98203416e-02 -2.47775428e-02 -3.62165235e-02 1.27270082e-02
      -4.06070285e-05 1.02007305e-02 -2.76314584e-03 -5.29261529e-02
      -7.81144574e-02 -1.39264371e-02 -2.12845188e-02 -1.38073403e-03
      -4.87438329e-02 -4.46009934e-02 -2.16184091e-02 -1.69863757e-02
      -3.03126238e-02 1.89359076e-02 4.55694720e-02 3.29741351e-02
      -2.53274310e-02 -1.14798769e-01 -1.48002714e-01 -7.57493004e-02
      8.12219363e-03 5.83172292e-02 5.04999161e-02 2.74872649e-02
      -3.29835303e-02 -6.49886578e-02 -5.41650318e-02 -1.22717887e-01
      -1.59665793e-01 -4.68811877e-02 -1.06026053e-01 -1.19081341e-01
      -5.77938557e-02 -1.04759768e-01 -1.13493450e-01 8.67434125e-03
      -1.53296925e-02 -3.27288546e-02 -2.38936730e-02 -9.39399824e-02
      -8.49427506e-02 -2.58892551e-02 -2.79982053e-02 -4.05941270e-02
      -4.20293510e-02 -7.44120851e-02 -5.20933568e-02 -2.16301270e-02
      -1.29084140e-02 4.91235964e-02 4.70681936e-02 1.59953646e-02
      -4.98140417e-02 -3.17182690e-02 -1.03400141e-01 6.36765957e-02
      3.18467505e-02 3.54084484e-02 4.14362922e-02 1.26738101e-02
      9.89657734e-03 -2.48472858e-02 -2.37617665e-03 -9.86615866e-02
      2.13523246e-02 -6.15704991e-03 -3.37894335e-02 6.12932704e-02
      2.55456977e-02 -4.15653363e-02 -3.47575061e-02 -3.66393873e-03
      1.71726048e-02 -4.02264036e-02 -4.48778681e-02 -1.69924069e-02
      3.69247841e-03 7.07223918e-03 -5.81384823e-03 -4.63738851e-02
      1.50720337e-02 -1.07377283e-02 -3.95706743e-02 -3.52826412e-03
      2.88849380e-02 3.46981660e-02 1.93322860e-02 -3.24258464e-03
      2.47576106e-02 -2.72550378e-02 -4.23081517e-02 4.01549563e-02
      4.88204807e-02 5.65098152e-02 4.70995978e-02 2.53458079e-02
      6.04219064e-02 3.39353085e-02 1.49342781e-02 -2.75393594e-02
      1.06018864e-01 4.97963578e-02 2.74820495e-02 6.08412214e-02
      6.45586755e-03 3.18191834e-02 7.83035625e-03 2.91920863e-02
      1.18102916e-02 -4.84431572e-02 -2.32035723e-02 9.79797635e-03
      3.85107007e-03 1.08472537e-02 1.48309264e-02 1.31050497e-02
      1.96123775e-02 -1.31606115e-02 9.75524448e-03 1.90821085e-02
      1.73971634e-02 3.95037793e-03 8.26281495e-03 1.66808553e-02
      1.57071240e-02 2.89917812e-02 -1.72220892e-03 1.31830620e-02
      -9.90810455e-04 -9.62833464e-02 -4.67901714e-02 -2.70610210e-02
      -2.46014576e-02 -2.19343677e-02 2.09520068e-02 -2.28327513e-03
      2.33505238e-02 -8.66321672e-04 -1.07512519e-01 -1.73087239e-01
      -2.71811169e-02 -3.29503715e-02 8.21726280e-04 -1.51922903e-03
      -1.56872638e-03 2.62975786e-02 2.18905304e-02 8.88122432e-03
      -1.81856249e-02 -4.30133706e-03 -1.56869181e-03 -4.79101727e-04
      -1.46979373e-02 -8.28946903e-02 -6.20340221e-02 1.87392242e-03
      7.79004544e-02 8.36028010e-02 1.08309546e-02 -1.31074879e-02
      -1.68467946e-02 -4.09611948e-02 -1.17073603e-01 -1.59046486e-01
      -3.57543789e-02 -8.49741623e-02 -9.16564167e-02 -5.82541004e-02
      -7.96781182e-02 -9.79915559e-02 1.34149976e-02 -9.72064212e-03
      -3.88047136e-02 1.46896802e-02 -8.80658925e-02 -1.20987445e-01
      -4.72564250e-02 -4.05950025e-02 -8.36240575e-02 4.19375636e-02
      2.64502726e-02 6.42121434e-02 5.48331067e-02 -2.81755291e-02
      -5.33883460e-02 8.71276949e-03 6.46644738e-03 -3.51871885e-02
      -2.23873947e-02 -7.48477057e-02 7.19840126e-03 2.92981640e-02
      4.31425311e-02 3.14304419e-02 6.82157138e-03 1.28154932e-02
      3.46074090e-03 -1.87761761e-04 -6.44950718e-02 2.04797797e-02
      1.09768566e-03 -3.01397312e-02 7.90579543e-02 3.51144858e-02
      -3.29803601e-02 -2.36502439e-02 1.07099582e-02 -9.42969602e-03
      -6.83898255e-02 -6.12221286e-02 -1.36766192e-02 2.15748488e-03
      1.06591266e-02 -9.50460788e-03 -5.82619607e-02 5.81688583e-02
      7.75675997e-02 -1.79240070e-02 -4.20461409e-02 -3.14703248e-02
      1.05168615e-02 1.78197473e-02 2.40606517e-02 -8.42148345e-03
      -1.83218401e-02 -1.21958666e-02 4.62629683e-02 2.78693978e-02
      3.04613020e-02 3.30247842e-02 6.13910472e-03 2.76584029e-02
      1.07863909e-02 2.18311790e-02 -4.87086736e-02 9.12554115e-02
      4.10233513e-02 2.60296967e-02 6.05328642e-02 2.03538015e-02
      2.20528357e-02 7.45074544e-03 7.48632103e-02 4.31481116e-02
      -1.00320667e-01 -4.37704697e-02 1.93206947e-02 1.87869777e-03
      2.63749640e-02 3.73468623e-02 3.26539874e-02 2.84490548e-02
      2.42344607e-02 -2.16655843e-02 -2.91124545e-02 -6.44621765e-03
      8.46504327e-03 2.03155465e-02 1.75495949e-02 1.83199383e-02
      1.82475820e-02 -5.44183247e-04 3.81234614e-03 -7.70229008e-03
      -4.85581309e-02 -2.52889805e-02 -1.46125806e-02 -1.55326100e-02
      -2.78445357e-03 1.04176532e-02 -9.25389305e-03 1.66695248e-02
      -5.57482941e-03 -1.08152799e-01 -1.78690940e-01 -3.10043301e-02
      -2.74888948e-02 -3.17363162e-03 -2.84134969e-03 -9.25909076e-03
      6.14648946e-02 7.26056471e-02 4.62303534e-02 -2.99903415e-02
      -1.51009038e-02 -8.17810372e-03 1.33825094e-03 3.71033549e-02
      2.61840224e-03 1.66213308e-02 1.58331695e-03 4.05214392e-02
      -3.47143854e-03 3.19109508e-03 3.40032391e-04 4.78637964e-02
      6.14100229e-03 -8.71590152e-02 -9.57460180e-02 -2.74403319e-02
      -1.19842745e-01 -2.84294728e-02 -3.31381932e-02 -3.73427048e-02
      -4.80718017e-02 2.40384624e-03 -3.06616351e-03 -2.71815881e-02
      3.95074300e-02 -9.68562216e-02 -1.31667301e-01 -5.16601168e-02
      -4.56567928e-02 -1.35031328e-01 -1.43835787e-02 -3.35418917e-02
      6.20054826e-02 3.18213962e-02 9.52109601e-03 -8.21792260e-02
      5.66963525e-03 -8.59527756e-03 -7.50257224e-02 1.00092322e-01
      2.62908321e-02 1.56222377e-02 -8.59100558e-03 9.71103273e-03
      -1.62107870e-02 -7.35125039e-03 -1.60977878e-02 1.90361347e-02
      -1.57946106e-02 -1.03478789e-01 -3.12469602e-02 2.97499150e-02
      -1.49074022e-03 4.69604842e-02 1.18848719e-02 -2.14665402e-02
      -2.29497217e-02 -6.49314746e-03 2.74173319e-02 -3.29295397e-02
      -6.98098764e-02 -2.19524857e-02 -1.64606906e-02 1.04051186e-02
      -1.09103965e-02 -8.63140374e-02 8.08406714e-03 5.71294911e-02
      -4.06229831e-02 -9.20778960e-02 -4.41917628e-02 5.75872546e-04
      1.39320455e-02 3.03286612e-02 -1.87923219e-02 1.06836602e-01
      1.11329406e-01 3.74155454e-02 -3.62918489e-02 -3.10048051e-02
      -1.62631199e-02 5.03934408e-03 2.13588472e-03 1.60655882e-02
      1.34832766e-02 -3.46019715e-02 2.03565247e-02 3.94313736e-03
      4.69454215e-04 1.50505500e-02 1.04510700e-02 4.65894351e-03
      2.64684530e-03 8.46137926e-02 5.08661345e-02 -1.00736462e-01
      -5.13961092e-02 1.57677382e-02 -1.19076828e-02 2.28958670e-02
      3.37228291e-02 3.28112952e-02 6.13801479e-02 5.71868569e-02
      -4.17389423e-02 -6.47733361e-02 -3.29954401e-02 7.41715357e-03
      2.30066124e-02 2.90115252e-02 3.98232751e-02 1.56542771e-02
      1.86824743e-02 -5.31030493e-03 -1.94023717e-02 -1.51063753e-02
      8.37019703e-04 2.58962042e-03 6.56184135e-03 1.15869939e-02
      -6.55834563e-03 -5.51585220e-02 -4.09242734e-02 -2.93891784e-02
      -2.72598788e-02 -1.60985608e-02 -1.98399033e-02 -8.66282918e-03
      -9.59872827e-03 2.47222520e-02 -3.19752581e-02 7.68267550e-04
      -6.68943906e-03 2.16307538e-03 9.54849552e-03 -2.00865883e-02
      -3.70876864e-03 1.80902090e-02 -6.14567753e-03 -3.19792107e-02
      1.12749329e-02 -9.56813525e-03 -2.72779204e-02 9.80074238e-03
      3.67638879e-02 5.07764854e-02 -3.87267821e-04 -3.42870057e-02
      -3.60418819e-02 -6.13593077e-03 1.58682512e-03 1.27414186e-02
      1.43234693e-02 2.32271105e-02 7.49870995e-03 -8.79386906e-03
      -1.18259424e-02 -8.77183005e-02 -6.15840107e-02 -2.85865776e-02
      -2.65163556e-02 -3.34199294e-02 2.45250063e-04 7.34582311e-03
      2.41671633e-02 -3.58520858e-02 -1.04917690e-01 -8.04526582e-02
      -5.89042604e-02 -1.25400024e-02 2.34331843e-02 3.15464959e-02
      -2.30928566e-02 7.53860548e-02 -2.91379611e-03 -3.98643725e-02
      -3.91096584e-02 -3.78933698e-02 -3.14077223e-03 2.60584634e-02
      5.26979938e-02 5.20205265e-03 2.15082057e-02 -6.97225109e-02
      -9.67595130e-02 -6.45303205e-02 -2.58315797e-03 9.45383590e-03
      3.38137373e-02 1.45014692e-02 -2.42477996e-04 -4.29447144e-02
      -6.10763207e-02 -1.59719456e-02 2.56123692e-02 5.74038038e-03
      -5.18483371e-02 -3.75829488e-02 -4.59411042e-03 1.85607374e-02
      5.16163558e-02 4.77034450e-02 -7.42590502e-02 -4.86855246e-02
      -8.66760779e-03 -5.69792949e-02 1.51250558e-02 1.25323804e-02
      4.45238166e-02 1.07099228e-01 1.12050205e-01 -7.31010512e-02
      -1.12595884e-02 -3.58518548e-02 4.68194708e-02 6.24557026e-02
      3.95232327e-02 1.54556632e-02 6.12269416e-02 4.70868824e-03
      -4.58635055e-02 -1.76328607e-02 4.67416793e-02 7.47985020e-02
      4.33472432e-02 5.37831411e-02 3.40363272e-02 5.35963215e-02
      -4.33974601e-02 3.34935524e-02 1.81526598e-02 -9.34828632e-03
      -1.09339738e-02 1.79288894e-04 -2.13479646e-03 1.31934462e-02
      5.74935181e-03 -4.69807498e-02 -2.06210744e-03 1.54895792e-02
      -5.21387383e-02 -3.64396768e-03 1.77152827e-02 -2.26969528e-03
      1.40342293e-02 1.76372062e-02 -2.48437207e-02 1.55767491e-02
      5.15492596e-02 5.54866083e-02 3.98002714e-02 3.71493399e-02
      -2.73734350e-02 4.32438450e-03 -6.93025393e-03 -1.03093497e-02
      7.67091438e-02 3.54368091e-02 2.37701531e-03 -1.34387529e-02
      3.17976587e-02 9.61433630e-03 1.92162357e-02 -3.31488042e-03
      -1.89725624e-03 -1.28580676e-02 2.12259847e-03 -7.29168591e-04
      3.74713354e-03 3.10107903e-03 -6.70334045e-03 -1.47891208e-03
      -1.49312150e-03 -1.33629274e-02 -4.12982367e-02 -1.97517350e-02
      -2.21132264e-02 -4.00478803e-02 -2.19043717e-03 2.91729197e-02
      2.76593603e-02 -8.78164638e-03 -5.00442013e-02 -7.48848468e-02
      -3.59003879e-02 -8.88699386e-03 2.23903824e-02 2.61189640e-02
      1.64639540e-02 -1.41769759e-02 -2.66617704e-02 1.63825732e-02
      -3.68338637e-02 -3.91600095e-02 -9.67544224e-03 -6.04327954e-03
      4.53320630e-02 9.94754955e-04 -2.38958579e-02 -3.17629874e-02
      -3.48652415e-02 -5.81452362e-02 -3.52405943e-02 -9.25059430e-03
      -8.21109046e-04 -3.26418178e-03 -1.09041983e-03 -1.25787901e-02
      -1.92803089e-02 -3.81539464e-02 -9.68303978e-02 -9.31257457e-02
      -6.59844354e-02 -1.70067102e-02 2.95392610e-02 4.43256013e-02
      -1.06963213e-03 -3.22146853e-03 -7.80586526e-02 -1.71660528e-01
      3.17323254e-04 2.10914165e-02 2.21854858e-02 1.89171638e-02
      -1.04188472e-02 8.74890655e-04 -4.68204618e-02 -1.73419283e-03
      -8.23898688e-02 -2.61101616e-03 1.27624189e-02 2.98580173e-02
      3.12591828e-02 -5.88096445e-03 -9.64638125e-03 -1.52281784e-02
      -1.35338902e-02 -5.34912236e-02 -5.28834574e-02 -1.23287598e-02
      -1.08644385e-02 4.55158995e-03 9.20450766e-05 1.80779509e-02
      7.81305581e-02 5.04081622e-02 -1.10653423e-01 -9.23343971e-02
      -3.52979302e-02 4.08150144e-02 4.18266617e-02 3.58185172e-02
      -7.80112203e-03 1.22602750e-02 -2.59894561e-02 -1.50590956e-01
      4.85233329e-02 6.73867166e-02 7.37041086e-02 4.57309633e-02
      1.89145971e-02 9.45541710e-02 -2.34413669e-02 -5.14480025e-02
      -1.12032712e-01 3.93219851e-02 4.39195558e-02 1.84881035e-02
      3.30477357e-02 -2.33458430e-02 3.24736722e-02 -9.81016457e-03
      -4.03949842e-02 -1.71184726e-02 -4.41969559e-03 -1.87669098e-02
      2.51634512e-03 3.43760406e-03 -4.80234018e-03 -1.27012748e-03
      -2.96280370e-03 -5.12718558e-02 5.26976865e-03 4.37001735e-02
      3.26545611e-02 1.92874447e-02 2.70575676e-02 -2.46512480e-02
      5.67855954e-04 -1.77761074e-02 -4.14336398e-02 6.09706938e-02
      1.62194278e-02 -1.18060848e-02 -3.26270908e-02 4.50551622e-02
      1.99421104e-02 2.98212394e-02 -1.40335318e-02 -1.17503172e-02
      -1.78234093e-02 -1.67399179e-02 -7.07537495e-03 1.01714507e-02
      3.39887589e-02 8.50107113e-04 9.56484955e-03 1.11085074e-02
      2.24837102e-03 -2.10486297e-02 -1.17475158e-02 -9.94890276e-03
      -1.50611829e-02 1.35106954e-03 1.61843691e-02 9.02393181e-03
      6.33898797e-03 -9.93396807e-03 -7.30557218e-02 -4.86630723e-02
      -1.10350158e-02 2.79216785e-02 2.94617899e-02 5.23440447e-03
      -1.80651918e-02 -2.54351296e-03 3.47334556e-02 -8.11322853e-02
      -8.80657360e-02 -3.04220542e-02 -5.36559932e-02 2.14130804e-02
      -1.85328517e-02 -4.43919785e-02 -4.99931425e-02 -7.05777714e-03
      -1.79315619e-02 -2.29283981e-02 -1.54639501e-02 -3.07883322e-02
      -2.13747974e-02 -7.87002500e-03 -1.11895790e-02 -1.73776876e-02
      -3.02696992e-02 -8.25348869e-02 -7.20964745e-02 -3.99699360e-02
      -3.11354417e-02 4.07499224e-02 2.83105318e-02 1.78688101e-03
      -2.38434542e-02 -5.90709411e-02 -1.47958413e-01 2.77098734e-02
      3.44321132e-03 1.42712444e-02 6.04047347e-03 -1.99449211e-02
      1.85155943e-02 -3.11768092e-02 -9.47086606e-03 -1.19741157e-01
      -1.61831584e-02 7.84889050e-03 -3.38857025e-02 3.14371251e-02
      -9.50519647e-03 -2.66896766e-02 -4.31047864e-02 -1.50078917e-02
      4.97565605e-03 -6.39322624e-02 -6.45111799e-02 -2.04364359e-02
      3.59961950e-06 4.11118846e-04 -1.33787943e-02 -4.55150008e-02
      -1.39860937e-03 -5.32226712e-02 -9.62146446e-02 -9.22597200e-03
      5.77804446e-02 3.24976444e-02 2.22550984e-02 -9.54896398e-03
      4.06673290e-02 -5.30581810e-02 -1.56675652e-01 3.47678959e-02
      6.27926588e-02 7.82108977e-02 3.04264482e-02 1.65450219e-02
      7.62744695e-02 -1.71637405e-02 -7.03083947e-02 -1.39433369e-01
      -4.03312743e-02 4.72290777e-02 6.78387529e-04 3.92940752e-02
      -9.29213595e-03 3.76557782e-02 -1.55339446e-02 3.98861170e-02
      -1.81720651e-07 -1.31367415e-01 -4.09719385e-02 2.31339857e-02
      5.73347975e-03 1.36743775e-02 1.85653977e-02 1.48447230e-02
      -2.81414576e-02 4.31964733e-03 9.24138539e-03 8.87923874e-03
      5.23313554e-03 1.69434138e-02 -4.86461632e-03 1.89101312e-03
      -6.76776841e-03 -3.69862132e-02 4.55282293e-02 1.07225298e-03
      -1.26435561e-02 -3.09818164e-02 2.79367678e-02 1.94364227e-02
      2.91523505e-02 -4.77756187e-03 -2.59931367e-02 -5.02543338e-02
      -3.76859717e-02 -2.17913035e-02 6.26794528e-03 3.67424265e-02
      8.55713803e-03 1.65789220e-02 1.90501213e-02 1.37887010e-02
      2.99086906e-02 2.72596311e-02 2.20234971e-02 1.08839767e-02
      1.47601403e-02 1.38600608e-02 1.00312866e-02 4.95364331e-03
      3.01216133e-02 -3.17732356e-02 -2.31630914e-02 -6.28452608e-03
      2.23606117e-02 2.29003131e-02 -5.91421966e-04 -6.43501105e-03
      2.82021426e-02 2.57465467e-02 -9.39591676e-02 -9.30305123e-02
      -3.30061764e-02 -1.06244773e-01 -8.55836086e-03 -2.39383969e-02
      -3.61712351e-02 -3.42236236e-02 -1.89401954e-02 -2.82161161e-02
      -4.11154665e-02 -3.01545095e-02 -7.07258657e-02 -5.99584505e-02
      -1.60058979e-02 -1.91986877e-02 -4.30311449e-02 1.31538557e-02
      6.15113787e-03 1.28094098e-02 1.00056883e-02 -1.96943618e-02
      -1.88890509e-02 3.67620774e-03 1.96812511e-03 -2.01881621e-02
      -2.25744732e-02 -9.29350033e-02 -2.92831217e-03 4.78811190e-03
      2.21170280e-02 4.09083674e-03 -1.35223726e-02 1.30357202e-02
      8.43395479e-03 -2.17749011e-02 -7.36838281e-02 -1.32047655e-02
      6.76431321e-03 -4.68182303e-02 4.20000181e-02 1.75438751e-03
      -2.98143644e-02 -3.12094614e-02 -1.84806418e-02 -4.01106849e-02
      -1.39209211e-01 -1.14827916e-01 -3.73664834e-02 -8.61387793e-03
      1.21633289e-03 -2.72798799e-02 -7.44851604e-02 3.38877887e-02
      5.71265966e-02 -4.57951128e-02 -6.85744435e-02 -3.74706388e-02
      4.75208880e-03 1.43152000e-02 8.49500950e-03 -9.00227670e-03
      -8.57601687e-02 -9.26851183e-02 5.40214181e-02 4.09075283e-02
      3.59114595e-02 5.09121530e-02 8.67633708e-03 5.42500205e-02
      7.70243024e-03 -5.14848605e-02 -1.14869840e-01 -5.98001704e-02
      6.79367082e-03 8.60254001e-03 1.08825341e-02 1.36775449e-02
      2.75764614e-02 -1.90249085e-02 1.02298662e-01 2.06479225e-02
      -4.20841463e-02 -1.62289739e-02 5.51084392e-02 2.13863570e-02
      3.12788561e-02 4.16601822e-02 3.77675928e-02 3.48745175e-02
      3.40612903e-02 -5.55513389e-02 -6.31638691e-02 -1.36343753e-02
      1.30334320e-02 2.48455554e-02 2.94519812e-02 2.87692752e-02
      -1.44030545e-02 6.37922063e-03 -3.75451380e-03 -6.11025654e-03
      -1.29633034e-02 1.25196036e-02 6.37166481e-03 1.30891474e-02
      1.22458953e-03 -3.48036774e-02 -7.20216930e-02 -5.52823208e-02
      -2.66800206e-02 1.35668917e-02 4.20983508e-02 1.22874286e-02
      1.26099484e-02 1.19404402e-02 3.22082862e-02 6.55644611e-02
      4.32728007e-02 7.31547922e-02 1.91233009e-02 2.75868550e-02
      3.09535209e-02 2.75746994e-02 1.71721522e-02 1.73490047e-02
      4.62864600e-02 3.65647674e-02 2.52589257e-03 3.62731656e-03
      1.43283261e-02 7.27816764e-03 1.34334471e-02 1.66602992e-02
      -5.74592827e-03 -6.85869306e-02 -6.28484115e-02 -2.05615442e-02
      -7.05206618e-02 -1.36861540e-02 -1.21614961e-02 -1.87984556e-02
      -1.72344279e-02 -3.91895026e-02 -2.45457478e-02 -4.68870662e-02
      -1.42028173e-02 -8.02555978e-02 -8.25278834e-02 -2.14904863e-02
      -2.27634925e-02 -8.33969340e-02 -1.97158698e-02 -2.33007204e-02
      2.81345155e-02 4.48927730e-02 -1.33128213e-02 -3.30139771e-02
      5.03788982e-03 -4.48906468e-03 -5.72243929e-02 8.62415135e-02
      4.35749796e-04 2.29127519e-03 -7.34123774e-03 5.49578993e-03
      -7.52591062e-03 -3.91019788e-03 -9.44846496e-03 1.54265473e-02
      -2.08290312e-02 -1.01544626e-01 -2.07312331e-02 2.66158897e-02
      -2.61610746e-02 2.33074594e-02 5.55806281e-03 -1.79646015e-02
      -1.69058125e-02 -2.24503819e-02 1.08622555e-02 -1.08440295e-01
      -1.11049764e-01 -5.19216992e-02 -1.54035604e-02 -4.41838615e-03
      -4.44742814e-02 -8.55087861e-02 -2.70730956e-03 5.32392561e-02
      -8.98840353e-02 -1.31869704e-01 -6.87830746e-02 3.03771417e-03
      6.70789322e-03 2.40946263e-02 -1.43973017e-02 8.49408731e-02
      6.59810528e-02 1.25194509e-02 -4.11859788e-02 -2.10649166e-02
      -1.74657293e-02 5.16178645e-03 9.34410095e-03 2.31882259e-02
      -9.90132056e-03 -1.68064088e-01 -4.43923734e-02 -4.04533511e-03
      -9.43859015e-03 4.68237586e-02 2.54022721e-02 7.63207581e-03
      -8.60581361e-03 1.13143764e-01 5.50632291e-02 -2.74727214e-02
      -2.37614550e-02 3.16999927e-02 1.44273359e-02 4.50846963e-02
      5.39737381e-02 3.76743525e-02 9.05666053e-02 7.72098973e-02
      -6.59606904e-02 -8.23393464e-02 -5.37068956e-02 2.16177083e-03
      2.79344283e-02 4.67590578e-02 7.64140412e-02 7.73270789e-04
      1.98812224e-02 -3.54811959e-02 -4.58959229e-02 -2.87674349e-02
      3.12299281e-03 4.75427834e-03 7.90151767e-03 1.05921524e-02
      -2.63849236e-02 -4.93378229e-02 -2.80255470e-02 -2.10181084e-02
      -2.17036740e-03 2.78417859e-02 1.07545825e-02 5.55974245e-03
      3.25333630e-03 3.92820425e-02 7.37729445e-02 5.70565648e-02
      9.67641771e-02 2.31001265e-02 1.93997677e-02 3.04224864e-02
      3.24060917e-02 2.60430332e-02 1.91262383e-02 9.40661952e-02
      8.54164213e-02 1.87683478e-02 1.15895523e-02 2.16830317e-02
      1.53501565e-02 3.13352086e-02 3.70832719e-02 -1.26709286e-02
      6.71731262e-03 -3.38229723e-02 -4.39758524e-02 7.63978809e-03
      1.21450042e-02 1.16362786e-02 1.15565406e-02 1.37743400e-03
      -1.89212579e-02 -5.00747561e-02 -5.65344095e-02 -2.92379651e-02
      -2.44496763e-02 -2.44397596e-02 -4.32224944e-03 -3.62556777e-03
      9.06549394e-03 -3.16201597e-02 -9.60900187e-02 -5.86559884e-02
      -2.39006151e-02 -1.78003125e-02 4.52640903e-04 1.41443806e-02
      -1.53589323e-02 4.13139313e-02 1.37601458e-02 -7.37880021e-02
      -6.54736012e-02 -4.71778773e-02 -6.61051199e-02 2.74988562e-02
      9.61855706e-03 -1.23729473e-02 1.52957877e-02 -2.81688310e-02
      -5.54915816e-02 -3.78813036e-02 -1.14207203e-02 -1.71646271e-02
      3.31884972e-03 -4.37103584e-03 -8.39269813e-03 -1.74601227e-02
      -9.46884900e-02 -3.07301488e-02 -8.71110987e-03 -4.35663275e-02
      -6.63910285e-02 -3.41582261e-02 -8.27169325e-03 1.12874797e-02
      3.62606011e-02 9.23875626e-03 -9.08190757e-02 -7.16780052e-02
      -3.90311517e-02 -6.33298904e-02 4.59909579e-03 -5.27175702e-03
      3.59693803e-02 8.66129920e-02 3.70320380e-02 -9.69468430e-02
      -6.77443445e-02 -1.40029741e-02 3.99218984e-02 4.88843210e-02
      2.37713605e-02 -5.47511550e-03 2.85581555e-02 -2.66159363e-02
      -3.31434831e-02 -5.40284477e-02 2.51560844e-02 5.11143021e-02
      3.03522963e-02 1.33841708e-02 2.04461236e-02 4.76244763e-02
      -7.90403634e-02 3.49316038e-02 6.17768429e-03 -5.08517213e-02
      -4.19802479e-02 -1.35408342e-02 -1.83572732e-02 1.58807803e-02
      -2.20212693e-04 -4.85796072e-02 2.05241144e-02 -5.52548878e-02
      -1.09190106e-01 -6.28076121e-02 8.82844906e-03 -3.29266815e-03
      8.78109690e-03 2.14695632e-02 -2.50533652e-02 1.26978112e-02
      1.91430226e-02 7.79053122e-02 4.65597697e-02 5.96702285e-03
      -4.04542498e-02 -1.67466868e-02 -2.55123824e-02 -4.13755217e-04
      7.80023932e-02 5.95012419e-02 -1.97739340e-02 -1.18749263e-02
      1.80880353e-02 7.67617300e-03 3.11599281e-02 -9.48491041e-03
      4.95786853e-02 1.63286999e-02 -1.21503621e-02 -1.20936586e-02
      1.61818359e-02 1.85522088e-03 2.27402020e-02 -1.00810814e-03
      2.48632226e-02 6.27927259e-02 3.01136840e-02 -4.30366732e-02
      -8.30201879e-02 -3.98015268e-02 3.15030999e-02 1.65715013e-02
      1.24617119e-03 1.70085561e-02 2.57859901e-02 7.29131252e-02
      4.66823913e-02 2.61986721e-02 3.66133712e-02 3.12243439e-02
      8.31798092e-03 -1.82469562e-02 -5.28262230e-03 2.15596650e-02
      3.73788588e-02 4.97368164e-02 1.47925327e-02 -9.50475689e-03
      1.35581121e-02 2.67606750e-02 -2.06178352e-02 -3.02381907e-02
      -1.63664427e-02 -3.23189385e-02 -1.89228430e-02 -4.59104497e-03
      -2.56246934e-03 -1.87159493e-03 -6.57254888e-04 -5.37891639e-03
      1.12768648e-04 -4.54954151e-03 -7.67092705e-02 -6.75665811e-02
      -4.06976976e-02 -4.67979535e-02 2.47094110e-02 6.92174071e-03
      -1.89008955e-02 -1.29777882e-02 -4.63829711e-02 -1.29207999e-01
      -6.06014132e-02 -1.27662672e-03 -5.21324622e-03 2.92341271e-03
      -1.64020807e-02 4.71097697e-03 -8.62046983e-03 -1.25885941e-02
      -4.67059016e-02 4.94703613e-02 1.34845041e-02 -9.75387543e-03
      1.79888133e-03 -1.65685937e-02 9.63728817e-04 -5.06067183e-03
      -3.29557024e-02 -6.23462424e-02 -5.56860790e-02 -1.17128454e-02
      -1.00238379e-02 3.99787398e-03 -1.99370901e-03 1.73495840e-02
      6.58919215e-02 1.29513303e-02 -9.43064392e-02 -8.74749199e-02
      -1.92018766e-02 4.58312929e-02 3.89886722e-02 2.41661295e-02
      -1.26435440e-02 4.21243440e-03 -4.04341519e-02 -1.15714177e-01
      3.87051813e-02 4.37694900e-02 7.10153952e-02 5.86352795e-02
      -1.20681319e-02 6.85721859e-02 -2.89914496e-02 -7.26898164e-02
      -1.41772404e-01 2.40439046e-02 2.46321503e-02 1.75911076e-02
      4.98044267e-02 -4.65459451e-02 2.77985018e-02 -1.36308735e-02
      -5.27773499e-02 -3.54861505e-02 -2.17675641e-02 -5.60746528e-02
      -7.21031707e-03 3.05591687e-03 -1.44282188e-02 -1.22737540e-02
      -6.04768284e-03 -3.83021496e-02 -1.74141116e-03 1.27005493e-02
      5.60063422e-02 1.17727451e-03 -2.19759140e-02 -6.26018420e-02
      -2.27728244e-02 -3.01267244e-02 -1.56265348e-02 1.73906200e-02
      4.72244844e-02 -4.91584875e-02 -2.38721203e-02 -2.82336096e-03
      1.68268662e-02 5.08404821e-02 -1.51206432e-02 -1.04034124e-02
      -5.53898886e-02 -5.13741933e-02 -4.42337580e-02 -1.97739918e-02
      1.18975416e-02 -7.05951964e-03 2.83579975e-02 2.88566034e-02
      1.14955958e-02 9.04923119e-03 -1.41302533e-02 -2.38539483e-02
      -7.31597608e-03 8.84296279e-03 4.02437476e-03 -1.77316624e-03
      -4.81203140e-04 8.31962936e-03 5.06617315e-02 6.81274608e-02
      2.44773086e-02 2.28904821e-02 8.88584368e-03 -7.19709042e-03
      -2.52304729e-02 -1.62668787e-02 1.03998529e-02 4.34872657e-02
      6.10327311e-02 6.84600696e-03 -1.93591919e-02 8.51347297e-03
      2.09632199e-02 -3.41580287e-02 -5.24567440e-02 -1.65812969e-02
      -4.60507628e-03 -2.49473862e-02 -2.86747124e-02 2.84413509e-02
      5.18406667e-02 -2.38764728e-03 1.89500824e-02 1.00686047e-02
      -4.83461656e-03 -3.77429686e-02 -3.64593901e-02 -1.70033108e-02
      -1.25596710e-02 1.31481132e-02 5.61185693e-03 -3.95633001e-03
      8.10818048e-04 -2.52629612e-02 -1.07305929e-01 -4.36673313e-02
      1.10209314e-03 6.04377314e-03 -9.93857742e-04 -1.72309019e-02
      1.31456973e-02 7.03184493e-03 -1.10744871e-02 -5.56349047e-02
      4.08082046e-02 7.58969365e-03 -9.22904443e-03 5.02712512e-03
      -1.57538168e-02 -4.11109207e-03 -9.41358041e-03 -3.05735366e-03
      3.86215379e-06 -3.36878672e-02 -3.37664783e-02 -9.74627305e-03
      -1.42555009e-03 -4.21402248e-04 -6.28377590e-03 -1.77507028e-02
      -2.35627517e-02 -6.26333356e-02 -9.45213735e-02 -5.00173960e-03
      5.74609116e-02 2.40511745e-02 1.27058541e-02 -7.96124246e-03
      2.72211172e-02 -9.04905796e-02 -1.36823475e-01 3.79893966e-02
      4.27532382e-02 6.92397580e-02 4.35452797e-02 9.52849165e-03
      7.68130794e-02 -6.94437185e-03 -1.03226006e-01 -1.36947289e-01
      -5.92069663e-02 2.18096916e-02 1.81802642e-02 4.78267372e-02
      -1.78279895e-02 3.11626308e-02 -2.48380769e-02 2.27463041e-02
      -2.05328017e-02 -1.33944929e-01 -2.50068773e-02 3.31131145e-02
      6.79246057e-03 7.30191125e-03 1.10983597e-02 8.23830068e-03
      -4.02523950e-02 5.16983098e-04 2.02078298e-02 1.39982514e-02
      -6.01431495e-03 2.08513774e-02 -1.99146364e-02 -2.11048708e-03
      -1.04933875e-02 -2.95367483e-02 -1.79504119e-02 -2.64388742e-03
      -5.68242408e-02 -4.81788665e-02 2.24971361e-02 2.73906421e-02
      4.72319573e-02 -2.57772137e-03 -3.40144075e-02 -1.05863318e-01
      -5.34591340e-02 -1.16850957e-01 -7.08517879e-02 1.68872084e-02
      9.27336235e-03 4.47414629e-02 4.70647328e-02 1.39416019e-02
      3.34492400e-02 1.75784230e-02 2.62967665e-02 1.50650367e-02
      2.64235865e-02 2.09049657e-02 1.70684382e-02 1.18094962e-02
      1.58110284e-03 1.32322740e-02 2.27844510e-02 7.63223413e-03
      6.24583662e-03 1.21563743e-03 -1.69455120e-03 -9.91009455e-03
      -6.85782265e-03 -6.58279343e-04 2.44557504e-02 2.28211619e-02
      -1.41426474e-02 -2.12953314e-02 4.88109887e-03 2.12207474e-02
      -1.82929207e-02 -4.28699963e-02 -3.80066596e-02 1.56539062e-03
      -5.75344525e-02 -6.66701421e-02 3.30528766e-02 8.88385028e-02
      1.47099914e-02 3.46354507e-02 2.24930719e-02 -1.38186682e-02
      2.06904542e-02 1.10806674e-02 1.84120778e-02 3.19341421e-02
      1.99185684e-02 3.50799575e-03 6.74843695e-03 1.50289610e-02
      -9.55409277e-03 -4.47020046e-02 -3.62100545e-03 3.13143386e-03
      1.02857416e-02 9.88237211e-04 -9.72341467e-03 5.69128152e-03
      3.69525701e-03 -1.13761760e-02 -5.40401489e-02 4.87439660e-03
      4.55023581e-03 -3.01559712e-03 7.77372951e-03 -6.18207874e-03
      -7.50042498e-03 -1.25895813e-02 2.24450813e-03 -1.23355049e-03
      -8.66130292e-02 -9.06284302e-02 -3.02752871e-02 -5.78527106e-03
      -1.67030201e-04 -1.34668266e-02 -2.40564253e-02 1.23763932e-02
      1.59499366e-02 -2.58217640e-02 -3.69904414e-02 -1.76518392e-02
      1.11377123e-03 5.38500492e-03 9.26085515e-04 1.12243299e-03
      -1.02394231e-01 -8.41981992e-02 2.15901341e-02 3.37844677e-02
      1.98279507e-02 4.86029573e-02 1.06247971e-02 4.35623750e-02
      -5.29960822e-03 -8.15993175e-02 -1.31472096e-01 -9.67677832e-02
      -1.18463952e-02 1.46967294e-02 9.12030227e-03 9.35993809e-03
      1.58407595e-02 -3.14340740e-02 5.75424097e-02 4.64543374e-03
      -4.56243679e-02 2.19026264e-02 7.09974840e-02 2.40190849e-02
      2.92674899e-02 4.04293537e-02 2.16989759e-02 2.19322890e-02
      2.49452591e-02 -5.70306778e-02 -5.75234592e-02 -6.31397031e-03
      1.09305754e-02 1.97303798e-02 2.62845773e-02 2.64672637e-02
      -2.02007070e-02 -9.92072560e-03 -2.07008496e-02 -3.14721242e-02
      -4.43465263e-02 1.95044391e-02 1.50678214e-02 2.29201857e-02
      1.54791423e-03 -6.79150373e-02 -1.09170511e-01 -6.69667274e-02
      -1.38312668e-01 -7.40865320e-02 1.63743868e-02 1.57827567e-02
      2.96903010e-02 2.81169172e-02 3.11924107e-02 -2.90610678e-02
      1.42700141e-02 3.01799458e-02 3.00630648e-02 6.60280660e-02
      4.72198911e-02 4.34617810e-02 4.14755233e-02 2.04964522e-02
      7.39502460e-02 7.64788166e-02 2.23829481e-03 -2.21367390e-03
      1.92934405e-02 8.14101484e-04 1.01591097e-02 2.96980813e-02
      -7.87847675e-03 1.28536287e-03 -2.95597874e-03 -1.66346058e-02
      -1.10761095e-02 4.05319454e-03 1.31088924e-02 -2.00533541e-03
      -1.98247731e-02 -4.16672938e-02 1.12843374e-02 -5.78812025e-02
      -6.09647334e-02 3.82093675e-02 9.38847214e-02 1.42837772e-02
      2.29384862e-02 4.54568071e-03 -1.92757994e-02 1.75678376e-02
      2.31497269e-02 2.14348305e-02 3.75853777e-02 2.78245565e-02
      6.04329980e-04 9.32772085e-03 5.24796247e-02 -1.80434175e-02
      -2.68012080e-02 -1.63578186e-02 -1.81448720e-02 -1.72195844e-02
      -7.65182835e-04 -5.71607053e-03 -6.74630003e-03 2.21597645e-02
      -5.82930679e-03 -4.60700877e-02 -1.42859425e-02 -1.30928904e-02
      -5.55658434e-03 3.49792768e-03 2.70354212e-04 -4.72071534e-03
      -6.53701555e-03 1.17499102e-02 5.89386374e-03 -1.27077982e-01
      -1.31526396e-01 -5.72101884e-02 -9.49812774e-03 -1.31672644e-03
      -2.10648887e-02 -2.35785618e-02 4.65631224e-02 5.72142117e-02
      -4.83418517e-02 -8.67893174e-02 -4.69087698e-02 1.43017701e-03
      1.36682885e-02 9.37817153e-03 1.05197122e-02 2.31633782e-02
      2.06620526e-02 2.07744422e-03 -1.72946677e-02 -6.88909646e-03
      -5.88995963e-03 4.16973839e-03 7.89845083e-03 1.29772313e-02
      -4.45216484e-02 -2.07192421e-01 -6.23633787e-02 -1.74119268e-02
      -7.38478207e-04 4.94897552e-02 2.37293672e-02 4.42680018e-03
      -1.28831649e-02 6.93944693e-02 2.51052212e-02 -2.34707315e-02
      5.37874317e-03 5.87218367e-02 2.29794905e-02 4.35067639e-02
      5.58105223e-02 2.64478661e-02 6.01440109e-02 6.91350922e-02
      -7.48992488e-02 -8.34959596e-02 -5.11708707e-02 4.80012828e-03
      3.12141012e-02 5.04853092e-02 7.42750168e-02 -1.43176187e-02
      9.95748397e-03 -4.66894843e-02 -6.04997426e-02 -2.11200081e-02
      6.32602349e-03 5.87829389e-03 6.18322380e-03 1.94552459e-03
      -5.64691462e-02 -1.13571957e-01 -1.01733819e-01 -1.05839230e-01
      1.53214494e-02 4.38764952e-02 1.37426723e-02 1.16959549e-02
      7.00980565e-03 5.28168269e-02 -3.12067904e-02 -5.99439302e-03
      -2.03035865e-03 4.64553945e-02 6.80740699e-02 4.67560291e-02
      5.78126572e-02 7.73169175e-02 3.51191610e-02 1.54689148e-01
      1.70754105e-01 1.12546384e-01 1.59425177e-02 1.92920901e-02
      9.22082085e-03 4.93965484e-02 7.03376830e-02 -4.25347947e-02
      8.40816367e-03 -6.39125928e-02 -7.45314285e-02 1.86145976e-02
      3.00436411e-02 2.73435544e-02 2.30484344e-02 1.94874629e-02
      -4.84941155e-02 1.56332646e-02 -2.60636061e-02 -3.65247056e-02
      2.29895059e-02 5.65693229e-02 6.68088393e-03 5.54172788e-03
      -7.81631842e-03 -3.85350809e-02 -1.49654830e-02 3.03400140e-02
      1.72202978e-02 2.47561876e-02 2.07356084e-02 -4.54556802e-03
      1.28796957e-02 9.69098881e-02 -1.84467025e-02 -8.94047022e-02
      -4.55058664e-02 -5.19189201e-02 -5.57204969e-02 -3.24786315e-03
      -1.00623863e-02 -2.42218953e-02 5.49539812e-02 -7.68876635e-03
      7.71221006e-03 -1.56865008e-02 -3.67310457e-02 -1.23040657e-02
      1.20466733e-02 4.20790678e-03 -2.74152290e-02 1.42196147e-02</_></support_vectors>
  <uncompressed_sv_total>66</uncompressed_sv_total>
  <uncompressed_support_vectors>
    <_>
      1.64031237e-02 6.64977962e-03 2.73591443e-03 2.64340290e-03
      2.18941690e-03 1.86332874e-03 4.66125924e-03 3.40281939e-03
      9.57661681e-03 2.69774906e-02 2.55487114e-02 2.33650077e-02
      1.18075944e-02 1.48659544e-02 1.42378220e-02 4.08699177e-03
      6.69332128e-03 1.31414775e-02 2.52035540e-02 3.09916623e-02
      6.87131137e-02 6.99954182e-02 2.95386389e-02 1.29626701e-02
      4.50043567e-03 5.00560552e-03 1.19904270e-02 9.05837584e-03
      2.99910698e-02 1.11979090e-01 1.12031944e-01 3.50924991e-02
      8.75375606e-03 1.17347506e-03 3.31840478e-03 3.02683818e-03
      1.07281700e-01 4.10160311e-02 2.20039822e-02 1.68550424e-02
      2.22016079e-03 4.14441666e-03 1.08988089e-02 1.98506936e-02
      6.91008344e-02 6.12589642e-02 5.07055819e-02 6.54432550e-02
      6.79892078e-02 5.56443408e-02 7.76517168e-02 3.42103653e-02
      3.36058922e-02 3.35837938e-02 4.06408869e-02 7.22066015e-02
      2.20253766e-01 2.40528390e-01 1.71028763e-01 6.65854514e-02
      3.84434387e-02 2.57092416e-02 1.94284376e-02 3.66263650e-02
      8.87786373e-02 1.65335357e-01 2.40528390e-01 1.25002176e-01
      2.67579705e-02 1.02542462e-02 1.86678693e-02 1.05067631e-02
      6.78082034e-02 6.30531013e-02 2.21335944e-02 1.21169370e-02
      5.06912731e-03 3.90242133e-03 2.14575278e-03 1.50215207e-02
      3.87652032e-02 2.26447716e-01 2.40528390e-01 1.14405818e-01
      4.19632122e-02 2.72775088e-02 2.11353991e-02 8.70489608e-03
      1.63898934e-02 4.00723703e-02 2.40528390e-01 2.40528390e-01
      2.10497901e-01 2.40528390e-01 8.14385340e-02 4.80078310e-02
      4.85293269e-02 2.89867222e-02 8.82980749e-02 1.69331670e-01
      2.40528390e-01 7.82021508e-02 9.21217352e-02 3.87977138e-02
      2.86651663e-02 1.97635181e-02 1.71926711e-02 3.34976129e-02
      4.18897569e-02 1.32946685e-01 1.35458335e-02 2.59043835e-03
      1.65794871e-03 1.09220599e-03 4.48789389e-04 1.31047098e-03
      5.17324498e-03 1.21515498e-01 2.40528390e-01 7.69952238e-02
      1.75842438e-02 1.05254864e-02 3.71385249e-03 2.46751588e-03
      1.94452726e-03 1.58360936e-02 1.12216353e-01 1.96012810e-01
      6.68709502e-02 2.66193580e-02 1.98813602e-02 1.53709911e-02
      1.51747512e-02 2.44352482e-02 5.71214035e-02 4.35459465e-02
      3.87476645e-02 2.84523349e-02 1.84150897e-02 9.36463475e-03
      6.20349310e-03 1.03754858e-02 9.94897261e-03 2.99886875e-02
      8.65713507e-03 8.30839109e-03 8.34509544e-03 4.28251922e-03
      4.96328855e-03 4.38129622e-03 9.74249502e-04 2.08611786e-03
      4.30019526e-03 1.75143741e-02 2.53581032e-02 6.90576062e-02
      7.60952383e-02 2.72479411e-02 1.01534855e-02 3.01296078e-03
      2.80323788e-03 7.33813597e-03 1.90084763e-02 5.53024597e-02
      1.92974642e-01 1.82406411e-01 7.20431581e-02 2.01467946e-02
      4.91948891e-03 9.40370373e-03 6.87543303e-03 1.37594193e-02
      1.04997568e-02 1.28815416e-02 8.15610774e-03 2.83854883e-02
      1.31317219e-02 6.36234554e-03 6.77791610e-03 6.30847225e-03
      1.44619839e-02 1.44338096e-02 2.35176906e-02 2.30581593e-02
      1.95079837e-02 2.58220807e-02 1.03597483e-02 1.02611668e-02
      8.05402268e-03 2.92401817e-02 6.66939244e-02 2.01829150e-01
      2.40645289e-01 1.58132151e-01 4.59581576e-02 2.67119464e-02
      1.70222074e-02 1.20175518e-02 6.95663020e-02 1.56223923e-01
      2.40645289e-01 2.40645289e-01 2.14478254e-01 8.12596530e-02
      4.59428430e-02 3.98095548e-02 2.03474127e-02 1.58424601e-02
      2.08683312e-02 2.35555973e-02 2.09287610e-02 6.74851984e-02
      9.07877684e-02 5.43361492e-02 1.82090383e-02 6.41278084e-03
      8.00349936e-02 1.11844435e-01 3.63886356e-02 1.33105787e-02
      8.87900498e-03 6.67524990e-03 3.09138792e-03 4.77019511e-03
      1.22014545e-02 2.40645289e-01 2.40645289e-01 1.63803786e-01
      2.40645289e-01 7.24114701e-02 4.21210937e-02 4.24811020e-02
      2.37355120e-02 6.79834336e-02 2.40645289e-01 2.40645289e-01
      1.32959366e-01 1.20251060e-01 6.35362267e-02 1.40765995e-01
      5.92113286e-02 3.19672599e-02 5.42341769e-02 2.03367900e-02
      3.93902399e-02 2.79362537e-02 1.22062089e-02 5.59221767e-02
      2.40645289e-01 6.23290762e-02 1.13375541e-02 1.03639010e-02
      3.69891860e-02 9.49209332e-02 2.31635273e-02 5.91457263e-03
      3.74296424e-03 1.78548659e-03 1.05327729e-03 7.72805361e-04
      5.32658258e-03 7.90344030e-02 1.19022660e-01 5.16632460e-02
      2.23893169e-02 1.60269700e-02 1.09131057e-02 1.27546210e-02
      2.10829210e-02 4.97352816e-02 7.58361220e-02 7.16180429e-02
      4.82767411e-02 3.40587907e-02 2.23492086e-02 2.17917506e-02
      2.30748095e-02 1.63244102e-02 4.73050810e-02 1.07832793e-02
      1.84454881e-02 1.65821128e-02 2.01713964e-02 6.16595373e-02
      6.77109212e-02 1.59895122e-02 5.59401652e-03 8.42715520e-03
      7.43075786e-03 1.28533123e-02 4.35257889e-02 5.06806038e-02
      1.57125052e-02 4.91753453e-03 1.11277390e-03 8.50472541e-04
      2.65773898e-03 2.39961836e-02 6.12064674e-02 1.92102149e-01
      1.69559613e-01 8.99703205e-02 2.81588789e-02 8.33573099e-03
      1.41110048e-02 9.35601257e-03 3.10466960e-02 1.97756384e-02
      2.35631056e-02 1.99055616e-02 5.43226451e-02 2.78475136e-02
      1.48836095e-02 1.46335810e-02 1.56823639e-02 2.46150093e-03
      3.91826872e-03 6.02001790e-03 9.79174022e-03 8.45195260e-03
      5.13254479e-03 1.80956360e-03 4.73063951e-03 3.72786517e-03
      1.37368264e-02 3.83312926e-02 1.12844333e-01 2.11375028e-01
      8.68206695e-02 1.95357632e-02 1.12310499e-02 7.48155033e-03
      4.92892321e-03 7.91048780e-02 1.65284470e-01 2.37825960e-01
      2.55425364e-01 2.37524420e-01 1.25143975e-01 7.54104033e-02
      4.81149927e-02 2.33815946e-02 3.05043366e-02 3.41618396e-02
      3.98175195e-02 4.22095060e-02 1.27840921e-01 2.03470290e-01
      1.17980964e-01 4.35354374e-02 1.44967670e-02 4.83959075e-03
      7.03981332e-03 9.00816359e-03 1.80578306e-02 1.86016560e-02
      1.54378107e-02 9.65592265e-03 6.06799871e-03 3.93015798e-03
      1.17286474e-01 1.58993304e-01 7.47580156e-02 1.19173154e-01
      3.78857665e-02 2.21937150e-02 2.17915382e-02 1.23501746e-02
      3.16360630e-02 2.54501313e-01 2.55425364e-01 1.46072328e-01
      9.81836021e-02 6.82882816e-02 2.52499372e-01 8.80909488e-02
      3.63197103e-02 5.59269078e-02 3.35041918e-02 6.15591481e-02
      4.50857542e-02 3.41403708e-02 1.48087084e-01 2.55425364e-01
      1.37828335e-01 2.61091813e-02 1.92848854e-02 5.31206606e-03
      6.78063929e-03 7.52751995e-03 1.13617796e-02 1.57710984e-02
      3.36175300e-02 2.09596641e-02 1.51397083e-02 7.23915640e-03
      3.35821398e-02 4.14785817e-02 2.45239642e-02 1.18007595e-02
      7.88334385e-03 4.61757183e-03 6.32874388e-03 1.05008082e-02
      2.55625341e-02 7.94830099e-02 8.12325031e-02 5.26355989e-02
      3.87196988e-02 3.28215286e-02 3.67725343e-02 2.92545650e-02
      1.76031347e-02 4.70054857e-02 2.14181393e-02 3.58668119e-02
      3.55995484e-02 5.02056591e-02 1.72767371e-01 1.86972126e-01
      3.88624854e-02 1.25970403e-02 1.65760182e-02 1.47233475e-02
      8.49163719e-03 8.40691570e-03 7.73793040e-03 1.45607255e-02
      1.65657438e-02 7.62878451e-03 1.05386404e-02 9.74835921e-03
      2.09214278e-02 4.21571434e-02 1.18153878e-01 9.76759866e-02
      7.47428089e-02 2.59196069e-02 8.77655111e-03 1.28891282e-02
      8.57593305e-03 4.43380624e-02 2.69993767e-02 3.15911658e-02
      3.63132805e-02 7.15912208e-02 4.14195359e-02 2.29901522e-02
      2.17893366e-02 2.51684152e-02 9.71924607e-03 1.60603505e-02
      2.49204002e-02 3.54768001e-02 2.78662089e-02 1.59352906e-02
      6.38808683e-03 2.33850554e-02 1.60969887e-02 2.92708748e-03
      5.09402854e-03 3.71716404e-03 2.23185564e-03 2.07365048e-03
      2.54826248e-03 4.53119446e-03 1.00272419e-02 5.30486135e-03
      5.79422414e-02 1.09566882e-01 1.36903092e-01 1.94847807e-01
      1.73109904e-01 1.30169645e-01 8.13034400e-02 3.85196656e-02
      1.78533643e-02 4.09207344e-02 4.11054790e-02 4.83427234e-02
      6.28877133e-02 1.61335990e-01 2.87509233e-01 1.62835866e-01
      6.93408698e-02 2.17977855e-02 1.69595275e-02 2.62981597e-02
      3.56757082e-02 7.26129338e-02 7.42276311e-02 5.76770641e-02
      3.71025093e-02 2.22253706e-02 1.61535311e-02 2.70248298e-03
      4.06130264e-03 4.23344318e-03 8.75472371e-03 1.04209464e-02
      9.13735200e-03 1.06983865e-02 1.05640963e-02 5.71709871e-03
      1.49036780e-01 2.61863977e-01 1.02864541e-01 4.72578965e-02
      5.45159839e-02 2.87509233e-01 9.10673290e-02 2.85504553e-02
      3.77683081e-02 3.67594734e-02 6.53636158e-02 4.96620983e-02
      6.39654696e-02 2.43236214e-01 2.87509233e-01 1.96472973e-01
      4.22983654e-02 2.46708058e-02 2.25640703e-02 2.51958407e-02
      3.05474140e-02 4.07713316e-02 5.80913313e-02 1.31693885e-01
      8.50116163e-02 6.28413558e-02 3.24682258e-02 5.88242989e-03
      4.00468567e-03 4.13760636e-03 8.59480910e-03 1.28820445e-02
      1.77179761e-02 1.23317800e-02 9.11303610e-03 8.35950673e-03
      5.30505739e-02 6.00451604e-02 3.85741219e-02 3.11782993e-02
      3.58994231e-02 4.22795974e-02 2.48196032e-02 1.29301157e-02
      3.06279752e-02 3.21087018e-02 4.84762713e-02 5.32998629e-02
      7.93305635e-02 2.87509233e-01 2.87509233e-01 6.15988672e-02
      1.94618274e-02 2.31880955e-02 7.33855516e-02 3.51434387e-02
      3.07487994e-02 3.38898227e-02 4.11030836e-02 5.46510071e-02
      3.27151828e-02 4.93745059e-02 4.86436225e-02 4.11753692e-02
      1.29941134e-02 4.44430858e-03 9.31435358e-03 5.31246187e-03
      7.49412645e-03 6.61766250e-03 8.22422095e-03 1.94087457e-02
      3.43969800e-02 2.10285559e-02 2.29019113e-02 3.92827988e-02
      4.44545671e-02 3.13436389e-02 1.93597432e-02 1.78655908e-02
      2.30708532e-02 2.28386037e-02 3.83525826e-02 5.70714809e-02
      7.33314678e-02 5.15616164e-02 2.90976446e-02 1.48475785e-02
      6.20518997e-02 3.86545397e-02 1.82511657e-02 2.74163801e-02
      2.42810454e-02 1.20625123e-02 1.47015406e-02 1.50893396e-02
      2.74470244e-02 5.77065647e-02 3.18984166e-02 1.11723561e-02
      6.35060808e-03 7.14392262e-03 1.14647411e-02 1.59815289e-02
      8.62724148e-03 5.23383124e-03 1.15658855e-02 1.72487609e-02
      2.59796418e-02 2.54831687e-02 2.95346715e-02 5.53312935e-02
      8.75727236e-02 2.16572165e-01 1.22851454e-01 6.04052246e-02
      1.74011476e-02 3.48729305e-02 5.58036231e-02 7.88599700e-02
      1.62181839e-01 1.66284278e-01 1.26298949e-01 8.51438344e-02
      5.09818494e-02 3.79838534e-02 1.99222136e-02 2.47227699e-02
      2.48000212e-02 4.32882607e-02 5.28222285e-02 4.25817408e-02
      5.97398616e-02 5.86601272e-02 3.61800082e-02 2.70902514e-02
      1.93347447e-02 1.54850408e-02 1.01382071e-02 8.27902183e-03
      5.87054528e-03 1.45778405e-02 1.64696462e-02 2.73777936e-02
      1.25721432e-02 2.64606513e-02 2.13141106e-02 6.73229322e-02
      2.18072370e-01 2.64846623e-01 1.58325389e-01 4.08214554e-02
      1.46358013e-02 5.28024510e-02 5.22239059e-02 6.84563518e-02
      8.66365880e-02 1.22968197e-01 2.64846623e-01 1.98175803e-01
      1.44943446e-01 7.99761117e-02 3.81775126e-02 2.79083066e-02
      2.71915793e-02 4.56138216e-02 7.18912110e-02 7.17000067e-02
      5.23544177e-02 4.47011515e-02 5.02721444e-02 2.58774217e-02
      2.06548795e-02 1.75581500e-02 9.96225607e-03 1.67442933e-02
      1.05281109e-02 9.13195033e-03 1.01056388e-02 2.32473556e-02
      2.93045249e-02 3.61044966e-02 4.41599041e-02 6.84153885e-02
      2.64846623e-01 2.64846623e-01 5.50089329e-02 1.76043753e-02
      1.80675164e-02 2.01726139e-01 8.24198201e-02 6.55887723e-02
      8.80498290e-02 7.15970024e-02 1.07721709e-01 7.94062614e-02
      1.24401860e-01 1.31982505e-01 2.64846623e-01 9.77914929e-02
      2.01499797e-02 3.75067033e-02 2.72416156e-02 4.04872596e-02
      3.29129249e-02 4.40071411e-02 1.10052682e-01 2.28867814e-01
      6.15219139e-02 6.04077848e-03 5.70424693e-03 7.34558795e-03
      9.03139729e-03 8.16521700e-03 1.74086764e-02 4.54831496e-02
      4.08750139e-02 1.65096372e-02 8.21843557e-03 6.34878548e-03
      7.79159134e-04 1.24364521e-03 2.99072126e-03 7.37359887e-03
      2.49793883e-02 2.43963264e-02 1.88019201e-02 2.24819984e-02
      2.61901673e-02 1.93286892e-02 2.50784047e-02 1.18773831e-02
      1.12220859e-02 1.25491815e-02 1.97108500e-02 2.70904917e-02
      7.68387839e-02 1.56874150e-01 6.41831681e-02 2.65927538e-02
      1.74416881e-02 1.02966493e-02 8.08543619e-03 2.01528668e-02
      4.03711908e-02 5.22605851e-02 9.48339775e-02 4.14534658e-02
      1.07847573e-02 5.20143146e-03 8.28954205e-03 5.19502163e-03
      5.93920797e-02 7.58885592e-02 2.21708771e-02 1.03378501e-02
      4.89827711e-03 3.75093473e-03 1.73750299e-03 1.12685477e-02
      2.88939569e-02 2.40672916e-01 2.61512816e-01 1.30828053e-01
      3.40197794e-02 1.97503380e-02 1.53227244e-02 5.59421862e-03
      1.26170237e-02 3.65625918e-02 2.61512816e-01 2.61512816e-01
      1.85293213e-01 1.93937272e-01 5.49186915e-02 3.30786556e-02
      3.73159498e-02 2.94563267e-02 9.58930105e-02 1.49429336e-01
      2.17129171e-01 6.00228645e-02 6.02713861e-02 2.84011494e-02
      2.22856347e-02 1.60108935e-02 1.29844807e-02 3.71582210e-02
      9.48904678e-02 2.61512816e-01 2.67477352e-02 4.03330661e-03
      2.77581788e-03 1.80416764e-03 1.12501311e-03 2.86744675e-03
      1.38534959e-02 2.44113609e-01 2.61512816e-01 1.36437356e-01
      3.54325250e-02 2.52561122e-02 8.46039224e-03 5.76853100e-03
      4.10232274e-03 3.40636484e-02 2.24863321e-01 2.61512816e-01
      1.39277980e-01 6.61438778e-02 5.37688285e-02 3.95856723e-02
      3.28948274e-02 5.67601472e-02 1.11002587e-01 8.69301036e-02
      7.58666545e-02 6.20367453e-02 4.04436477e-02 2.08179392e-02
      1.45197827e-02 3.03084683e-02 3.53042707e-02 6.45566359e-02
      3.05305663e-02 5.62758744e-02 1.52597893e-02 2.49338336e-03
      3.16287013e-04 3.06257134e-04 8.47230840e-04 1.19333598e-03
      8.45520291e-03 8.84554982e-02 1.05791532e-01 5.15373796e-02
      1.49326101e-02 6.14175620e-03 1.34321977e-03 1.27218920e-03
      2.04261439e-03 1.33869378e-02 4.59909812e-02 7.73850456e-02
      8.32672045e-02 5.90949245e-02 8.06149244e-02 2.28269044e-02
      1.24791600e-02 2.64866576e-02 2.26084180e-02 1.17047923e-02
      1.11325085e-02 1.17393928e-02 1.94911063e-02 3.64167914e-02
      1.95181184e-02 3.78154740e-02 3.50924060e-02 2.00331900e-02
      7.13721197e-03 6.15145359e-03 9.31050815e-03 1.03887403e-02
      8.23241659e-03 1.00843869e-02 4.49326262e-03 4.13410179e-03
      3.52102797e-03 1.81791596e-02 3.11953649e-02 8.31574127e-02
      1.74154162e-01 7.03313723e-02 2.31175292e-02 1.53752891e-02
      8.96857027e-03 6.46325340e-03 4.46559004e-02 8.69278982e-02
      9.73276943e-02 1.60732657e-01 8.00971761e-02 4.20092158e-02
      2.49286313e-02 2.00679470e-02 1.14240777e-02 8.50456394e-03
      1.18501578e-02 1.21181319e-02 7.59122986e-03 2.26942878e-02
      5.34607358e-02 2.78180018e-02 8.02834053e-03 2.58461456e-03
      1.00605145e-01 1.60047576e-01 4.92035970e-02 1.28801549e-02
      7.24138459e-03 5.58681879e-03 2.34829728e-03 4.31484776e-03
      1.38710868e-02 2.32704788e-01 2.32704788e-01 1.66716725e-01
      1.94572076e-01 5.93863092e-02 3.54987122e-02 3.99017558e-02
      2.86679305e-02 9.08079743e-02 2.32704788e-01 2.32704788e-01
      1.22076333e-01 9.99163389e-02 6.31559789e-02 1.38400912e-01
      5.51763736e-02 2.83761509e-02 7.16660097e-02 2.05613580e-02
      3.97162847e-02 2.69505940e-02 1.74531788e-02 8.27755854e-02
      2.32704788e-01 5.79647124e-02 1.11311395e-02 1.43070035e-02
      8.59787464e-02 2.13140309e-01 5.03964052e-02 1.50379762e-02
      1.12504791e-02 5.01606101e-03 2.78603076e-03 1.99902337e-03
      1.29864663e-02 1.95058540e-01 2.32704788e-01 1.29629940e-01
      6.58717379e-02 5.01211546e-02 3.35632190e-02 3.36961560e-02
      6.32812455e-02 1.18749268e-01 1.80188984e-01 1.71929702e-01
      1.33038193e-01 8.93341228e-02 5.39502874e-02 4.96272855e-02
      7.62869343e-02 6.60623461e-02 1.19423144e-01 3.01452335e-02
      6.01325147e-02 6.91741779e-02 6.25625849e-02 1.47040248e-01
      1.38934955e-01 4.32462730e-02 1.47374701e-02 2.01236364e-02
      2.99849678e-02 3.77741233e-02 2.39846595e-02 7.65920244e-03
      2.91438401e-03 6.98375457e-04 4.36387170e-04 9.71367059e-04
      4.32369113e-03 3.74542885e-02 5.58169037e-02 6.09308966e-02
      5.61408885e-02 8.86004567e-02 2.45502237e-02 1.87057611e-02
      3.48491259e-02 2.69347597e-02 2.95608845e-02 3.29712816e-02
      4.62487824e-02 4.61925007e-02 6.05180152e-02 4.38156873e-02
      8.22895318e-02 6.50468692e-02 3.57306451e-02 1.71910375e-02
      4.39248346e-02 9.53037515e-02 6.42246306e-02 3.55406329e-02
      1.91159043e-02 1.57864597e-02 4.20907419e-03 6.49442477e-03
      8.61872267e-03 1.71673279e-02 4.16205674e-02 8.69582221e-02
      3.50358076e-02 9.57705267e-03 6.36884756e-03 4.11070045e-03
      2.72685383e-03 4.55102921e-02 8.58094320e-02 8.66601691e-02
      1.26402140e-01 7.69678950e-02 6.06780984e-02 3.64982970e-02
      2.13503856e-02 1.14654619e-02 1.43577522e-02 1.76064949e-02
      1.83338206e-02 1.41890226e-02 4.14864644e-02 1.11567207e-01
      5.48152030e-02 1.75492801e-02 5.28660230e-03 2.23343773e-03
      2.74676504e-03 3.16671142e-03 6.23688521e-03 7.10179517e-03
      6.67274371e-03 4.49846173e-03 2.71035102e-03 1.98648777e-03
      1.18362643e-01 1.65873468e-01 6.78807721e-02 8.54574367e-02
      2.89331451e-02 1.74371246e-02 1.90433804e-02 1.29734678e-02
      3.94715816e-02 2.47191250e-01 2.58693069e-01 1.23496503e-01
      8.10636953e-02 7.07174316e-02 2.32374266e-01 7.47007132e-02
      3.02857757e-02 6.81938455e-02 3.04745995e-02 5.88426739e-02
      4.10497971e-02 4.21893708e-02 2.01216355e-01 2.58693069e-01
      1.19838089e-01 2.33560484e-02 2.35883407e-02 5.31135034e-03
      7.95363821e-03 7.98897352e-03 1.07421074e-02 1.61831193e-02
      3.66459563e-02 2.11496782e-02 1.56137934e-02 7.55300839e-03
      7.80647993e-02 8.59082639e-02 5.71297258e-02 3.14562544e-02
      2.16066521e-02 1.28508601e-02 1.59550719e-02 3.20057087e-02
      5.77743426e-02 1.74202994e-01 1.84646338e-01 1.40529186e-01
      9.40617621e-02 6.89780414e-02 7.06860274e-02 8.49790350e-02
      5.90398535e-02 1.05716340e-01 6.83212951e-02 1.21053033e-01
      1.46859571e-01 1.46836728e-01 2.58693069e-01 2.58693069e-01
      9.75011289e-02 3.20104696e-02 4.05486785e-02 7.55084679e-02
      3.40868570e-02 2.25205440e-02 2.08184570e-02 4.12345491e-02
      3.55596095e-02 1.69489756e-02 2.65904181e-02 2.90707462e-02
      1.37450574e-02 1.74986254e-02 1.95105392e-02 2.46366393e-02
      4.22589257e-02 1.20111173e-02 1.30461315e-02 2.11000796e-02
      1.47208404e-02 3.44204679e-02 4.30408344e-02 6.97503239e-02
      5.40003516e-02 5.28344922e-02 4.65671308e-02 7.93529749e-02
      5.32269329e-02 2.92500556e-02 5.46345040e-02 1.16351157e-01
      2.28905812e-01 1.58673912e-01 9.19772610e-02 4.22670543e-02
      3.28925475e-02 1.01550268e-02 1.69441365e-02 7.42609799e-02
      4.16045673e-02 2.12884955e-02 1.90179832e-02 1.65523998e-02
      6.11084187e-03 4.86130128e-03 7.43852509e-03 1.23304361e-02
      2.35387739e-02 4.18027788e-02 3.79477665e-02 4.58267890e-02
      3.78258824e-02 4.72485311e-02 2.81718466e-02 1.20526841e-02
      5.97497029e-03 1.32115753e-02 1.48420669e-02 1.53511884e-02
      1.53665617e-02 4.02108394e-02 1.14155769e-01 5.36079220e-02
      2.00606175e-02 5.76688675e-03 5.52482205e-03 6.84735039e-03
      8.78170878e-03 1.84187777e-02 2.06741430e-02 1.94502939e-02
      1.33519201e-02 6.83497684e-03 5.72263217e-03 6.04269328e-04
      1.08244573e-03 1.41679065e-03 2.86210910e-03 3.55758984e-03
      3.22865741e-03 3.05650546e-03 2.02052272e-03 1.05157250e-03
      1.04356393e-01 1.70870245e-01 6.33778572e-02 3.27477269e-02
      4.73401658e-02 2.03660652e-01 5.53488322e-02 1.76563822e-02
      3.35521139e-02 2.35757306e-02 4.67228480e-02 3.37592363e-02
      5.33710383e-02 2.37154528e-01 2.72168726e-01 1.26775861e-01
      2.74075046e-02 2.06825528e-02 1.74267571e-02 2.24861465e-02
      2.38929726e-02 2.88621932e-02 4.18745726e-02 9.94448736e-02
      6.14636391e-02 4.82101515e-02 2.57189404e-02 5.18925814e-03
      2.78436602e-03 2.80270819e-03 6.09447341e-03 8.88332166e-03
      1.29854931e-02 9.53148026e-03 7.98183866e-03 8.15120339e-03
      8.49643797e-02 1.02532543e-01 8.01406726e-02 5.59212938e-02
      5.19689247e-02 5.45294471e-02 4.92536910e-02 2.74939295e-02
      4.77766879e-02 9.20027420e-02 1.34708524e-01 1.64147213e-01
      1.71635568e-01 2.72168726e-01 2.72168726e-01 1.12643488e-01
      3.74398939e-02 4.65615503e-02 2.65888840e-01 9.82857421e-02
      5.60512729e-02 6.15761168e-02 8.11273083e-02 8.40869099e-02
      5.22705168e-02 8.90271738e-02 1.03964739e-01 1.35039091e-01
      3.66684012e-02 8.01298954e-03 1.61461867e-02 8.13922100e-03
      1.09223528e-02 9.81972646e-03 1.32253096e-02 4.48666811e-02
      2.13604737e-02 3.02198790e-02 5.54316901e-02 3.65516990e-02
      2.34470274e-02 2.53299810e-02 3.88594195e-02 2.09758580e-02
      1.17822746e-02 8.79204124e-02 1.58583745e-01 2.72168726e-01
      1.94252819e-01 1.22964002e-01 4.95385341e-02 3.61111239e-02
      1.36151277e-02 2.33551338e-02 2.48690933e-01 1.07035376e-01
      4.27999943e-02 4.09609266e-02 3.26038674e-02 1.56642031e-02
      1.52139356e-02 2.48290114e-02 4.57410850e-02 1.05084836e-01
      2.50145383e-02 1.55437365e-03 3.13018262e-03 1.69081101e-03
      2.36197282e-03 3.97126237e-03 9.15207807e-03 2.59710662e-02
      4.57378477e-03 5.15036564e-03 5.14319912e-03 8.63210578e-03
      1.61404219e-02 5.42184971e-02 2.49335151e-02 1.10424999e-02
      2.94010947e-03 6.78133545e-03 8.44432041e-03 1.20390579e-02
      2.64092833e-02 2.96772122e-02 2.87527107e-02 2.02785227e-02
      9.20286216e-03 8.00087862e-03 2.93690455e-03 4.69097635e-03
      5.41196717e-03 9.16236360e-03 1.17314858e-02 8.92249681e-03
      1.00643784e-02 6.87028002e-03 4.32264153e-03 4.63933451e-03
      3.91527265e-03 2.99962657e-03 1.57280092e-03 1.56386034e-03
      9.35071672e-04 2.33473233e-03 2.16132123e-03 3.63087771e-03
      4.84000146e-03 1.37058413e-02 1.02137476e-02 3.30409259e-02
      1.32193565e-01 2.64662206e-01 6.73586056e-02 1.69048943e-02
      6.72383141e-03 2.72949040e-02 3.06402370e-02 3.42578180e-02
      4.05135117e-02 5.49595281e-02 1.37324810e-01 9.00371373e-02
      7.21450299e-02 4.20660824e-02 2.09677555e-02 1.22103486e-02
      1.11209955e-02 1.94493514e-02 3.14585045e-02 3.50062065e-02
      2.61626095e-02 2.55154092e-02 3.07402797e-02 1.28841996e-02
      9.06412676e-03 7.65149388e-03 4.69308812e-03 8.24987236e-03
      5.65006817e-03 4.70682094e-03 6.88540470e-03 1.33449659e-02
      6.92344010e-02 7.56325275e-02 8.71496797e-02 9.55852419e-02
      2.64662206e-01 2.64662206e-01 6.31172061e-02 2.26258747e-02
      2.78840475e-02 2.64662206e-01 1.42243102e-01 7.23069087e-02
      9.71256793e-02 8.57697576e-02 1.04616061e-01 7.97575936e-02
      1.40649721e-01 1.78822547e-01 2.64662206e-01 1.69185743e-01
      2.35800464e-02 4.18004915e-02 2.54438762e-02 3.79418470e-02
      3.17518525e-02 4.43354845e-02 1.59558207e-01 2.64662206e-01
      9.60889384e-02 8.37488193e-03 5.88013139e-03 6.67650579e-03
      9.27838124e-03 9.32396576e-03 1.77932885e-02 5.90929873e-02
      7.70560876e-02 1.09046347e-01 1.55229807e-01 1.13326497e-01
      7.64280781e-02 2.68481169e-02 1.80798564e-02 9.60765686e-03
      1.63839199e-02 2.64662206e-01 1.36997133e-01 4.20394577e-02
      4.39487807e-02 3.31498086e-02 2.09251698e-02 2.37533320e-02
      4.06204872e-02 8.26661810e-02 2.64662206e-01 1.09697290e-01
      9.88924690e-03 1.72436573e-02 6.61991443e-03 8.64318758e-03
      1.31641645e-02 3.31804119e-02 9.26709324e-02 1.33123711e-01
      4.53314483e-02 1.28347799e-02 1.17847370e-02 2.87433178e-03
      4.48791729e-03 8.62799678e-03 1.23796472e-02 3.35003994e-02
      2.79084556e-02 4.83360626e-02 1.10964514e-02 4.13436117e-03
      2.23474856e-03 1.72697275e-03 6.57929457e-04 3.99197591e-03
      1.02970628e-02 1.25846058e-01 2.30403215e-01 7.30104521e-02
      1.40603427e-02 7.06019299e-03 4.97884816e-03 1.56484440e-03
      4.38287761e-03 1.68881342e-02 1.47161871e-01 2.38159150e-01
      8.06110278e-02 5.79890683e-02 1.81399956e-02 1.00731524e-02
      1.45228803e-02 1.59619395e-02 5.26381731e-02 6.48698509e-02
      8.69223028e-02 2.29832381e-02 1.75787117e-02 1.00521017e-02
      8.09801277e-03 6.84762467e-03 5.55870123e-03 2.17713956e-02
      1.06653847e-01 2.42413312e-01 2.73591578e-02 3.39506776e-03
      2.44398159e-03 1.64816482e-03 1.59420201e-03 3.45521024e-03
      1.79947689e-02 2.42413312e-01 2.42413312e-01 1.26575202e-01
      3.76485251e-02 2.92831473e-02 9.40567441e-03 6.44490402e-03
      4.92605753e-03 3.75709087e-02 2.32854441e-01 2.42413312e-01
      1.55174166e-01 8.49710405e-02 6.91320673e-02 4.71072495e-02
      3.37041356e-02 6.61399961e-02 1.08074702e-01 8.48919153e-02
      7.45373964e-02 6.67011514e-02 4.46334295e-02 2.50565950e-02
      1.78684928e-02 4.17829007e-02 5.29355407e-02 6.88309744e-02
      6.59529343e-02 1.17206313e-01 4.32585254e-02 7.37209991e-03
      8.45546077e-04 9.02458909e-04 1.93781941e-03 2.32339208e-03
      1.96375139e-02 1.98677853e-01 2.42413312e-01 1.31736040e-01
      3.84170339e-02 1.62825584e-02 7.00185308e-03 6.41944166e-03
      1.15843005e-02 3.64707336e-02 8.52122754e-02 1.67987809e-01
      2.11871132e-01 1.70363247e-01 2.42413312e-01 7.76003748e-02
      3.99118029e-02 6.11284263e-02 5.14542162e-02 2.39840187e-02
      2.71373391e-02 2.66556926e-02 5.86734973e-02 1.20596081e-01
      6.11372329e-02 9.93724540e-02 7.78659433e-02 3.99428979e-02
      1.91771481e-02 2.26376634e-02 7.32682273e-03 2.98294262e-03
      3.71582131e-03 2.35367450e-03 4.08386299e-03 7.39302812e-03
      1.50399217e-02 1.96646135e-02 2.89072488e-02 1.50743686e-02
      9.97044425e-03 1.17069865e-02 9.48638655e-03 9.25150793e-03
      2.18223073e-02 3.38994376e-02 6.80380687e-03 2.20955387e-02
      3.50946784e-02 5.79551086e-02 1.10890985e-01 1.11223184e-01
      3.12078837e-02 2.72971503e-02 2.00794917e-02 4.95359348e-03
      1.44779989e-02 2.02417411e-02 2.95483768e-02 5.18981405e-02
      5.90850525e-02 1.98898837e-02 8.74051359e-03 4.61822376e-03
      4.98077460e-02 9.05424505e-02 2.62283050e-02 5.13966568e-03
      2.35376880e-03 1.68611261e-03 6.49753201e-04 1.40163768e-03
      6.41701929e-03 1.22281902e-01 1.86525330e-01 6.78999573e-02
      5.46674095e-02 1.91810410e-02 1.07620787e-02 1.54535072e-02
      1.52275348e-02 4.97097857e-02 1.20597243e-01 1.65935963e-01
      4.49915603e-02 3.17134447e-02 2.57491488e-02 5.23619093e-02
      2.07318813e-02 1.12025850e-02 4.03945670e-02 8.91321898e-03
      1.70059018e-02 1.05915191e-02 1.05159273e-02 4.90031876e-02
      1.31172284e-01 2.03350149e-02 4.63735498e-03 7.99447391e-03
      8.33321512e-02 1.89916983e-01 4.71458584e-02 1.63351167e-02
      1.30186072e-02 5.37985517e-03 2.77729728e-03 2.26305565e-03
      1.32165784e-02 1.99617341e-01 2.08923802e-01 1.37463167e-01
      7.99570978e-02 6.18099980e-02 3.89847457e-02 3.45135480e-02
      7.57263973e-02 1.14705160e-01 1.67738780e-01 1.65810615e-01
      1.46483630e-01 9.65226963e-02 5.69973998e-02 5.07418700e-02
      9.87394080e-02 9.37535614e-02 1.20715089e-01 3.26291211e-02
      7.37577900e-02 9.83725935e-02 7.66509995e-02 1.44393042e-01
      1.19537510e-01 4.79446761e-02 1.57723557e-02 1.96665414e-02
      6.52269125e-02 8.76966119e-02 5.90569749e-02 1.88703481e-02
      7.21236970e-03 3.59113608e-03 2.56638508e-03 4.99871047e-03
      1.24096144e-02 6.38188720e-02 1.14708990e-01 1.48579895e-01
      1.60650343e-01 2.08923802e-01 8.01372975e-02 5.37900589e-02
      7.35384449e-02 5.47462068e-02 6.80616051e-02 8.32660124e-02
      1.13373555e-01 1.33911297e-01 1.88368067e-01 1.28181979e-01
      2.07074001e-01 1.43089101e-01 7.14265406e-02 4.77226935e-02
      1.11129098e-01 2.08923802e-01 1.83684260e-01 7.55622163e-02
      4.35043834e-02 3.50099616e-02 8.66744481e-03 1.62787735e-02
      6.01038150e-03 8.98280367e-03 6.36438699e-03 4.43524169e-03
      4.91862930e-03 4.97250771e-03 3.54403607e-03 9.13988054e-03
      1.29417889e-02 4.38895589e-03 1.72129758e-02 3.01871914e-02
      5.71886115e-02 1.17351934e-01 1.21230446e-01 3.15075554e-02
      2.00429279e-02 1.21891350e-02 2.11908389e-02 5.71136139e-02
      6.38015866e-02 7.32327849e-02 8.30248818e-02 8.96893367e-02
      3.85345928e-02 2.04923805e-02 1.36089474e-02 2.93954946e-02
      6.84284121e-02 8.25268924e-02 6.28993213e-02 2.00185869e-02
      1.23458747e-02 8.24598689e-03 8.89407285e-03 1.10014174e-02
      4.42009084e-02 6.39386624e-02 2.37010773e-02 2.05904450e-02
      8.29214137e-03 4.73473221e-03 6.63025212e-03 5.90243936e-03
      1.94734652e-02 9.39353555e-02 1.32342368e-01 3.99493277e-02
      2.58289985e-02 2.91149337e-02 7.91636556e-02 2.38215085e-02
      1.06126294e-02 3.37277204e-02 1.14204763e-02 2.32832674e-02
      1.49474135e-02 2.14335863e-02 1.05056681e-01 2.41742134e-01
      3.76879908e-02 8.36313795e-03 1.13438061e-02 2.29777419e-03
      3.85921542e-03 3.57957021e-03 4.12782934e-03 6.56542461e-03
      1.53864035e-02 8.11635237e-03 6.13897527e-03 3.41873290e-03
      7.13065639e-02 7.19117448e-02 5.25362343e-02 3.26944962e-02
      2.30917484e-02 1.31973065e-02 1.51826562e-02 3.60450558e-02
      5.05260788e-02 1.42644376e-01 1.60476491e-01 1.43447310e-01
      9.09125805e-02 5.98616004e-02 5.85074574e-02 9.41618830e-02
      7.01402426e-02 9.12735909e-02 7.56490082e-02 1.41025335e-01
      1.88654810e-01 1.60636455e-01 2.41742134e-01 2.41742134e-01
      9.59951803e-02 3.13627422e-02 3.84158753e-02 1.04105711e-01
      4.43036966e-02 2.25639194e-02 2.11348869e-02 4.42458242e-02
      3.00429910e-02 1.51220467e-02 2.50614602e-02 3.07021197e-02
      1.97431426e-02 3.09110247e-02 4.12135758e-02 6.32655099e-02
      1.20469518e-01 3.45006287e-02 3.16142216e-02 3.81640643e-02
      2.49558762e-02 7.54651055e-02 9.87173095e-02 1.55611262e-01
      1.37401223e-01 1.39752477e-01 1.16572708e-01 1.74421400e-01
      1.05457351e-01 5.35485782e-02 1.21275060e-01 2.41742134e-01
      2.41742134e-01 2.41742134e-01 1.62202507e-01 7.94043764e-02
      6.21247739e-02 1.83497258e-02 3.66377793e-02 1.30738333e-01
      8.27151239e-02 5.24084605e-02 4.81847562e-02 3.16092037e-02
      1.18838297e-02 1.20393848e-02 1.80108286e-02 2.31585670e-02
      1.16717722e-03 5.85532840e-03 1.17643168e-02 2.33449880e-02
      4.93490547e-02 5.31312674e-02 1.35118151e-02 6.16012048e-03
      2.41037505e-03 2.93302462e-02 7.30066895e-02 7.56249651e-02
      7.55405277e-02 6.14783689e-02 6.04058579e-02 3.17845680e-02
      1.90648921e-02 1.48821454e-02 5.71937412e-02 1.31374091e-01
      1.66350767e-01 1.25969708e-01 3.95175107e-02 2.33189315e-02
      1.56445093e-02 1.94640253e-02 2.41759121e-02 1.05649419e-02
      1.57490969e-02 1.40379453e-02 1.60428546e-02 1.27870254e-02
      6.72067329e-03 7.36860186e-03 9.02908202e-03 7.39840232e-03
      3.42433602e-02 5.03836796e-02 1.75475776e-02 1.08583122e-02
      1.88243706e-02 5.98075390e-02 1.45681798e-02 5.33107575e-03
      1.40846577e-02 7.39786448e-03 1.65810697e-02 1.11612631e-02
      2.17189547e-02 1.05066396e-01 2.52157360e-01 3.49555388e-02
      8.22041184e-03 8.17279518e-03 6.71465462e-03 9.53264907e-03
      9.14634671e-03 1.00838160e-02 1.39783071e-02 3.41604464e-02
      2.01154146e-02 1.65962186e-02 1.03342524e-02 2.12240987e-03
      8.98636528e-04 9.32235213e-04 2.26414087e-03 2.93892040e-03
      4.51519853e-03 3.44136893e-03 3.20395268e-03 3.62571678e-03
      5.95977940e-02 7.81869739e-02 7.38504529e-02 4.70492877e-02
      3.56318727e-02 3.51378024e-02 4.46913801e-02 2.56385971e-02
      3.36835943e-02 9.64584425e-02 1.43165395e-01 1.80984199e-01
      1.61830083e-01 2.54253119e-01 2.54253119e-01 9.52842385e-02
      3.23962048e-02 4.09707725e-02 2.54253119e-01 1.06631115e-01
      4.54229377e-02 4.94735390e-02 7.20842630e-02 5.97705096e-02
      3.88160385e-02 7.03838244e-02 9.36623141e-02 1.57791018e-01
      3.97630930e-02 6.16923580e-03 1.18178464e-02 5.47926361e-03
      6.85487920e-03 6.50199736e-03 9.41569638e-03 4.41228673e-02
      4.26292978e-02 6.03754558e-02 1.08375318e-01 7.90191516e-02
      4.96029817e-02 5.24757020e-02 7.21982867e-02 3.64194438e-02
      1.95173323e-02 1.55135170e-01 2.54253119e-01 2.54253119e-01
      2.54253119e-01 1.78558961e-01 7.47352690e-02 5.61622828e-02
      2.11942066e-02 4.17529792e-02 2.54253119e-01 1.77481517e-01
      8.92298445e-02 9.00295675e-02 5.73276393e-02 2.91359108e-02
      3.52037176e-02 5.38657717e-02 7.32310340e-02 1.38871357e-01
      3.54659446e-02 3.14771943e-03 6.85359165e-03 4.51924792e-03
      7.74900615e-03 1.11281490e-02 2.21301522e-02 3.97478715e-02
      1.96100809e-02 4.63688858e-02 4.72938679e-02 4.11557965e-02
      2.13438123e-02 1.70598421e-02 1.34183876e-02 8.87657981e-03
      7.92826619e-03 5.52626066e-02 1.23521380e-01 1.62120596e-01
      1.25116095e-01 4.24212478e-02 2.25241743e-02 1.58788748e-02
      2.14163437e-02 2.67541539e-02 2.37623807e-02 3.39887291e-02
      2.58600693e-02 3.04946024e-02 2.73637436e-02 1.85439624e-02
      2.03846265e-02 2.51401179e-02 1.84293222e-02 5.87099371e-03
      3.36868269e-03 2.63603684e-03 2.40434008e-03 3.21802916e-03
      5.89245744e-03 5.79807628e-03 7.32640410e-03 7.96029158e-03
      1.41287141e-03 5.23185125e-03 3.72746494e-03 1.13980444e-02
      5.27869798e-02 1.20921023e-01 1.77521352e-02 4.52893693e-03
      2.19073426e-03 9.94974934e-03 1.20452959e-02 1.19495858e-02
      1.37927989e-02 1.64167024e-02 4.16236930e-02 2.69497707e-02
      2.32144762e-02 1.59816854e-02 7.81918224e-03 3.67987738e-03
      3.12695256e-03 6.07326254e-03 9.45717748e-03 1.18001960e-02
      8.79368093e-03 9.69126821e-03 1.23511134e-02 4.61159786e-03
      2.89455638e-03 2.25633895e-03 1.49743236e-03 2.64122942e-03
      2.03347555e-03 1.65515614e-03 3.13636800e-03 5.21602156e-03
      7.27003142e-02 7.90998191e-02 8.75282660e-02 8.30702409e-02
      2.20856503e-01 1.64444327e-01 4.86479811e-02 1.86411906e-02
      2.47594137e-02 2.71475047e-01 1.38525069e-01 5.10131046e-02
      6.73116371e-02 6.69036135e-02 6.71488792e-02 5.29084653e-02
      1.00281924e-01 1.47948951e-01 2.71475047e-01 1.66103721e-01
      1.70051884e-02 2.85836905e-02 1.50655834e-02 2.20395233e-02
      1.97104346e-02 2.83467881e-02 1.42837748e-01 2.71475047e-01
      8.85746777e-02 7.13916961e-03 3.95026850e-03 3.92322848e-03
      6.01012912e-03 6.93645654e-03 1.15395356e-02 4.88064811e-02
      1.17467701e-01 1.76104248e-01 2.71475047e-01 2.19427899e-01
      9.92258936e-02 3.45443375e-02 2.44164430e-02 1.40282717e-02
      2.56942715e-02 2.71475047e-01 2.01967105e-01 7.97169730e-02
      8.93217772e-02 5.71805723e-02 3.92338000e-02 5.37445210e-02
      8.34800377e-02 1.20805420e-01 2.71475047e-01 1.40361920e-01
      1.96018796e-02 3.55428718e-02 1.71174370e-02 2.61605792e-02
      3.24059725e-02 7.32539967e-02 1.30386174e-01 1.52549863e-01
      5.51385097e-02 2.42715441e-02 2.59683859e-02 7.58404192e-03
      1.23648532e-02 1.68777145e-02 2.57658176e-02 5.28752282e-02
      2.75384169e-02 5.86941130e-02 7.91019425e-02 6.51679784e-02
      2.46783737e-02 1.12393573e-02 8.85722321e-03 1.27172330e-02
      1.57324988e-02 2.88739726e-02 3.91362831e-02 2.66595706e-02
      2.96032541e-02 3.10277324e-02 2.68649869e-02 3.01818512e-02
      3.71094458e-02 2.58020628e-02 2.41294354e-02 1.43832425e-02
      1.15407975e-02 1.30156241e-02 1.09130684e-02 1.85620096e-02
      1.61172859e-02 2.35242266e-02 2.73614936e-02 1.54413693e-02
      9.38661676e-03 7.90635776e-03 9.03420895e-03 4.14946815e-03
      8.28053057e-03 5.50699374e-03 7.33359577e-03 9.43656918e-03
      6.05842359e-02 1.71631798e-01 1.37296999e-02 1.51327904e-03
      9.98192700e-04 7.13864982e-04 1.10969786e-03 2.08863802e-03
      1.17683057e-02 1.36367366e-01 2.33151183e-01 5.67710400e-02
      1.86860058e-02 1.57956630e-02 4.90571512e-03 3.37131857e-03
      2.96175596e-03 2.16635708e-02 1.16852336e-01 1.49868414e-01
      8.90926942e-02 5.46119548e-02 4.58901450e-02 2.78583486e-02
      1.67911388e-02 4.04438823e-02 5.28426208e-02 4.03516702e-02
      3.49698365e-02 3.45828794e-02 2.38935687e-02 1.61506943e-02
      1.11388247e-02 2.89523415e-02 3.97568271e-02 3.77778895e-02
      7.23785684e-02 1.33629858e-01 5.94707355e-02 1.01770181e-02
      1.33693591e-03 1.32159982e-03 2.20395857e-03 2.23658793e-03
      2.35394388e-02 2.12218627e-01 2.33151183e-01 1.64096504e-01
      5.11490852e-02 2.50837095e-02 1.32150687e-02 1.22262146e-02
      2.27473117e-02 5.03645800e-02 7.90896118e-02 1.82601571e-01
      2.33151183e-01 2.33151183e-01 2.33151183e-01 1.23416223e-01
      5.98006397e-02 7.12099224e-02 5.97139597e-02 2.44590249e-02
      3.47958691e-02 3.16387899e-02 8.53757039e-02 1.85569495e-01
      9.22084749e-02 1.25005186e-01 8.23032111e-02 3.77963446e-02
      5.44546247e-02 4.95482981e-02 1.49526075e-02 1.58807877e-02
      2.54742336e-02 1.28990244e-02 1.61710270e-02 2.84873042e-02
      4.88214567e-02 5.91820329e-02 6.07862137e-02 3.58504727e-02
      2.90923528e-02 3.67433168e-02 3.11111622e-02 2.81598233e-02
      6.98085204e-02 1.09882772e-01 2.08932124e-02 5.76616861e-02
      9.26095471e-02 1.53566420e-01 2.33151183e-01 2.33151183e-01
      1.02336206e-01 8.73430818e-02 6.06506169e-02 1.72688980e-02
      4.73754704e-02 7.62222409e-02 9.24488530e-02 1.54978782e-01
      2.19641358e-01 6.02324381e-02 2.81672105e-02 2.11237986e-02
      3.76023795e-03 2.09697988e-03 5.67512866e-03 2.75080316e-02
      3.58626284e-02 1.13224434e-02 3.57362744e-03 2.78610690e-03
      2.83750286e-03 1.70561410e-02 8.45791213e-03 9.61205550e-03
      1.68737955e-02 2.09888406e-02 1.34201869e-02 8.95221345e-03
      1.48616256e-02 1.57815516e-02 1.16483346e-02 6.84785470e-03
      1.94531567e-02 2.93020010e-02 8.64139795e-02 1.26424879e-01
      2.75131837e-02 1.96028147e-02 2.01566890e-02 9.69653297e-03
      1.77985746e-02 4.06861976e-02 4.66882139e-02 9.21039730e-02
      1.11055285e-01 1.59817971e-02 1.02688419e-02 1.40116252e-02
      3.37691568e-02 6.45881146e-02 1.75124351e-02 6.64659031e-03
      5.49926003e-03 2.11603427e-03 9.98750445e-04 1.00099389e-03
